finita -0.0017058469 0.012765734 -0.002787704 0.006779175 0.010508142 0.0014361236 0.00010758419 0.017737618 -0.000114596725 0.003280216 -0.0058998987 -0.009194593 0.0042610774 -0.0065048723 -0.009108105 -0.007633163 -0.0009467334 0.0002268988 0.0021896292 -0.008014314 0.0071175965 0.0059251445 0.0090114735 -0.002940929 0.004425673 0.0062451507 -0.0137801785 -0.0055965646 -0.0051333476 0.0081030745 -0.0033990352 -0.006047761 0.0029145174 -0.0036198113 0.004458349 0.013971049 0.008699722 0.0027578848 -0.008596591 -0.014919795 -0.003629376 -0.012042138 0.0021476806 0.0040058987 -0.0019135746 -0.0026206153 -0.0007509091 -0.006584412 -0.004015941 0.006759647 -0.002367221 -0.0124028465 -0.0046734894 -0.0043784515 -0.0017997226 0.006926856 0.008628173 0.00618749 0.0010857391 -0.0074642114 -0.0084735 0.008804909 0.0111612035 0.0048702704 -0.00595923 0.010712974 0.0034242265 -0.0010748181 -0.0021058575 0.00697847 0.0021062456 -0.0018157832 0.006964686 -0.0038022576 0.0013487344 -0.0008336072 -0.008429881 -0.0013881498 -0.00027018666 -0.005883739 -0.007000661 -0.005431724 0.0039566313 0.0071781864 -0.0063389535 -0.010377724 -0.0019951938 0.011675676 -0.0030445459 0.00078153214 0.0030604207 0.0055662896 -0.0049141943 0.00058758666 0.0042980034 -0.004889594 0.004731577 0.0019657286 0.008152269 -0.009285923 
juntos 0.004874226 0.009006105 0.005670502 -0.00015067944 0.007683891 -0.0066075656 0.008429614 0.013102117 -0.014052809 -0.009309081 0.0007585904 1.3297322e-05 0.009384803 0.012716589 0.0011619198 0.0031348567 0.01256612 -0.0064895363 -0.0022751628 -0.014867367 -0.00055804465 0.008435746 0.0026693884 -0.010374365 0.006073637 -0.0039390237 -0.0066654836 -0.0025394694 -0.0033729663 -0.0062669893 0.0061918073 0.0015067162 0.009825879 0.00067898055 0.007935942 0.0055019194 -0.0061367997 -0.006177735 -0.011875124 -0.009186005 -0.0058504352 -0.006740156 -0.0031386116 0.0013954799 0.012976087 0.0018813931 0.0019843096 0.0039556026 0.007261282 0.01014211 0.008363217 -0.004441436 0.0062880856 -0.003508198 0.0033104245 -0.004025901 0.011311343 -0.0010533495 -0.0015013022 0.0068781725 -0.0067533385 -0.009536157 0.010556192 0.003444304 -0.00897875 0.00042331536 -0.005486097 0.0035703727 -0.0066657956 0.0044242796 0.006216451 0.013251527 0.013502364 0.0042618704 0.018027844 0.0004159883 -0.005833376 0.0007246552 0.0017778995 0.0032153442 0.001607188 0.0031574348 -0.000925928 0.014688896 0.0016730558 -0.0035733336 0.013463527 0.004956803 0.008714442 0.010019339 -0.0031216012 0.0043366402 0.003634408 0.0072880867 0.01671167 0.0075148526 0.01053436 -0.0021058724 -0.003537653 -0.0066681094 
Pas -0.0008945509 0.00017820981 0.0068134563 0.005579978 0.002235267 -0.028564185 0.0025609694 0.021778384 -0.014271707 -0.024161778 0.0015416436 -0.009934494 0.004180281 0.014439552 0.002430941 -0.012421333 0.006390401 -0.011304436 -0.003506397 -0.028465189 0.011427623 0.006426444 0.005099332 -0.0054773926 -0.0039741173 -0.0028306907 -0.014623425 -0.00972082 -0.010964255 0.0041428832 0.013338083 -0.01034654 0.0017065735 -0.018561667 -0.008913596 0.011261826 0.006942426 -0.015585613 0.0042879945 -0.025876129 -0.0023200624 -0.017016493 0.005672069 0.00045776027 0.0074284663 -0.004295397 -0.013055915 0.003267057 0.012841746 0.016655691 0.008254813 -0.01789972 -0.00052030076 0.0035589973 -0.013873046 0.00824324 0.009761153 0.0042717317 -0.010384254 0.00045188656 -0.003329666 -0.004889088 0.007245422 -0.00778863 -0.009846669 0.02746455 0.0015518666 0.002956518 -0.022633482 0.015318097 -0.0077514434 0.0039166473 0.024545006 -0.002838819 0.01726848 -0.009409312 -0.0012314749 -0.0039678896 -0.0077132606 -0.0070146685 -0.013738054 -0.00048640676 -0.007338371 0.023591647 -0.0035829202 -0.0134186465 0.015766341 0.00094192015 0.017210217 0.013100154 0.00674025 0.00586976 0.0012422623 -0.0061896807 0.018870318 0.00760504 -0.00089910714 -0.019460306 0.0025443377 -0.00820037 
morir -0.015263247 0.006885603 0.005096224 0.00575893 0.0061372537 -0.013112583 -0.0007400457 0.02740305 -0.001923407 -0.007632083 -0.011544859 -0.0124008525 -0.0069585326 -0.00021736958 0.0005180256 -0.0017279497 2.7208414e-05 -0.007603912 0.0015230557 -0.013077989 0.014378403 0.007416563 0.018479068 -0.0048983917 0.006433866 -0.0024128535 -0.0072452696 -0.0111686075 0.00023017333 0.007454464 0.015491314 -0.009683079 0.0014774591 0.0029643062 0.006096735 0.003943639 -0.0089910645 -0.0030151093 0.00174459 -0.0069189104 -0.0043276832 -0.01856312 0.004773599 -0.003704776 0.003201077 -0.008581478 -0.019453982 -0.004445713 -0.0040830798 -0.0003139394 -0.0015608906 -0.012294023 -0.00423418 0.0040980694 -0.008325886 0.0094008995 0.0041294293 0.0009916497 -0.009059241 0.002670484 -0.002835445 0.0034019302 -0.0022491058 -0.004351737 -0.0082313595 0.008056082 0.009219409 0.004274573 -0.015172108 0.009446224 -0.00927747 0.010294472 0.006161796 -0.006668527 0.021310363 -0.00068537437 0.009239859 0.0010882043 -0.008293598 0.004047999 1.5195794e-05 -0.0021759395 -0.015622976 0.00748148 0.00650941 0.0006652789 0.012171731 0.012276887 0.0058767647 -0.00063158025 0.01847599 -0.0056093093 -0.00904638 -0.0069292905 0.022220474 0.006199113 0.008768141 -0.009208716 0.005142363 -0.003693864 
medio -0.014018302 0.017770922 0.0012910217 0.0044642603 0.0022856423 -0.012840408 0.013702585 0.04062672 -0.010571798 -0.017428765 0.0039422745 -0.023095138 -0.001523397 0.0020454081 -0.002442707 -0.009213137 0.01815293 -0.0019036346 -0.009351805 -0.025311828 0.0017955399 0.0054813777 0.004607451 -0.013436395 0.003391086 -0.0011861365 -0.022585228 -0.008937862 -0.009015962 0.01253805 0.012045101 -0.011244065 -0.0016313241 -0.015852725 0.004494768 0.022645632 0.007336609 -0.00027678546 -0.0008019947 -0.027727162 0.0016682717 -0.020979391 -0.008965202 0.006660248 0.008777628 -0.011886664 -0.018740106 -0.0020662346 0.015833084 0.012504174 -0.003407651 -0.020836186 -0.006920162 0.0050910763 -0.0056095887 0.008616092 0.0067159045 -0.0089255 -0.025731089 -0.007819316 0.0037560803 0.007052023 0.0069162683 0.00042922178 -0.02134961 0.020993887 0.011399485 0.0137692895 -0.027689246 0.016689809 0.004263101 0.0073526227 0.024321798 0.006907664 0.024641776 0.0076607 -0.0036177707 -0.009999726 -0.013495329 0.007066681 -0.004844893 -0.0076831905 -0.0102119455 0.022408118 -0.0035681296 0.0010181059 -0.0011425578 0.007623329 0.008297299 0.0066031218 0.014859836 0.013558024 0.0002856361 -0.009068599 0.03194097 0.009819707 0.012599226 -0.018942803 0.0026426609 0.006219847 
supo -0.008704347 -0.0071204514 0.0030088509 0.0057004155 -0.008295216 0.0049217897 -0.0056185285 0.016153889 0.00113395 -0.013214012 -0.0062559806 0.0031803506 -0.0049637593 -0.0035790736 0.0068628993 -0.004594093 0.0012323644 -0.008837608 0.0018338045 0.0012618956 -0.0038820987 -0.004602971 0.0006796735 -0.009570268 -0.00044825155 -0.0015911267 -0.009535804 -0.0037112907 0.0005636218 -0.005261321 -0.004150709 0.00023678647 -0.007553278 0.0053179245 -0.00021642161 0.0073325303 0.0029593136 -0.0029117472 0.00606338 -0.013170846 -0.004488206 0.0030579874 -0.007455376 0.008484 -0.003820835 0.0044305096 -0.0066761035 -0.007133592 0.0018256673 0.0018281096 0.006588734 -6.67969e-05 -0.002804589 0.007239211 -0.009559229 0.00630806 0.00674686 0.005874104 0.000868564 0.006696853 0.0026211503 0.0021828804 -0.0073348247 0.0058686873 -0.002277334 0.007567624 -0.008780635 -0.0009623524 -0.010865383 -0.004086455 0.0014090497 0.0044424552 0.0047181207 -0.010249428 0.0074027386 0.0052027544 -0.006095979 0.006749804 -0.012175952 0.0007603776 -0.010680603 0.007874521 -0.012332745 0.007826754 0.004136779 0.00025482022 0.00029463746 -0.0016375735 0.007968602 0.0065092826 -0.0019402675 -0.0047732047 0.0048011676 -0.001042089 0.011344889 -0.0027024283 0.010774963 -0.009078793 0.0069970395 -0.0046396167 
pies 0.005207596 -0.0018117472 0.006454444 -0.00520863 0.003259723 -0.0048221867 0.0060305325 0.014341524 -0.0011614629 -0.011658082 -0.009503328 -0.013855687 0.0056851734 0.0008510072 0.008147783 0.0059532817 0.010456399 -0.008842782 -0.0035074218 -0.0052924706 0.0070851785 0.0063736476 1.4925725e-05 0.0059091174 0.0058437167 -0.00078038604 -0.010240669 0.0052455035 0.001043765 -0.00043931324 0.00424725 0.00722668 0.012313224 -0.0067792633 0.001612231 0.002708055 0.005344768 0.00092528365 0.0058907107 -0.005034551 0.00446952 -0.0095542725 -0.0022196504 0.0051047127 0.009913156 -0.0026282454 -0.004973751 -0.0062086517 0.00456397 0.0025634074 0.0069727036 -0.0136247035 -0.008610796 0.009350362 -0.0029137705 -0.003690732 0.006354224 -0.0025367602 -0.007952559 0.009217769 0.007795634 -0.007412256 -0.0052309725 -0.004825537 -0.0106076915 -0.0001764659 0.00974162 0.0034318208 -0.0058317534 0.0025580549 -0.007300755 0.0044110026 0.0033582943 -0.0017719207 0.00016500824 0.0018039866 0.005320197 0.0024839442 0.001312102 -0.009695811 0.00068078004 -0.00062023953 -0.0089157075 0.0065136747 0.00424135 0.008171615 -0.0039455 0.0077886963 -0.0034849797 0.007605552 0.0059236414 0.009988209 -0.007760371 -0.0027744565 0.0153250415 -0.005145887 -0.005333362 -0.010543952 0.009732321 0.0048508756 
nosotros -0.012656387 0.013531872 -0.00083939626 0.008100527 -0.0033785095 -0.024749923 0.009631556 0.021648053 -0.022544684 -0.016108572 -0.008460595 -0.021412533 0.0054028025 -0.0016185759 0.0053235693 -0.016333276 0.015721833 0.00023476378 0.0017055039 -0.037003078 0.0019166857 0.00841984 0.004810825 -0.013965545 -0.008276147 -0.0045867376 -0.013507518 -0.0055058873 -0.011446078 0.0074810707 0.015730843 -0.0027569297 0.013228806 -0.01849312 -0.0030344478 0.011689687 0.008967986 -0.018555222 -0.0123643465 -0.025734471 -0.0053522415 -0.014736304 -0.0061756917 0.008264179 0.012281428 -0.0024135557 -0.021589043 -0.0045002894 -0.00077680725 -9.660327e-05 0.005659772 -0.008242254 -0.011251878 -0.0012929004 -0.011093131 -0.0031692334 0.02249446 -0.010615833 -0.020617569 0.0007525783 -0.0018857853 -0.0049348604 0.001582487 -0.009242758 -0.019811897 0.008570451 -0.0074154795 0.0040814155 -0.009731724 0.010034584 -0.00089255406 0.016714796 0.022808697 -0.0088916775 0.023362316 -0.00026443577 0.0060477667 0.009690301 -0.01448748 0.007650942 -0.010541821 0.008342238 -0.0126052145 0.020396596 -0.007440417 -0.0029653793 0.009461228 0.005447836 0.006850495 0.011769788 0.009620906 0.0024909237 -0.005890054 0.00651675 0.021763194 0.0005707169 0.017473008 -0.027109046 0.0007617441 0.004791392 
dijeron -0.004250846 0.0024366474 0.012248888 -0.0076346425 -0.0054077483 -0.015935645 0.0015004342 0.025349308 -0.007017095 -0.00065333594 0.0060692453 -0.0091321785 0.0075520403 0.010668974 0.0013600866 0.000639532 0.0121239135 -0.00381692 0.0071158665 -0.015824154 0.010050433 0.011185657 0.0109214 -0.0041581974 -0.0043054163 0.0030314818 0.0010334334 -0.011303407 0.003572446 -0.0028020635 0.009062339 -0.0036106356 -0.00040618054 0.0014805963 -0.008917056 0.006510619 -0.0059197037 0.0013559172 -0.009880713 -0.0061320136 0.009521843 -0.01586805 -0.0077586016 0.0035562632 0.014157135 0.0070130327 -0.015296606 -0.0080575235 -0.0019223741 0.008366728 -0.0068692057 -0.0050999857 -0.007990939 0.0068402644 0.0012791546 -0.0049250177 -0.00090096105 0.006799022 -0.007904298 0.0023978625 -0.0055198926 -0.0047982307 -0.0011843003 -0.0003994119 -0.0033558614 0.0019388592 0.010187814 0.011021056 -0.01742512 0.0036533426 0.00036375472 0.0045077167 0.0063684396 0.0026776195 0.004632647 0.0016491166 0.006561515 0.0046181073 -0.013306306 -0.005024965 -0.0121299755 -0.0033217333 -0.0018043303 0.007136805 0.0016878805 0.0068956884 0.0085296715 0.009268097 -0.002211547 0.008745702 0.010168824 -0.0050936486 0.0048265727 0.010100023 0.0057945256 0.0018273853 -0.00146129 -0.0052530896 0.0100602675 0.006496815 
Abuela -0.14812782 0.12914898 0.0835844 0.01915532 0.034607623 -0.29259956 0.15504786 0.41948742 -0.18758847 -0.2299493 -0.036591757 -0.26576182 0.013047118 0.11573906 0.03386152 -0.096428595 0.12904097 -0.120753564 -0.056197755 -0.41092488 0.10811945 0.06451582 0.17447698 -0.09847179 -0.045263384 0.039439138 -0.21887843 -0.1031728 -0.09305103 0.04350965 0.18409212 -0.0156168025 0.082265325 -0.12307219 -0.04477993 0.2574461 0.026629014 -0.14020337 -0.07828943 -0.27465543 0.044102818 -0.20034324 -0.029058956 -0.014339328 0.15489474 -0.057859715 -0.20866172 -0.066408694 0.10719376 0.11188367 0.058618974 -0.21824671 -0.084330164 0.04415348 -0.09407259 0.054211374 0.17489937 -0.024103073 -0.21456112 0.0076532834 -0.0046853856 0.008757535 0.086465605 0.0028744154 -0.18490565 0.24660352 0.028922362 0.15130106 -0.26087657 0.2181568 -0.07739896 0.12277982 0.25495088 -0.018899659 0.22665304 0.007712377 0.0026745186 -0.0010710043 -0.14666328 0.010630667 -0.10310089 -0.008990278 -0.13048384 0.23730837 -0.030799624 -0.048810557 0.10565554 0.100265816 0.19185114 0.09701086 0.19782718 0.07311141 0.00934227 0.00665219 0.30894983 0.09100787 0.123405784 -0.23059179 0.09981985 -0.03903146 
amarga -0.000706702 0.0012285985 0.002624757 -0.005094706 0.00947956 -0.0033434296 0.013914419 0.019471828 0.004219495 -0.013396523 0.005230308 -0.003945338 -0.0048664045 0.0008623694 0.0035965727 -0.0030527234 0.0038047112 -0.009718019 -0.0058414047 -0.009259131 0.007541868 -0.0013430803 0.004495032 -0.0076431977 -0.0093048895 -0.0073221033 -0.0055844816 -0.0058406517 -0.0013331828 0.0023443254 -0.003595173 0.002636295 0.0074506425 0.0062916013 -0.002880079 0.006721708 0.0075389356 0.0040876935 0.0027253628 -0.016919851 -0.0033279322 -0.008338133 -0.0033367686 -0.00998214 0.0022581334 -0.0054217773 -0.0154524315 -0.0015124081 -0.006464662 0.00039041045 5.5995282e-05 -0.009107227 -0.00087565795 0.004646162 0.005418401 0.009159535 -0.0013404177 -0.0039750696 -0.008068904 -0.006133411 0.009755968 -0.005179499 0.005985297 -0.0038310823 -0.011528768 0.0035590807 0.003920413 0.0123384055 -0.006552402 0.00843118 -0.005940378 -0.006184242 0.014552331 -0.009008535 0.0045245606 0.0020773504 0.007803593 0.006853861 -0.0051302724 -0.0080943415 -0.00080900575 -0.007893498 -0.012428627 0.009236413 0.004392326 -0.010694569 -0.0055898684 0.0037889709 -0.003923298 0.0038588555 0.0124523565 3.2060518e-05 -0.009520248 -0.008642485 0.007644778 -0.0013228003 -0.0008851405 -0.00057464663 -0.001928499 0.0069069187 
ver -0.05700327 0.031871587 0.016849672 0.0049005006 0.012993626 -0.08574347 0.05401253 0.14000401 -0.057208322 -0.073567085 -0.011902392 -0.08426574 -0.001971227 0.042581756 0.0006217895 -0.031312324 0.047639705 -0.04361967 -0.030125048 -0.12514406 0.026661873 0.028278135 0.06825651 -0.028237272 -0.0068453136 0.012890358 -0.07410237 -0.026955448 -0.026208824 0.022200258 0.06245849 -0.00857332 0.038643677 -0.029978521 -0.016951215 0.083947025 0.01468892 -0.04718214 -0.028338809 -0.08588669 0.006501654 -0.067605175 0.0013879895 -0.01193528 0.042303532 -0.024255047 -0.06825775 -0.030491114 0.03167666 0.029040486 0.019468224 -0.0746451 -0.02623974 0.003951496 -0.032378484 0.013334526 0.06371822 -0.0125935655 -0.066495195 0.008176903 0.010299193 0.0060613523 0.022797734 -0.0062659024 -0.06727832 0.08645921 0.019065827 0.040699426 -0.07894965 0.06303089 -0.014281236 0.03617103 0.08580823 0.0039233323 0.067806475 0.0016469584 0.0032785174 0.003690557 -0.057702094 0.0042337705 -0.03291045 0.0038459236 -0.037984755 0.07403138 -0.011859723 -0.011731242 0.027616607 0.022629404 0.051262703 0.02525393 0.071925715 0.022150118 0.007925433 -0.0023764174 0.092699 0.02363034 0.03552497 -0.065503545 0.03975134 -0.010949368 
raza 0.0062966817 -0.0046831327 -0.008351644 -0.005985809 0.006770785 0.005502669 0.008636307 -7.146664e-05 0.00091129035 -0.00012605509 0.0066138515 -0.0032750743 0.004815557 0.00893088 0.0010356134 0.002113272 -0.0015844698 -0.0033426054 0.003303735 -0.0030023493 -0.000497071 -0.0049995584 -0.0036915855 0.0026537983 0.0068526524 0.0044521648 0.008036768 0.00065947894 -0.0057772347 -0.006476907 0.0055010864 0.00020691131 0.009113994 -0.0052797743 0.0027591677 0.004903555 -0.0027108015 -0.008687964 0.009206527 -0.00563203 0.008490161 -0.005211855 0.0054490664 -0.0059129293 0.0010301778 -0.008441254 0.0025317443 0.0036497226 0.00488202 0.009246134 -0.0013955684 -0.007445626 0.0036612207 0.00513041 0.0021642162 -0.005973568 0.003926894 0.008787352 0.0010499937 0.0073114047 0.004378524 -0.007782818 0.0083651105 0.0038491404 -0.0042090556 -0.0060362644 0.002493875 -0.0036939238 -0.0068315235 0.0033343686 -0.008799259 0.0032607573 0.010857243 -0.008086699 0.0011523389 0.009616654 0.00042936223 -0.006742814 -0.0003452134 -0.0041728467 -0.0044832435 -0.00015294985 -0.00335531 -0.0070730355 -0.009524464 -0.0006297012 -0.0017261977 0.007772385 -0.008119411 -0.008051654 0.004482558 -0.008308939 0.003831605 -0.0059176637 -0.0017493453 -0.003031242 -0.00036087492 0.0031561686 -0.00596978 0.006436185 
estoy -0.016295422 0.02513397 0.0012955577 -0.007785553 0.009229258 -0.0475787 0.031107498 0.04976028 -0.031365756 -0.039491497 -0.003301824 -0.04429861 0.0023227902 0.0109176105 0.00034020637 -0.011183996 0.027538337 -0.0099428035 -0.008939868 -0.05416222 0.023367578 -0.0011396667 0.01886583 -0.015549639 -0.016143361 -0.005324221 -0.02368216 -0.010050001 -0.021647977 0.00095728884 0.026320715 0.0021055655 0.02175341 -0.019315233 -0.00527605 0.02796572 -0.0023387931 -0.023444923 -0.0096445 -0.04435101 0.006629904 -0.03423316 -0.01036593 0.0060487622 0.018660666 -0.0053142603 -0.019019907 -0.013231017 0.02271363 0.014337102 0.012110769 -0.033218894 -0.015384621 0.004115154 -0.013268401 0.0015287031 0.019437158 -0.0120467795 -0.034353632 -0.0031722405 -0.007018897 0.0030243504 0.018785566 -0.003214734 -0.018402642 0.023791935 0.003151907 0.029487396 -0.03845459 0.022321828 -0.012369932 0.017080257 0.030854968 -0.00035303913 0.04003301 -0.009044581 0.0015420584 0.00034067562 -0.02892809 0.0073106396 -0.012167059 0.003207471 -0.024689255 0.03681382 0.0012751693 -0.013701869 0.00565584 0.017839663 0.032124188 0.007724215 0.03274663 0.019965062 -0.00395224 0.006787961 0.048583932 0.021235522 0.018687762 -0.028375626 0.0053930185 -0.011912845 
caldo -0.0055827727 0.0013663004 -0.0018045425 0.0092102215 0.00905055 -0.019109461 0.0068794065 0.020421093 -0.0116604 -0.00876831 0.006111727 -0.016303897 -0.0075398525 0.009178055 0.0010717463 -0.009246488 0.007352947 -0.0011234763 -0.00722491 -0.020492459 0.00906478 -0.003963181 0.012727785 -0.005039354 0.004318502 0.0065740966 -0.008398588 -0.0005464049 -0.009221176 -0.0037254218 0.0068268827 -0.00412867 0.0010164224 -0.0037644338 0.0059223454 0.012009123 0.0033122192 0.00034437576 0.006652782 -0.0046993215 -0.0033829634 -0.01088855 -0.004246389 0.0056918175 0.01212154 -0.0076138168 -0.011519293 -0.0077434913 0.0046588695 0.01430376 -0.006390875 -0.0047819843 -0.008453025 0.008868405 0.0035406735 0.0084409015 -0.0018564331 -0.0068283277 -0.005218015 0.0012612278 0.0071881497 -0.0058712377 0.0095313825 0.00057477166 -0.0008878685 0.009760294 0.0066799005 -0.0012318876 -0.013118857 -0.0014705979 0.0030632454 0.009062877 0.013737246 -0.008995899 0.0077699493 -0.007917541 -0.006689062 0.009253717 -0.0040226425 -0.0026980361 0.0006005108 0.0044812146 -0.004938568 0.008386958 -0.004575886 -0.010735964 0.013619419 0.006700398 0.0039692414 0.006977141 0.009662504 0.009280066 0.0005763797 -0.0054025357 0.005510296 0.003121937 0.011987794 -0.0066172103 0.009355583 0.0026413854 
llenaron 0.0015349062 0.007982147 0.007951697 5.3816337e-05 0.008644724 -0.0011271024 0.014404588 0.01799163 0.0018463833 0.0009068136 0.007511526 -0.015053507 -0.0025032249 0.012973227 -0.004917216 -0.007848775 -0.00066499336 -0.0047017606 -0.0054339375 -0.011283807 -0.00292757 0.004580568 -0.000646836 -0.0006015789 -0.010481193 -0.004251365 -0.0013378235 -0.005621275 -0.0035467034 0.0029464245 0.0064379987 0.008349783 -0.005294548 -0.011128577 -0.0027865546 0.010311843 0.0020981538 0.004979284 -0.0007986371 -0.0057133012 0.00038512345 -0.011168703 -0.00032506362 0.009339875 0.0039305803 0.0069638514 0.0012629766 0.0017691656 0.012039525 -0.00416491 0.00582501 -0.004525764 -0.011873079 -0.0013117981 0.000428365 0.0011225891 0.0009566823 0.0037257385 -0.0069162413 -0.0037063048 0.004764405 -0.0014642136 -0.00029974384 -0.008465028 -0.015913203 0.008096396 -0.0018597508 -0.0034228012 -0.016876303 0.0018801689 -0.0016131165 -0.0024529085 0.007962557 -0.0007042886 0.016257023 -0.0005187174 0.0042096665 0.009021247 0.0017379532 -0.0036755141 -0.007517143 0.0067916163 0.00057466934 0.015949892 -0.010988585 0.0023144858 0.010076301 0.009396868 0.0062870746 0.010846805 0.010207228 0.01153195 0.008498832 0.0051328265 0.005125021 0.011745833 0.004612642 -0.015585595 -0.0051524215 -0.0073759533 
nariz -0.01491174 0.011459872 0.012220391 0.00827623 -0.004423908 -0.023353653 0.012915843 0.03366667 -0.019930135 -0.015591374 -8.698234e-05 -0.01295267 0.0045103086 0.0040122173 0.008455042 -0.007870377 0.013422512 0.00017497361 -0.0033437093 -0.03306733 0.00398141 0.012187808 0.021242563 0.000649739 0.005425093 0.01047531 -0.019257907 -0.0028142352 -0.017804518 0.0025985814 0.0062316656 0.006795886 0.014400172 -0.013169947 -0.0069924984 0.024593975 0.011096312 -0.013769693 -0.004109032 -0.014286323 0.0081325015 -0.007396772 -0.0031928616 -0.0074239746 0.009501689 -0.0088283485 -0.011094848 0.00019081356 0.01008795 0.0062814346 0.003917957 -0.022751471 -0.0005611413 -0.0017462284 0.0008990677 0.0049190265 0.023012094 0.0052682008 -0.015040643 0.01048557 0.010291597 -0.0045724083 0.0025007243 0.007504618 -0.009321017 0.010139421 0.002588788 0.0063124592 -0.019472308 0.011585242 0.003769687 0.015455525 0.02424056 -0.0074022906 0.0142825795 0.0067786705 -0.008456974 -0.009460982 -0.007032547 0.008575956 -0.012714115 -0.0029916817 -0.016333733 0.017254455 0.004867719 -0.0098100165 -0.0019013295 0.015800333 0.01333622 0.0011699856 0.013231853 0.0038395114 0.0066564176 0.005539224 0.022665134 0.005469982 0.0030353966 -0.026733037 0.015849104 -0.010169312 
quitaba -0.0138596585 0.008214219 0.001809207 0.009602685 0.0013046064 -0.029447397 0.0198958 0.021060085 -0.0029853038 -0.01185518 0.0058458 -0.026530104 -0.003009353 -4.269011e-05 0.0030493734 0.0020994223 0.010790181 -0.012867739 -0.013536072 -0.02092825 0.005481108 -0.0031991568 0.018623339 -0.014270507 0.0043683574 0.0043152017 -0.024068095 0.0022186039 -0.000548298 -0.0018668433 0.02105265 -0.010655364 0.0038437918 -0.0026003534 0.0013002481 0.007343256 -0.002153561 -0.0071685086 -0.0058649112 -0.01680233 0.00031712535 -0.005058582 -0.0032057923 0.008821136 0.019793123 -0.0131910965 -0.02030887 -0.010381616 0.009932912 0.0073531866 0.0011977002 -0.021837264 -0.0069886344 0.0046920935 -0.012194938 0.013211148 0.0094272 -0.0074489308 -0.009689138 -0.007113868 0.0008088989 -0.008625052 0.004332418 0.007873725 -0.0064507294 0.0074338857 -0.0026323323 0.012910155 -0.027102264 0.0049438747 -0.008112546 0.015956894 0.022891248 0.0051868814 0.00956761 0.0071717543 -0.0077036996 -0.0030439193 -0.00045074086 -0.0056678294 -0.013186265 -0.0062666624 -0.018312328 0.020176595 -0.011474395 0.0013126923 0.005278641 0.013097216 0.022186039 0.012247923 0.010760682 0.0056094974 0.007713225 -0.0026418231 0.016982546 0.010884259 0.0019182742 -0.012024959 0.016732149 0.004713163 
cuartico -0.017733803 0.013286281 -0.0008955672 0.002936465 0.0012383043 -0.013071615 0.0013198362 0.025908908 -0.019318396 -0.0041838405 -0.004599565 -0.025261465 -0.0023624725 0.015112417 -0.000656624 -0.007595433 0.01747111 0.002066594 -0.007868001 -0.033817753 0.003351016 0.0014156656 0.011273368 -0.008770015 -0.010143076 -0.0011955966 -0.011244727 -0.009447746 0.0031994153 0.008247273 0.01953553 -0.002863816 0.005207779 -0.009490809 -0.0019674154 0.021238491 -0.0069004013 -0.005770822 -0.008371698 -0.023870857 0.001170364 -0.015091429 -0.0084555885 0.0075204335 0.0044515063 -0.007954445 -0.008606869 0.004492474 0.004339892 0.0082537215 7.258102e-05 -0.014943144 -0.0010514258 -0.006270474 -0.0096823815 -0.004571485 0.016546134 -0.004032545 -0.01414759 0.005989638 -0.0044638715 0.0073589096 -0.0023056297 0.0028165767 -0.008924513 0.0051019746 0.0005950702 0.019493658 -0.01156124 0.008864488 -0.014224456 0.00037978787 0.007532479 -0.0016084018 0.024286158 -0.00052841374 0.010444661 -0.0033132995 -0.002016178 -0.007519497 -0.009084675 0.0075595565 -0.015789561 0.02299954 -0.002272042 -0.0011328385 0.009733321 0.0004366319 0.019399201 0.0010504989 0.010366167 0.008313255 0.0018052907 0.0037634084 0.023536716 0.0028504727 0.0044638207 -0.016278014 0.014923158 -0.0092293555 
estirn -0.010171912 0.0035692446 0.011616413 0.0012879171 0.0010653705 -0.02428871 0.018721703 0.033913996 -0.0029386845 -0.013574836 -0.0033805813 -0.01803109 -0.006453361 0.0108370725 0.0028041517 0.0020422426 0.015822714 -0.008226779 -0.0025418727 -0.016184082 0.0030636787 0.01033939 0.008887617 -0.0073521864 0.005287757 0.011784662 -0.020510297 -0.007885064 -0.015204294 0.01138402 0.015278444 -0.007858754 0.0051101767 -0.0071596545 0.006534959 0.011274181 0.00017426562 -0.017775837 -0.0047426466 -0.01883434 0.010165841 -0.007419156 -0.0034314697 0.0035374737 0.0050434708 -0.01153214 -0.020369848 -0.0130215995 0.007306878 0.0045760362 0.011893557 -0.0074454285 0.002924254 0.0067641158 -0.0013148368 0.0058607324 0.0037817515 -0.0036194508 -0.010414831 0.0038435291 0.002112636 0.007922769 0.0059728622 -0.0010163937 -0.014965243 0.019289423 -0.002643029 0.013689549 -0.02002575 0.00825999 -0.0024162668 0.0005307505 0.020047663 0.004520124 0.008217367 -0.0042405934 -0.0022314063 0.0018343534 -0.0046968227 -0.008748254 -0.002370226 -0.006980449 -0.0028376835 0.0107843345 0.006096351 -0.01261635 0.006360677 0.012059301 0.003188557 0.007113997 0.010499006 0.005465107 -0.007324465 -0.008711149 0.01147273 0.012094312 -0.00083668175 -0.015843648 0.0073295236 -0.0046625 
dondequiera -0.002057429 0.0011309533 -0.003991205 -0.008856445 0.007345691 -0.009634179 0.013378403 0.018015638 -0.009303689 -0.008577346 -0.0048759487 -0.022842908 0.002864976 0.008474963 0.0007454882 -0.0010405945 0.0010926159 -0.0031320334 0.0049663326 -0.029392365 -0.003411465 0.006889811 0.0115938 0.0019726462 -0.000119620796 0.0034626173 -0.014775896 -0.0082081705 -0.00732953 0.006067719 0.0048330235 -0.0030736136 -0.0013679694 -0.0006804722 0.0058657923 0.018753758 8.406168e-05 -0.0061071133 -0.0083512 -0.01576741 0.010849929 -0.018478235 -0.008757014 -0.0032819563 0.006668698 -0.011523926 -0.0017325727 0.0036945883 0.01564548 0.005959666 -0.006935272 -0.018317148 -0.004974266 0.0001379554 -0.00048483463 0.007729884 0.014300926 -0.010804512 -0.0024586904 0.0021278898 -0.0067205247 -0.0039648586 -0.0028692218 -0.0022973386 -0.0046618213 0.022875143 -0.004463559 0.014711065 -0.022358546 0.013759434 0.005994919 0.000543541 0.021231357 -0.00877919 0.006459709 0.0013276619 0.009598955 -0.0071892138 0.0007971011 0.0050055897 0.00081539265 -0.0029940577 -0.005725647 0.021005007 -0.00791735 -0.007517567 -0.003927752 0.007976694 0.0052885143 -0.004629762 0.004530989 0.0021249168 0.009359147 0.009426577 0.021149967 -0.0023009204 0.0067101684 -0.0091943145 0.011008998 -0.0074951863 
ellas -0.006106587 0.013720258 -0.00067705155 -0.009125392 0.00038623763 -0.02574986 0.0067955856 0.021717124 -0.002691148 -0.017606705 -0.0078102173 -0.020152315 0.0028635543 0.0071129147 -0.0057213535 -0.0009925412 0.015335449 -0.006103286 -0.0056456067 -0.016435744 -0.0033295518 0.0041715526 0.0038751815 -0.001023834 -0.006205411 -0.0013479309 -0.01288717 -0.0021629962 -0.009249815 0.0057294327 0.016209502 -0.0036635143 -0.0021075755 -0.010219025 0.0014187861 0.007379588 0.0076649636 -0.015323997 -0.014059781 -0.008783305 0.001516531 -0.02065761 -0.0063080383 -0.0017539427 0.010979348 0.0045582284 -0.010356838 -0.011160608 0.016074289 0.012605232 -0.0038776635 -0.016436487 -0.005657715 0.010103934 -0.002136077 0.0033692052 0.01694052 0.0031191665 -0.020823967 -0.002793837 -0.0034430597 0.0071713403 -0.0046253973 0.005587435 -0.011173117 0.0060795024 -0.005785423 0.00766227 -0.016515918 0.012801654 -0.0074678883 -0.0022042373 0.01754363 0.009003081 0.02213113 0.004848128 0.0054474445 0.0040000575 -0.012586897 0.0029348694 -0.0058211097 0.004076513 -0.000526995 0.019210188 0.008298868 0.0023670846 0.008054855 0.012160117 0.018890874 -0.0012857431 0.006123532 -0.0034978266 0.0103213955 0.0073889866 0.014104976 0.001914855 0.016935054 -0.011683581 0.009602906 4.8848877e-05 
enciende -0.010829576 -0.006456628 0.0059500993 -0.0018049907 -0.0012361988 0.0028767558 0.00015876364 0.008818105 -0.00097145204 0.004939028 -0.0059717703 -0.0035509048 0.0013474432 0.0045636618 0.0036504797 -0.0019413652 0.004163999 0.0003669171 -0.0028071778 -0.013546365 0.010680038 0.011195495 0.0005072712 0.0064188847 -0.010290156 -0.0074827573 0.0029833785 0.0007652621 -0.0023642315 0.0053849383 0.005734238 0.006491752 -0.0070213745 -0.004131357 0.0050716684 0.006783351 0.0055318 -0.007865085 0.0032627 -0.0099357655 0.0006401704 -0.0075780274 0.0012263695 -0.00882561 -0.0008051166 0.004184717 -0.011967573 0.0036170124 -0.002831767 -0.0048193554 0.0016746967 -0.0026694294 -0.00922208 0.00080431125 0.0038021184 0.0066810977 -0.0023798994 -0.0037897844 -0.008796758 -0.00022216173 -0.0060926573 -0.0023009668 0.0028420463 0.004498715 -0.010413398 0.0079998905 -0.005927066 -0.0015071613 -0.006361577 0.00053514424 -0.0031067352 -9.867984e-05 -0.0026574763 -0.008494538 0.001972306 0.0019468504 0.007012582 0.0014111542 -0.008484925 0.007939693 0.0057085226 -0.0023499194 0.0006121112 0.0075206594 -0.009637077 0.0063653537 0.0051412666 -0.006693094 0.009049003 -0.0020583684 -0.002116357 0.0044546337 0.0072553623 0.0021974633 0.0055384473 -0.00046578204 0.008344683 -0.0014039979 0.00979018 -0.0054706745 
crecer -0.010921698 0.016005777 0.0039949864 0.0023289502 0.009467079 -0.027015926 0.0153224245 0.041569658 -0.016403208 -0.010789719 -0.0024745446 -0.022254527 -0.005494424 0.005442413 -0.0026751526 -0.016382093 0.020435935 -0.013784568 -0.0011904597 -0.042599227 0.012859379 0.0017806827 0.019965377 -0.0020663156 -0.011702195 0.00012719308 -0.016130615 -0.018562075 -0.008294032 0.003418719 0.020840188 0.0024247947 0.011981652 -0.0054385304 -0.0078800265 0.02623874 0.0037151114 -0.00936694 -0.013496985 -0.015366129 -0.00036847152 -0.024449572 -0.0068735476 -0.0027769678 0.0104735335 0.0017146799 -0.022863057 -0.0066804253 0.01278021 0.012714169 0.0062532816 -0.014712225 -0.0021981047 0.0040871417 -0.015366365 -0.005168489 0.017222196 0.0032720235 -0.016461687 0.009687006 0.009535618 0.004852068 0.009863186 -0.0059248395 -0.016640754 0.026943512 -0.0070800344 0.012706776 -0.027762905 0.021121355 -0.015950441 0.00552879 0.019751988 0.0027458111 0.019749358 0.0033631183 -0.007023971 -0.00016635153 -0.008551595 -0.0043047406 -0.009297095 -0.006607078 -0.016253624 0.018605875 -0.012358139 -0.0030821126 0.015148879 0.010449999 0.015697006 0.014037134 0.010500379 0.002607525 -0.001677398 -0.0047613773 0.03185587 0.0061763455 0.016739083 -0.019592742 0.0015826006 0.0031895423 
escribe -0.011090962 0.009708235 0.0030841266 0.004148749 0.00023088799 -0.014947991 0.0022578088 0.025631929 0.00073460094 -0.012557642 0.005106398 -0.0060022445 -0.005073585 0.010210243 -0.001493061 -0.007934666 0.005170608 -0.014506307 0.0025620118 -0.009837301 0.0042018555 0.010698472 0.0069048367 0.0010216538 -0.00055657607 0.0024885354 -0.014486379 -0.0036455062 -0.008748785 -0.0044584256 0.00040057037 -0.006340129 0.0062634624 -0.011883224 -0.008023622 0.01519766 -0.005237345 0.0023010436 -0.0049655675 -0.00079880806 0.0002463137 -0.012599087 0.0072335824 0.00608071 0.008902373 -0.011124053 -0.00023761264 0.0013936489 -0.0048771794 0.007841458 -0.00516586 -0.0014035698 -0.0009502571 0.0020006076 -0.0013138195 -6.287111e-05 0.016210977 -0.007642877 -0.013768326 0.0048180316 -0.0032090077 0.0038025675 0.012745416 0.004073418 -0.014092606 0.0060556633 -0.0013881819 0.0054582963 -0.0072239707 0.005211648 -0.0068309177 0.007886758 0.008261612 0.0077890437 0.0062615387 -0.0057973843 0.0073785237 -0.003579677 -0.0036367811 5.2110703e-05 0.00058627495 0.0039188163 -0.008177409 0.015657313 -0.00041750222 0.0037424047 0.0060035386 0.011823331 0.011595249 0.011762239 0.0077160913 0.008572632 -0.002932012 -0.009136239 0.018653402 0.008216026 0.00041145398 -0.012952209 0.002320999 0.0048942477 
palabra 0.0028336474 -0.0009385684 -0.0056227124 -0.008982918 0.005139081 -0.013809264 -0.0013702165 0.005121158 -0.010886434 -0.011439184 0.0062890314 -0.00026198028 0.0038875125 -0.0016745807 0.0059521515 -0.011880341 0.008454039 -0.005900616 0.0054293172 -0.0028569067 0.0022158835 0.011214546 0.004861519 -0.008629492 0.0031880215 0.008135551 0.0009653653 -0.004526611 -0.000108170556 0.008893482 -0.0027169492 -0.006972736 -0.0007624829 -0.0013978665 -0.0018374345 0.016095042 -0.0059694382 -0.01167844 -0.0008750334 -0.0030774872 -0.006833374 -0.007821091 -0.010239222 -0.0063734734 -0.0033842414 0.002321376 -0.0023874315 0.0032682624 0.007032868 -0.00039758597 -0.005734276 -0.008994429 0.00036033255 -0.004391198 -0.0040655155 -0.0064888545 0.0033964037 -9.958546e-05 0.00045414764 0.0014092408 0.008406378 -0.005083288 -0.002060368 -0.008742076 -0.006809378 0.01621733 -0.0034600613 0.0135745 -0.0016842992 0.006353444 0.0070949746 0.010780237 -0.0013176469 0.0007718683 0.014860041 0.008370097 0.0029044058 0.0011392967 0.004894214 -0.0007504527 -0.008575712 -0.0038783734 -0.00071462564 0.013273942 -0.0076573794 0.0075809374 -0.0040786215 0.0018716069 0.00500613 -0.0068198037 0.006650009 -0.0072910488 0.010516526 -0.005039486 0.015209682 0.010958712 0.010100729 -0.009663139 0.0077827103 0.0051692813 
buscar 0.0045830607 0.0054298607 0.010197702 0.0024594464 0.0031630266 -0.0027051487 -0.0040859594 0.0070473556 -0.013547515 -0.014279544 0.0026330806 -0.007035991 -0.007898613 0.00060903083 -0.005905043 0.0060114604 -0.0007632939 -0.014231711 0.0074438006 -0.014879149 0.0061308127 0.008972151 0.0037730737 -0.010242311 -0.006724597 -0.0060488572 -0.0020791937 -0.007060773 -0.006225617 0.0006938881 -0.0014337762 -0.006035498 0.008628936 0.00040155245 0.007991934 -0.00084500574 0.003929392 -0.013950137 0.0028068863 -0.010212812 0.0057017636 0.0016469517 -0.0018430768 0.006821977 0.011681359 0.003453144 -0.011573851 -0.006128064 0.0050001703 0.012100523 0.0041807224 -0.004846529 -0.0021567051 -0.0019907313 -0.008130888 0.0036886332 -0.0008778271 -0.005774569 -0.002104374 -0.0046702838 -0.0032832413 -0.006167751 -0.0020154484 0.0007995621 -0.011523583 0.0049564918 -0.0069595706 0.00061246677 -0.016438313 -0.0015120077 -0.0044333995 0.014227731 0.0071255546 -0.0042336495 0.01793581 -0.004826401 -0.0007163845 -0.0057538925 0.0003597185 -0.004059379 0.0039110174 0.005836898 -0.00307888 0.00071105413 0.0068818787 -0.00982799 -0.0016181913 0.0120234825 0.010533504 0.0011773817 -0.0030212395 0.004453113 0.0041242973 -0.0013866912 0.0057769353 0.00018354986 -0.0041883565 -0.008477614 0.00053834973 -0.001363846 
matarme -0.003081163 0.009431042 0.007920683 -0.0022370308 -0.006220662 -0.007421956 0.0060349265 0.004736859 0.00096164184 0.0011214755 -0.00036905805 -0.016043693 -0.00251586 -0.0063943965 0.004528437 -0.0057162815 0.008063531 -0.010233655 0.00244819 -0.00558135 -0.0056131985 0.0042014336 0.014094237 -0.012051241 0.0049407477 0.009309894 -0.0025435572 0.0063729947 -0.0042009423 -0.008766926 0.013158808 -0.0060103387 0.011965109 0.0036189815 0.0055247075 0.0038962984 0.0012176653 -0.00686429 0.0027372926 -0.0018307493 0.010744023 -0.011818786 0.0040179826 0.00027063483 0.0016050518 -0.0058167665 0.0029479312 -0.010877818 0.008417271 0.010461977 -0.0023631186 -0.0007018476 -0.011333562 -0.0016539777 -0.005238874 -0.005979496 -0.0027633335 0.00036084728 0.0007713016 0.008726836 0.0033324198 0.0031942416 0.0049134386 0.0024708954 0.0024192666 0.004108818 0.010788141 -0.0012873414 0.0020331875 -0.003876597 0.0035191532 -0.006073229 0.01237672 -0.009757457 0.010657983 -0.0033473144 -0.007664008 -0.0005492713 -0.0036655995 -0.009547741 -0.009182012 0.0070836702 0.004733956 0.00010049407 0.0012585651 0.0026816337 0.0090569435 0.011209027 0.0035573558 0.002186825 0.012095383 -0.0028962789 -0.0037715626 0.002043557 0.0178281 0.0016864681 0.006893559 -0.00801606 0.00020453872 -0.010292627 
caer -0.011162529 0.014375202 0.0026065048 0.009037436 0.006775118 -0.0058554234 0.01556005 0.0231015 -0.009514737 -0.014931064 -0.008073821 -0.01835972 -0.0005795558 -0.00029508397 0.00398869 -0.014849222 0.0038411967 0.0032969294 -0.011249641 -0.015240921 -0.0004593864 0.003090851 0.007578099 -0.011901756 -0.0032801277 0.00020409483 -0.01411089 -0.012582646 0.0028073778 0.009027862 0.009636431 0.0039942693 0.007862158 -0.0062745516 -0.008980627 0.015013713 0.0039040348 -0.0009982651 -0.003678434 -0.020770209 0.009609094 -0.010385173 0.00600661 -0.010110452 0.016001945 -0.007592585 -0.0038648031 0.002397911 -0.002869613 0.012256546 -0.0030600578 -0.0040536337 -0.01306506 -0.0050141336 -0.0029371995 0.0063846945 0.006022601 0.001227803 -0.0073113707 0.005187947 0.01011547 0.0060766074 0.013467331 -0.0013980868 -0.018122409 0.01488269 -0.0011674947 -0.0016214955 -0.020934189 0.0047613247 -0.000153368 0.001413195 0.012187958 -4.3789278e-06 0.021737307 -0.009189713 0.008446935 -0.0014470761 -0.006894065 -0.003703877 -0.013871383 -0.0023523907 -0.014838353 0.015727364 0.00020101962 -0.0065095755 0.00997953 0.0032110657 0.015672194 -0.0026196279 0.0043506045 0.0135622565 0.0026116557 0.0020585174 0.0155376 0.008584762 0.0080302525 -0.01929597 0.0046186396 -0.009329322 
borracho -0.015752338 0.01693071 0.0041136686 0.005916787 0.007611501 -0.03410517 0.01240187 0.044464316 -0.008215241 -0.015988423 -0.0063391603 -0.013064333 0.0074432045 0.007902068 0.011634833 -0.0016664428 0.019586558 -0.019804476 -0.0069346633 -0.038581613 0.0006325229 0.0054028686 0.013749403 -0.007300529 -0.004394893 0.008563894 -0.0151417805 -0.00043264127 0.00038275798 0.0061647706 0.013568388 0.0076948837 0.00427654 -0.005831977 0.0044810125 0.022913447 0.009216094 -0.005454955 -0.0051736264 -0.020520095 0.0110542765 -0.008091829 0.003677476 -0.00076426193 0.013738715 -0.006624814 -0.008963728 -0.0111016845 0.011612123 0.013620737 0.012221918 -0.010277417 -0.008143963 -0.003559128 -0.01799386 -0.00312175 0.015801366 -0.008870926 -0.017505616 0.003915488 -0.0019892848 0.00672032 0.0021168098 0.004942353 -0.01632788 0.02781283 -0.004929373 0.018545128 -0.02480561 0.00904964 -0.016130365 0.01649954 0.029714173 0.00090914837 0.012373298 0.0085330065 0.0073661264 -0.0017513767 -0.014406819 -0.0025125502 -0.011725956 0.0033644468 -0.016162602 0.01833795 -0.011318833 0.00037441877 0.0029595466 0.013697791 0.011244776 0.0142712165 0.019211626 0.011441416 0.0039028 0.0062646135 0.030214157 -0.0010517581 0.001450152 -0.020334743 0.0076711336 -0.01207275 
miles -0.0055021364 -0.004812907 -0.002119482 0.0024786475 -0.0028196238 -0.013967784 0.008112109 0.012868141 -0.0062515754 -0.0008751319 -2.0693835e-05 -0.0015131001 -0.003371125 0.0024687282 -0.004568782 -0.011186749 0.011377552 0.0035466137 0.008126544 -0.014987461 0.010634669 0.01134367 0.012252416 -0.008476882 0.0018079558 0.007511007 1.0728676e-05 0.0060075345 -0.004263886 -0.0036153987 0.0059645665 -0.0065810033 0.009039683 -0.009215657 -0.010637566 0.008142006 -0.0011075065 -0.0073244646 -0.0038467504 -0.012632697 0.0005768337 -0.0017647948 0.0018658153 -0.009844807 -0.0032565687 0.0039145565 0.00260709 -0.0068827444 0.003008668 0.004577013 0.010924502 -0.012186605 0.004613041 0.0095527675 0.0014089664 -0.00557122 0.0043052942 -0.0014329149 -0.014053569 0.007973772 0.00078222685 -2.6757836e-05 -0.0046650814 0.009624458 -0.003256022 0.014232807 -0.001222895 -0.0053934995 0.0016497876 0.004696919 -0.0040373695 0.008914817 0.00415284 -0.0009274622 0.0040625883 -0.0019937782 -0.0040613953 0.008989651 -0.012329444 0.006078799 0.0058917734 0.0066448567 -0.004981941 0.012938971 -0.00923328 0.003382505 -0.0013097372 0.005232574 0.008835782 -0.00032659236 -0.0042896527 0.009823075 -0.0008381499 -0.0036189528 0.0054881796 0.008741171 -0.002927424 -0.012164988 0.010775485 -0.0050497944 
cuento -0.001786373 0.006700906 0.0029955162 -0.0014002195 -0.0026322939 -0.01936419 0.01790557 0.031017514 -0.012448018 -0.010801585 0.00071300555 -0.018330844 0.0016227578 0.0077855107 -0.0013572159 -0.0026644515 0.0029759384 -0.0100032035 -0.006126299 -0.029266605 0.013035201 0.008015963 0.008203113 -0.0022736585 0.0024127965 0.004944965 -0.0044749575 -0.013763196 -0.0050037326 0.0031275332 0.013645561 0.0008307089 0.0132331895 -0.01121201 0.0003266647 0.017934848 -0.0027306497 0.0010387093 -0.002035569 -0.016871192 -0.0039515197 -0.008021807 0.0023507865 -0.004805637 -0.00015655009 -0.0008125633 -0.015007066 0.0060839546 -9.175853e-05 0.010247528 -0.0036593045 -0.015808742 -0.0029355453 0.0010139239 -0.008639656 0.006701765 0.018645767 0.0056101866 -0.012935827 -0.007424071 -0.003606845 0.009401144 0.013028007 0.00077411125 -0.0033462353 0.005036403 0.0040029823 0.0066657425 -0.018481825 0.003525533 0.0046620755 0.0032868944 0.0099719195 -0.0040915995 0.006715648 0.00725763 0.007712262 0.0049658697 -0.017884562 -0.0018245409 -0.0149062015 0.005984812 0.0014420474 0.0044704443 -0.005457004 -0.0037166465 0.007747924 0.0137960175 0.006303744 0.011281128 0.013658001 0.008817779 0.0072856466 -0.00535483 0.010422609 0.005982974 0.01107979 -0.01479291 0.007886943 -0.012126214 
podas 0.0018826975 -0.00015928267 0.0027598154 0.006440233 0.008251731 -0.011925728 0.0012663703 0.009327896 -0.004447892 -0.016551847 -0.010097087 -0.0054742717 0.0010483508 -0.0042883633 -0.0045819385 0.0044362014 -0.0038600836 -0.0135601 -0.008720215 -0.021832563 0.003516038 0.012281727 0.003948477 0.003960906 0.0025301694 -0.0034957808 -0.018207647 -0.013049797 0.0040090894 -0.0021377949 0.0033268235 0.00815787 0.002325358 -0.0078015756 -0.0051284083 0.016775306 0.0022578759 -0.007767664 -0.008720843 -0.009294967 0.007892139 -0.014873528 -0.010827999 0.009435481 0.0048136837 -0.0004936319 -0.013850363 -0.0063708606 -0.0014211121 0.010110453 -0.005891228 -0.0071132416 -0.0034190142 -0.0064778305 0.0040331483 0.0019407448 0.0058970004 0.003373977 -0.0038935218 0.008386397 0.003712481 0.007933635 0.00014730092 0.004334874 -0.008234439 0.004543511 0.010646351 -0.0014844174 -0.0030068299 0.016451692 -0.005879911 0.007399057 0.016617622 0.0022372464 0.0066854605 0.0023212696 -0.002334386 0.008669379 -0.00012682668 0.0065523707 0.0023893833 0.0078106173 -0.015602106 0.0080014765 -0.0070006438 6.0689872e-05 0.00759389 0.0044695027 0.0069810655 0.010235288 0.003114028 -0.001828323 0.008336513 0.0059727966 0.006678774 0.006633135 0.0053383484 -0.0062209787 -0.0044608824 -0.0024248662 
ninguna 0.0050360877 -0.004576698 0.0042147967 -0.0056289826 0.003949819 -0.014073529 0.003904163 0.0064178323 -0.012725236 0.0003464615 0.0046705315 -0.01755345 0.003088128 0.00014780097 -0.0010056783 -0.009524229 -0.0044333558 0.0035585589 0.004999241 -0.0057615675 0.010483657 -0.0047300532 -0.0034543953 -0.012323913 -0.008957246 -0.0012414248 0.0005756296 -0.010131217 7.9993624e-05 -0.0021078568 0.010770875 -5.1240146e-05 0.0117602805 0.003995958 0.0010841236 0.007821614 -0.006779563 -0.0010848904 -0.0011984849 -0.017971622 0.007181228 -0.0046592318 0.0033155545 0.0028816117 0.007620751 0.0011241137 -0.0027027968 0.00433086 -0.0016077199 0.0055395095 -0.0014448824 -0.014474982 -0.0121140005 -0.00490626 -0.009282685 0.011441133 0.009166736 0.0071641495 -0.0011781919 0.0005391891 -0.009367179 0.003912652 -0.0047116536 -0.0012677353 -0.014861839 0.014771001 0.0034960217 0.0016070888 -0.018163806 0.0076869 0.007644904 0.003803414 0.006529172 0.008370804 0.0003758176 0.007879786 -0.006000028 0.006713148 0.0045254934 -0.009567416 -0.0038507378 -0.009081348 0.0041177804 0.011807569 -0.001109744 0.006304738 -0.003945872 -0.0039437455 0.008831084 0.0069321175 0.008759768 0.0021544173 0.003639761 -0.00047109203 0.007866741 -0.0053186314 0.005125423 -0.0034378925 0.00688464 -0.0045982967 
discutiera -0.011508402 0.008329116 -0.004072305 -0.0033803873 0.010483299 -0.006313722 0.013111105 -0.0006181793 0.0020606145 -0.001738251 -0.0017577104 -0.014252105 0.007139033 -0.006888094 0.0065200063 -0.008429301 -0.00055678363 9.977151e-05 0.0038959393 -0.00059420255 0.008634367 -0.0039903508 0.005249072 0.0070115635 -0.007582394 0.0071104923 -0.00825665 0.00066711905 -0.010522412 0.0039563957 0.011654196 -0.0065732193 -0.0026401524 0.0037123528 -0.009099903 0.00026590272 0.005754222 -0.0026849718 0.0015745586 0.0028326288 -0.0025632356 -0.004718457 -0.006105476 -0.0011879604 0.0074028065 -6.128341e-05 -0.011014625 0.003178074 -0.006254897 -0.004357952 0.010896272 0.00066684827 -0.003893012 0.0021805111 -0.0018962115 -0.00488668 -0.0057300786 -0.0009916974 -0.0020840028 0.0071541765 -0.00034891968 -0.009600035 0.0046053343 0.008542581 -0.009319039 0.0035981885 -0.0063067884 -0.006194491 -0.002306535 0.009042461 -0.00891102 0.006633564 0.009493318 -0.0016727506 -0.0006285895 -0.00470072 -0.005921675 -0.0053598383 -0.01289519 0.009936244 0.00061415846 0.002887531 0.004637575 0.006181626 -0.009678385 -0.009904203 -0.0026018973 -0.0008444913 -0.005838451 -0.004132076 0.0060340343 -0.004264477 -0.0072073457 -0.00063570956 0.0032325773 -0.0049996376 0.005112146 -0.005986064 0.008423992 -0.010183522 
tiempo -0.023687843 0.02023177 0.017284667 -7.5531374e-05 0.004893358 -0.063099734 0.02634435 0.08736552 -0.034697544 -0.041654654 -0.009757099 -0.04882128 -0.0021212446 0.022521686 0.002027892 -0.029708385 0.030295435 -0.020895887 -0.0069642547 -0.0976598 0.014559543 0.018004822 0.046148937 -0.017400904 -0.007260305 -0.0016043179 -0.04223 -0.033629876 -0.029007351 0.0043345992 0.043927424 -0.013355614 0.025575826 -0.03314702 -0.016005775 0.06481962 -0.003705472 -0.028876966 -0.007710637 -0.07249913 0.004575996 -0.053233728 -0.01056366 0.005308032 0.035241872 -0.01502963 -0.04620346 -0.02005111 0.021104164 0.02522873 0.0031143925 -0.04485949 -0.012090947 0.00321311 -0.022671066 0.0015297951 0.037461437 -0.011612287 -0.04882407 0.01011057 -0.004879116 -0.0005559534 0.018144675 -0.002064744 -0.04419311 0.04839228 0.017148357 0.026874656 -0.06529629 0.05282368 -0.020432757 0.020931525 0.05306552 -0.010931374 0.0592861 -0.0030466442 -0.0059921783 -0.007840131 -0.026432589 -0.0032914088 -0.023790978 -0.0020362628 -0.04059252 0.047255408 -0.0077056354 -0.010604332 0.030588498 0.023929024 0.040191174 0.021045482 0.034103714 0.012175942 0.007903548 0.005395175 0.062161993 0.02916377 0.017899709 -0.055248138 0.02185999 -0.01984466 
fuiste -0.0030655176 0.013007909 0.009457107 0.00065341603 0.009848994 -0.0127732605 0.0058726743 0.029932711 -0.0181021 -0.024928443 -0.0027258585 -0.024307704 -0.007392518 0.016949259 0.001319702 -0.0100475075 0.01625058 -0.008829038 -0.004334092 -0.022667114 0.002872031 0.00905304 0.023575896 -0.005006102 0.0038783334 0.005694356 -0.01549832 -0.0007759875 -0.011346958 -0.0009786566 0.013373083 0.0043253526 -0.0030552289 -0.0070370543 -0.008872144 0.017891683 0.0027660055 -0.007797011 -0.0008002787 -0.020766431 0.007560083 -0.012970173 0.006604113 -0.0023973517 0.0087757055 -0.008142588 -0.016967423 -0.004134176 0.016450964 0.015336516 0.0072192373 -0.007306117 0.0022838495 -0.0027375862 -0.010761139 -0.0046881493 0.017831244 -0.01061294 -0.024809185 -0.004591713 0.0032540131 -0.005759044 0.011434747 0.0062868404 -0.022350058 0.009369279 0.0067753172 0.005252234 -0.015283138 0.024395006 -9.9924866e-05 0.017478744 0.021364897 0.007287096 0.009229434 0.00431133 0.0056710597 0.009008044 -0.010057852 -0.0041003237 -0.01415072 -0.0076280595 -0.015692674 0.028321456 -0.0016828305 0.0021626665 0.009627043 0.011515225 0.0045460425 0.008553308 0.009630838 -0.0042963484 0.0030783855 0.002012514 0.021409694 0.009090594 0.009015055 -0.01993956 0.010448576 -0.0010398435 
ideas -0.015795121 -0.0013397359 0.009920098 -0.0014272125 0.007306849 -0.011063396 0.00703426 0.023918025 -0.002888315 -0.013758823 0.0056523997 -0.012897951 -0.006203241 0.0053949975 -0.0078231 0.0006168268 0.0020710488 -0.003800716 -0.010594532 -0.019099545 0.014695024 0.0025175568 0.016957011 -0.015049572 0.00037375005 0.009709654 -0.020636834 -0.007708246 -0.013518684 -0.0054302434 0.0016421108 0.007260422 -0.0019019736 -0.010608967 0.006452676 0.005863188 -0.002238849 -0.0050278916 -0.002373857 -0.017758874 0.001574582 -0.007649792 -0.0039786547 0.00089606986 0.008907502 0.00016060642 -0.015301802 0.0006939777 0.013273671 0.0020298627 0.0071450872 -0.0144393295 -0.012563962 -0.0021439195 -0.009000442 -0.0047576567 0.0018024158 -0.0017295885 -0.0029418548 -0.0065351613 -0.0031104719 -0.0070776343 -0.0018759448 -0.0014451706 -0.010399211 0.016847093 0.0015657132 0.005245495 -0.006504763 0.0121708 -0.0108878035 0.012840879 0.012611305 0.005746246 0.02020957 -0.0051757134 0.0068476154 -0.007810767 -0.010392279 0.0057845893 -0.004190565 0.007945363 -0.015669955 0.022650119 0.0043134554 0.0028831796 0.007842973 0.008620093 0.0024756826 0.00795299 0.0062310933 -0.0014511875 0.006963119 -0.00085079996 0.012514424 0.0060362094 0.013115989 -0.013278383 -0.00022100209 -0.012572959 
perder 0.001805546 0.005544301 0.0051150573 -0.0095982235 0.0032527607 -0.009613116 0.004722053 0.013518898 0.0036856201 -0.012138808 0.007970003 -0.00015079019 0.007820951 0.00026232842 -0.002036268 -0.0041889544 0.012251579 0.0065463786 0.0014524782 -0.0013841996 0.012603656 -0.0034664941 0.001995034 -0.00047078764 -0.008088386 0.00010850384 -0.00077558507 -0.0044352175 -0.009040899 0.004243503 0.012488311 0.0016403463 -0.0073612267 0.004978061 0.00023344564 0.0048694797 0.0011278256 -0.00021091207 0.008055208 -0.013547505 0.002900077 -0.00020376073 -0.0012675617 0.009477447 0.005976766 -0.0034516007 -0.012983419 0.008062719 0.010426526 0.008919112 0.0075195 -0.0074623334 0.005903403 0.005785276 0.002298094 0.007617142 0.005682537 0.0037808907 0.0037813373 -0.0036303261 -0.0034608266 0.004698142 0.011823139 -0.008751814 -0.0061122165 0.0017849036 -0.0065417453 0.007527104 -0.008021025 0.01496682 -0.0032877177 -0.0011668995 0.0019542244 0.0028311538 0.00877263 0.0070868125 0.0030254105 0.0024838145 -0.011169488 -0.009149373 0.00040444633 -0.005108449 0.0047195074 0.015899466 0.0021994573 -0.00624842 0.008129326 0.011659303 0.00870161 0.01022746 0.014275554 0.009458617 -0.0036470075 0.0039523393 0.002217337 0.0109251905 0.008360289 -0.009421581 -0.000492318 -0.0056375824 
bastante -0.016497679 0.011173405 0.0132073695 0.0047346014 0.0009843444 -0.016154483 0.010383752 0.02448415 -0.013810773 -0.021599209 0.005640681 -0.0056785205 -0.0054640677 0.00956492 0.0015013241 -0.0028524757 0.014528653 0.0022988734 0.0031783239 -0.017825795 0.013655168 0.0002529616 0.00857034 -0.0093126455 0.0017455879 0.004344774 -0.010281851 -0.00559116 -0.0065067173 0.012445299 0.0069718477 0.0056324345 0.010444413 -0.0024258308 -0.00085874426 0.007610006 -0.008927043 -0.008969366 -0.0060692267 -0.0135108 -0.0050771907 -0.0039872853 -0.010112977 -0.010592736 0.011975299 -0.012686704 -0.0103023 0.0017188776 0.005384092 0.016576974 -0.0059871576 -0.020156452 -0.00040510215 0.0049725403 0.00075953343 -0.0016543411 0.013596375 0.008032879 -0.018704213 0.0026144867 -0.0018859549 -0.0010724246 -0.003441333 0.006198289 -0.008444709 0.015356929 0.004028146 -0.00074757216 -0.005674043 0.020391278 0.0055739274 -0.0030267988 0.020697314 -0.0043397686 0.010138643 -0.0062800455 0.009156721 0.00861297 0.00074563734 -0.006507429 -0.012715375 0.006504133 -0.015407267 0.004328055 0.0064794268 0.0052082343 0.013497204 -0.00094049 0.015863804 0.0024662607 0.014137806 0.0083610425 0.008265861 -0.004432311 0.021344336 -0.0016872921 0.0025907252 -0.009253255 0.014958926 0.00059190736 
Cuando -0.06853129 0.054159325 0.039673038 -0.005994093 0.018358443 -0.12599589 0.06174487 0.1907239 -0.08334129 -0.104838744 -0.019789984 -0.11928508 0.001748735 0.038638264 0.0048354752 -0.04409102 0.059756003 -0.058254555 -0.031200519 -0.18843897 0.049644314 0.017125443 0.077006795 -0.054935466 -0.02651659 0.016879668 -0.089634694 -0.055240173 -0.034190804 0.02875687 0.09178839 -0.008611155 0.04314014 -0.05491954 -0.022443736 0.116277725 0.0015346515 -0.053002313 -0.037045825 -0.1262416 0.011070631 -0.08343517 0.00084922375 -0.0018066539 0.06767405 -0.014743158 -0.09506216 -0.019604797 0.040673576 0.05597131 0.020903703 -0.09936895 -0.029311405 0.017756725 -0.043396838 0.011323303 0.07462603 -0.008983771 -0.09598084 0.009119822 0.0029741467 0.010864763 0.031927582 -0.0043547475 -0.08682671 0.10100982 0.016706083 0.07092022 -0.11131621 0.10035745 -0.028438278 0.058994994 0.11761704 -0.0016859979 0.10764106 -0.0019311842 0.009968236 -0.0037290559 -0.07109282 0.006307816 -0.045557205 -0.002449569 -0.06780109 0.09626587 -0.0037817485 -0.02325718 0.04468945 0.05249112 0.07148512 0.037551016 0.08779435 0.04173817 0.007925875 0.007928749 0.13449635 0.044572785 0.043985184 -0.107073694 0.047956273 -0.021074176 
sirvienta 0.003625001 0.00496566 0.0027501148 -0.0030766479 0.004661536 -0.0029076808 -0.00013913079 0.0027674662 -0.009805692 0.00019355398 -0.0014689016 0.0007141471 -0.008720748 -0.0030243585 -0.0053524766 -0.004096028 0.010281876 -0.009528207 0.0007791942 -0.014826776 0.008216772 0.0024616586 0.006498853 0.004075639 -0.0022685777 0.005231331 -0.011269229 -0.0044597266 -0.008786383 0.0032483817 0.010787909 0.0004729176 0.010972458 -0.0011105177 -0.008729013 0.010894652 0.003435906 -0.009871968 0.0021451635 -0.00813174 -0.0006705267 -0.01230303 -0.006869358 -0.005072848 0.013878213 0.0019426808 -0.014243408 0.0028901265 0.007321332 0.0073957285 -0.0044101737 0.0017684055 -0.00844159 -0.0047935816 -0.0032186382 0.0007993479 0.0103319045 -0.0056601977 -0.0072645354 -0.008266926 0.0057847043 0.006396419 -0.00018810155 -0.0038341773 0.0025815973 0.0033942994 -0.00015551942 0.011101781 -0.016795872 0.0071157482 -0.009462692 0.008041685 0.008732677 -0.00209227 0.009605984 0.008472231 0.004388774 -0.0007342741 -0.01199069 -0.0058124056 0.00592916 -0.007207789 -0.011130925 0.0024900576 -0.0026815583 -0.010855484 0.010019151 0.006874705 0.014818798 0.0003524995 0.008151873 0.00790824 0.005675998 0.002477079 0.0071767797 -0.0002547738 0.010158842 -0.0110827815 0.011838464 -0.0073629413 
paquetes -0.005288701 -0.0016740507 -0.0066700145 -0.008359552 0.0086664865 -0.009720189 0.0004378741 0.0021666617 -0.0115127135 -0.01032777 0.0062668924 -0.00874453 0.0015054579 0.0063268347 -0.004779987 -0.0027105797 0.0056988043 0.0032679632 0.0039347527 -0.0022707714 -0.0006901166 -0.008541595 0.0035152154 -0.0015166024 -0.00063670846 0.009722954 -0.010697689 0.004764362 0.0027381184 -0.0031636572 0.0019223063 -0.0077208695 -0.0046494594 0.00823232 -0.009252997 0.0077636316 -0.0051995297 -0.009224723 0.0043462627 0.0066610435 0.0015138984 0.0077904505 -0.0042816238 0.005176694 0.003169117 0.005701309 -0.0018219803 0.0082404725 -0.0008762652 -0.0060658236 -0.0054493337 0.0027317593 -0.0063739195 -0.007058842 0.00074546755 -0.0022729107 0.011675911 0.0040583764 -0.008966552 0.0031915766 0.0074283336 0.0070344545 0.005343455 0.0004343235 0.0019725375 0.0035920814 0.0077681514 -0.0007272762 -0.0043124305 0.011983085 -0.00948683 0.007979194 0.009673104 -0.009879304 -0.004733034 -0.0024840091 0.0045105764 -0.0047451165 0.006379934 0.0045096893 0.008588369 0.0041259006 0.00403383 0.008557708 -0.009301247 0.00884777 0.010257245 -0.006968001 -0.007083144 0.010219116 0.0015459091 0.0010148793 -0.0049926 0.00099349 0.0025717942 0.00470207 -0.0072944514 0.005083875 0.0014554617 0.0058106645 
viandas -0.0069916393 0.0018477985 0.0010542359 0.00490339 0.01021546 -0.013705324 0.018122602 0.031385276 -0.013176988 -0.018948935 0.0016889867 -0.01318114 0.0044630235 -0.001174768 -0.002757364 -0.012899806 0.008730302 -0.0066479486 -0.009612049 -0.03290329 0.008434793 -0.0059150015 0.001551344 -0.011906783 -0.004439584 -0.0069470364 -0.019647097 -0.006750901 -0.0044433908 -0.002112978 0.006706633 0.0011818489 0.0046062237 0.00083758566 0.0067135803 0.02061116 -0.0015393866 -0.0015724164 0.004741586 -0.013526229 0.005660623 -0.0032174313 -0.0026623195 -0.008360196 0.003490806 -0.012663299 -0.011360627 -0.008068843 0.0053373277 0.016024599 0.005102018 -0.019858243 0.0020908762 0.0017066207 0.0041441093 0.006114958 0.008799072 0.002790304 -0.019575635 -0.0039564343 0.0048752306 -0.00021116716 0.0075809653 -0.002229145 -0.015145043 0.014278727 0.0009415339 0.013601455 -0.008346971 0.021325143 -0.010812981 0.0050690216 0.017833412 -0.0017771235 0.0051953914 -0.0022790777 -0.0037018817 0.0028573298 -0.009911079 0.009036792 -0.015007185 0.007565956 -0.011760214 0.024641171 0.00084651617 -0.0132449325 0.015130972 0.0021633313 0.0018127809 0.00784655 0.013246506 -0.0017743631 0.0004035591 0.010021297 0.013137735 0.0048461785 0.010536524 -0.00489234 -0.003070861 -0.002776187 
sali -0.014736736 0.014037728 0.01863889 0.006498366 0.0071282038 -0.029963344 0.02184677 0.06280719 -0.031032091 -0.030474909 -0.0106881885 -0.043378964 0.0010498113 0.012433465 0.0019995093 -0.009408129 0.02771548 -0.019858677 0.0012194843 -0.048594724 0.009280655 0.009024011 0.023340587 -0.013670665 -0.0026161475 -0.0027819974 -0.035079684 -0.008364327 -0.013514897 0.0022276526 0.023643801 0.001999868 0.013671885 -0.013930328 0.0018204702 0.033395253 0.005708574 -0.011845622 -0.013466486 -0.03706438 -0.0041124173 -0.031001188 0.0072178408 0.00084927096 0.012979769 0.00050698593 -0.03718275 -0.0034437364 0.012311358 0.005549557 0.012150351 -0.037687656 -0.016390385 0.012293407 -0.009080119 0.005689173 0.025556637 0.0049971053 -0.03373457 0.007045885 0.0016904199 0.010140035 0.014829991 0.006194452 -0.02123047 0.037919927 0.0111607 0.028253213 -0.04332407 0.03333424 -0.014430497 0.0118718995 0.025396328 0.0038167886 0.032427978 -0.00838745 0.006897254 0.0040227184 -0.016656281 0.0053528952 -0.01333624 -0.0047373893 -0.010190862 0.02667506 0.00035770275 0.0014185432 0.012449962 0.00867775 0.03235445 0.0027630543 0.03536147 1.05184445e-05 -0.004343445 0.0058068167 0.039039634 0.0097749075 0.0066724885 -0.03712713 0.019805707 -0.011537946 
Ni -0.014515756 0.017211538 0.015009835 -0.0039026744 0.0019978704 -0.02727472 0.024691187 0.05307514 -0.02318772 -0.036728937 0.0016719202 -0.032967903 0.0030877693 0.016370554 0.006132507 -0.015016577 0.022780586 -0.009044401 -0.011487754 -0.04788862 0.014155483 0.01196899 0.032096878 -0.013532696 -0.014051509 0.013475348 -0.026591413 -0.02249577 -0.0033012931 0.009970237 0.023445861 -0.0034330045 0.011734793 -0.013666939 -0.014891567 0.03929278 -0.00087696506 -0.020785982 -0.016298141 -0.046222027 -0.0018829649 -0.031669404 -0.008967321 0.004154164 0.014035186 -0.0014201789 -0.020522472 -0.017272035 0.020934902 0.009540298 0.009566266 -0.023207055 -0.017837508 0.00289512 -0.021378046 0.0063834493 0.022458568 -0.0062644756 -0.035607662 0.0080826515 0.003947838 0.008699059 0.013264759 -0.008195968 -0.019884283 0.040180817 -0.00337339 0.021934558 -0.041300274 0.030452685 0.00040332173 0.016076574 0.04052622 0.0041019004 0.035946503 -0.0061137206 0.00056463794 -0.008846289 -0.020966059 -0.0032186361 -0.00677885 -0.0015861916 -0.02343651 0.021603473 0.0021926484 0.0016709132 0.0109349545 0.01492895 0.031384315 0.018429052 0.020849666 0.015537319 0.005298489 0.00622807 0.030796366 0.010174859 0.017705161 -0.023004208 0.0032206054 0.0036978433 
Encerrada -0.0067664096 0.011369609 0.0054168706 0.008578189 -0.00065448077 -0.0014855694 0.005164394 0.0124324 0.0025293063 -0.004051435 -0.0071022743 -0.003961794 -0.0028442147 0.008230822 0.009965862 0.0015477357 0.0020398118 -0.010018071 -0.0072693755 -0.005628121 -0.0006510389 -0.0046217735 0.00016083833 0.0037710322 -0.011496121 -0.0040068347 0.003217186 -0.0010678263 -0.0068111513 -0.0050637424 0.010713504 -0.0025776166 -0.0036724622 0.0037481715 -0.008502431 0.014556247 -0.004626123 -0.008271566 -0.0014787118 0.0017445855 -0.00855681 -0.0058607315 0.005121636 -0.0025962805 0.0040178536 -0.0022968373 -0.0035589843 0.0047394168 0.0013948745 0.007254851 -0.0018814219 0.0020351456 -0.0053273817 0.006857189 0.00684439 -0.008117575 0.010889664 -0.0047834995 -0.007543904 0.0011658537 0.001808699 -0.0042485725 0.006940682 0.0025665825 -0.011329734 0.010867525 -0.00020694915 0.005934628 -0.008530656 0.0032446997 -0.010967163 -0.00063891715 0.016628124 0.004727705 0.0024036937 0.007124049 0.007621586 -0.0061620576 -0.013353876 -0.00774086 0.0060060155 9.4785646e-05 -0.009870546 0.005435841 -0.001698029 0.0033114485 0.0004278296 -0.0023392385 0.014181079 0.003920323 0.0034320275 0.010403913 -0.0027391317 -0.0017640948 0.0028510208 0.008036221 0.0042886822 -0.0029650733 -0.006592754 0.007763861 
momento -0.011781172 0.008030583 0.018657539 -0.004576447 0.009556883 -0.04194158 0.026317365 0.06295822 -0.030779772 -0.02020985 0.0015849656 -0.03546443 0.0014274061 0.017183641 0.0055172835 -0.020032221 0.020007694 -0.015740491 -0.0063690958 -0.053823613 0.009978101 0.0054781246 0.026866524 -0.0066840327 0.0012112422 -0.00400066 -0.038267415 -0.014945178 -0.012027113 0.012887298 0.01845516 -0.0090195425 0.013965571 -0.025504652 -0.01274106 0.03606891 -0.0035425294 -0.011536417 -0.0052334107 -0.038482543 0.011270021 -0.020911252 -0.010632245 -0.007940901 0.013546361 -0.011445884 -0.03612424 -0.016602848 0.0065929694 0.021098312 0.011698919 -0.030540718 -0.01876896 -0.0042670686 -0.004902529 0.007447528 0.026531367 -0.0037213038 -0.03167205 0.0036797444 0.00235401 0.008719737 0.0042253267 -0.009093835 -0.034435533 0.040599715 0.0067064413 0.01966093 -0.035043046 0.03381929 -0.01874758 0.012313401 0.034617536 -0.00043416148 0.030499253 0.006482532 0.0021290185 0.0033866519 -0.025784764 0.0032224918 -0.020742236 -0.0048221583 -0.011352023 0.03235995 -0.008017554 -0.004017495 0.0049778987 0.020724395 0.02592959 0.0051566255 0.029668033 0.0071576 -0.0062205987 -0.0058907294 0.031947974 0.021825003 0.007397215 -0.02397165 0.022846797 -0.012786509 
Parece -0.020908253 0.0074452357 0.017656025 -0.0026719866 -0.003697808 -0.0413762 0.016865334 0.057568844 -0.020673014 -0.031748872 -0.0055788304 -0.031332027 0.00096127443 0.01773014 -0.003048872 -0.010509894 0.013515397 -0.023118483 0.0007478185 -0.047739 0.007931634 0.010026164 0.023375519 -0.019063609 -0.0024123322 0.01224099 -0.03220622 -0.012227117 -0.019859998 0.015374694 0.028699499 -0.003375926 0.01656875 -0.012007341 -0.009815244 0.03313803 -0.004834884 -0.02259145 -0.01577237 -0.034767494 0.0034450023 -0.031800825 -0.011705391 -0.0008839546 0.030118199 -0.007064784 -0.02483311 -0.008528497 0.017101672 0.010183465 -0.0011080109 -0.021633785 -0.008573665 0.0068896874 -0.019643694 0.00513978 0.015927438 0.0030743137 -0.0323047 -0.0032177784 -0.008888214 0.004601508 0.020692782 -0.0030025686 -0.02043855 0.03156659 0.0063641113 0.018182497 -0.029090269 0.029662825 -0.013831256 0.020912873 0.029396767 -0.006226289 0.025847614 -0.00070304587 -0.006853399 0.0015085624 -0.024417814 -0.0028397576 -0.021877483 -0.0069946195 -0.02825358 0.042935718 -0.009006333 -0.004801472 0.01894328 0.019389953 0.028417878 0.006453663 0.019336244 0.011133253 -0.0022510043 -0.0058328635 0.04794659 0.014436748 0.022000264 -0.030969106 0.014888818 -0.0119726 
mazorcas -0.0106611615 0.009167406 -0.0009804415 0.0038641891 0.0028220853 0.00072077895 0.008733791 0.0140780285 -0.008214512 0.00411324 0.00046470147 -0.010141276 -0.00023908887 0.00462218 0.0010558326 0.0041593714 0.0015807371 -0.00984521 -0.0029097453 -0.006026769 0.011822118 -0.006952571 0.006801023 0.00556603 0.0064969547 -0.005512657 -0.013381613 -0.011256605 -0.011212139 0.0019540447 0.00085170864 0.00347955 0.011720012 -0.010249735 0.0048691803 0.006227291 0.0031699825 -0.0024159388 0.0073944386 -0.012430962 0.005272215 -0.013623971 0.0026049616 -0.006896918 0.008438636 0.0072902446 0.00501142 0.0015025348 -0.00020285099 -0.0071332953 0.00740722 -0.014266535 -0.0004000453 0.0054235957 -0.011636833 -0.004433371 0.010054739 0.0020126803 -0.0130158765 0.0033796085 0.00028225765 0.00047542798 -0.00042223386 -0.006685909 2.2442691e-05 -0.0032934207 -0.0065221204 0.006595593 0.004182698 0.0018292716 -0.009720521 0.008252486 -0.0010954993 -0.00695851 0.005426186 0.009420375 0.009455133 0.0018872982 -0.003002165 0.008910239 0.002908527 0.007936606 -0.0018732531 0.0030519182 0.003181515 -0.00027223054 0.01021573 -0.00037697 0.005052854 0.010318366 -0.0037935143 0.0015185921 -0.0048628487 0.005277519 0.008266545 0.010225949 0.004397316 -0.014900471 0.0050474973 0.0040793745 
vio -0.00544521 0.00767243 0.010518325 0.00054883555 0.010314385 -0.011844023 0.008052534 0.031614337 -0.002636062 -0.017518854 -0.004398691 -0.021011226 0.009230313 -1.3084915e-05 -0.006247545 -0.0031247665 0.0029498166 -0.016293095 0.0049816878 -0.029386455 -0.0007875001 0.005678636 0.018617352 -0.008178275 -0.0044055656 -0.003045072 -0.0054834546 -0.00045245455 -0.0069949776 -0.0036122748 0.020628046 0.0020189201 0.0072705946 0.0021824432 0.006935385 0.016407281 -0.002419247 -0.0051400205 -0.005536923 -0.011097294 0.0053565623 -0.017728511 0.00720453 0.009283538 0.00021279677 -0.0021655369 -0.00461429 -0.0020664653 0.008066606 0.015629027 0.0062791747 -0.005525007 -0.00842999 0.0032108186 0.00061225466 0.0018271419 0.009544188 0.0053813457 -0.020120382 -0.0057177763 -0.0029179964 -0.0048530167 0.001296339 0.0030821834 -0.0035970905 0.011661804 0.0035673114 0.015451252 -0.008525364 0.0172528 -0.0066859513 0.007153106 0.016769849 -0.00903523 0.008277665 -0.0022128378 0.0019085716 0.005146003 -0.0189776 -0.0031236394 -0.004481549 0.004988198 -0.0034378394 0.0077182623 -0.008188431 0.0009843938 -0.0011087648 0.008743285 0.01903138 0.012526836 0.019350408 0.013825316 0.0022220537 -0.009318094 0.023670875 0.00970033 0.0029760336 -0.008934185 -0.00069530786 -0.0063176486 
dicindome 0.0024174987 0.009279867 0.013055398 0.005785473 0.009047695 -0.016260315 0.005640864 0.022549696 -0.0056459107 -0.012079326 -0.0071563693 -0.015171095 0.0059662242 0.0070463503 -0.0016353038 -6.9066424e-05 0.015118662 0.000549728 -0.008953838 -0.025809921 0.008034944 0.0031466212 0.004175915 0.0040080096 -0.002317361 -0.00046531102 -0.013270697 -0.010140497 -0.008874764 0.0061065005 0.002482543 3.5996265e-05 0.00022929617 0.00041521402 0.005874198 0.020148173 -0.006084652 -0.011161244 -0.005312567 -0.017852651 0.002951892 -0.018052105 -0.0017987229 0.0085534975 0.014748017 -0.0031954814 -0.0022238223 -0.0062579173 -0.0020520852 0.004948674 -0.0032676964 -0.012471342 0.0010598275 -0.0010275283 -0.0119031565 0.0048555247 0.017995771 0.0017792204 -0.019589268 0.006260363 -0.008647628 -0.008357392 0.012466852 0.009013947 -0.015388031 0.022033552 -0.008178412 0.015349966 -0.014970998 0.015459946 -0.0075058495 -0.00069693907 0.005958034 0.0040200036 0.014867208 0.004865928 0.00062660157 0.0041635204 -0.0005551661 -0.006639071 -0.005704688 -0.009575326 -0.0062163104 0.01500326 -0.009972865 0.002092043 0.011246665 0.008999864 0.011253864 0.014118908 0.008631207 0.01182269 0.010316592 0.008658424 0.01747343 0.011023631 0.0016991118 -0.011682878 0.008684225 -0.0076388465 
es -0.13250501 0.11498775 0.07180427 0.01723775 0.033483643 -0.2567844 0.14126277 0.38089088 -0.1610712 -0.20233157 -0.025129735 -0.23733954 0.011279293 0.105615325 0.025416872 -0.099199794 0.11855503 -0.10804045 -0.06497156 -0.3765399 0.09584466 0.057629928 0.15857603 -0.089079134 -0.049769517 0.022738867 -0.18754588 -0.102036044 -0.099100344 0.03628011 0.17341934 -0.027993454 0.08193432 -0.10522642 -0.04699131 0.22992139 0.01849954 -0.11348217 -0.061481945 -0.25733665 0.0371306 -0.18138589 -0.028338978 -0.0015351528 0.14272967 -0.059023846 -0.19820312 -0.0646345 0.10374219 0.1131133 0.051098637 -0.20051782 -0.06927826 0.030170783 -0.09204325 0.048090555 0.16715944 -0.019086653 -0.20519415 0.0032829817 0.004015218 0.017053084 0.081483275 -0.011955083 -0.18431386 0.22904176 0.028141417 0.13569695 -0.2282864 0.18804786 -0.059638 0.10938978 0.22668003 -0.012006012 0.22017562 0.01031721 0.012888192 0.0042665983 -0.14181927 0.0019016317 -0.09246342 -0.01024039 -0.13019276 0.2188576 -0.03195151 -0.039214782 0.09414051 0.087873414 0.16268873 0.09498301 0.17236124 0.07110771 0.017061105 0.011214485 0.28695762 0.08834839 0.11544849 -0.21224897 0.08086538 -0.04657984 
tropez -0.0037298186 0.0011174515 -0.0016982651 0.0055445377 0.00810854 0.0020776791 -0.0025353832 0.017377231 -0.012938418 0.00057856087 -0.001567313 0.0028834068 -0.0009138268 0.009088606 0.010173646 0.006484832 0.011690847 -0.011475335 -0.0022519846 -0.006180246 0.0022346345 -0.005430249 -0.0017085361 0.0053288583 -0.00064263825 -0.004343276 -0.014284595 0.0063161184 0.0056857886 0.005839508 0.000110806286 -0.0047557666 0.0066468106 -0.010574756 1.767341e-05 0.013247962 0.004460841 -0.001968815 0.0032012563 -0.0049179913 -0.006923757 0.0032836334 -0.0017880036 0.001190626 -0.0015190775 0.004684115 -0.011788715 -0.0109199835 -0.0009279017 0.0045319777 -0.0045517534 -0.005094762 -0.009226324 -0.007303389 -0.010733658 0.00092690554 0.0018981373 -0.003895119 -0.011109311 0.0032533645 -0.00944464 0.0102813095 0.0040430403 -0.0030507294 -0.001041892 0.0027075273 0.0038436113 0.009669226 -0.004401673 -0.0005522632 -0.009862557 -0.0052609653 0.013409708 0.0084801605 0.010622936 0.0055479934 -0.00887345 -0.0047639585 -0.011822474 -0.0088006165 -0.0023398835 0.0041314373 -3.629022e-05 -0.00019809377 -0.009407605 0.006737633 0.009847707 0.00590456 0.0058096703 -0.001728247 0.0058699013 0.008711612 0.004676298 -0.00063614064 0.011780836 -0.0071584224 0.004681778 -0.0043872404 0.004325915 -0.0015775381 
irse -0.028771343 0.016797394 0.004617024 0.01031182 -0.0044673067 -0.031837855 0.025364215 0.06286117 -0.023143366 -0.03574473 0.0033180793 -0.028762775 -0.0011562932 0.01519288 0.0019947756 -0.016957209 0.017541112 -0.01143254 -0.008311032 -0.047609482 0.01773763 0.012357708 0.028525993 -0.021909215 0.0022002428 -0.0016485641 -0.03212075 -0.017379778 -0.011047582 0.0011264554 0.027401803 -0.00043762283 0.012295527 -0.023832787 -0.0016829324 0.037862003 -0.007110327 -0.023237318 -0.019106593 -0.035991527 0.0029210388 -0.020441942 -0.0005485392 -0.00074982515 0.026585357 -0.0003986029 -0.024121065 -0.01117855 0.018061105 0.022141295 0.009591304 -0.032294206 -0.014765402 0.0024418256 -0.0069414144 0.013640295 0.019704616 -0.008024762 -0.038634554 -0.0020300527 -0.005595631 -0.0074334913 0.008353921 0.0025012922 -0.031244267 0.027650388 0.008271634 0.024870474 -0.037345648 0.02572611 -0.012382771 0.011227157 0.032300442 -0.0014244328 0.03971872 -0.006643016 0.0049104104 0.0065633217 -0.01187557 -0.002118842 -0.010918439 -0.01080818 -0.012882612 0.038018886 0.005840883 -0.0144806765 0.016791664 0.018012423 0.026359618 0.018943766 0.03287483 0.019957757 0.0044146487 0.0032175533 0.0431268 0.0117688645 0.016825903 -0.021800252 0.018951192 -0.010761593 
permiso -0.0035663175 0.0129778385 -0.0024789837 0.00036082172 0.0050657117 -0.008799836 -0.0010902213 0.011821992 0.002042318 -0.009039693 0.0017472823 -0.020142296 -0.007659974 -0.0012613919 0.006215208 -0.006674788 0.0063813417 -0.008797991 0.00018029843 -0.009145997 -0.0027909533 0.0112393405 0.00028511166 0.004497359 -0.0054374165 0.0020949426 -0.005293879 -0.0013194126 -0.009744895 0.010939706 0.014910917 -0.009838068 0.0020104114 -0.0044877767 0.0030557467 0.01906679 0.009514132 -0.0024304902 0.0059635863 -0.014951937 -0.0024456468 -0.014958409 0.00344841 0.004727749 0.015231272 0.005957556 -0.00060115283 -0.0041008187 -0.0049044923 0.010127016 -0.0069823717 -0.013434442 -0.006455114 0.004936316 -0.01139987 0.007040789 0.0022571224 -0.007463289 -0.0007530352 -0.008596686 0.0044729966 0.0013531202 0.0074205264 0.0036872583 -0.011010393 0.01723703 0.0008529753 -0.002940992 -0.00892996 0.0065743625 0.0015226628 0.014143653 0.010529999 -0.003521283 0.013480537 0.005342855 -0.005460669 0.0038796254 -0.0015418774 -0.0018035737 -0.010574409 0.003921973 -0.011505451 0.015116558 0.0005360646 -0.009875459 0.005133472 0.013184415 0.014841264 0.006081932 0.017489485 -0.005844249 0.00079527067 -0.005684982 0.0036826665 0.005173296 0.011878623 -0.0011346426 0.013556876 -0.010647162 
dentro -0.008734506 0.0071503245 -0.0057755755 0.0067613362 -0.0047315476 -0.0126796765 -0.0021232914 0.012907244 -0.008035119 -0.013509345 -0.0031519693 -0.0019364794 -0.007347314 0.013090796 0.0009857226 -0.0046543237 -0.0025274497 -0.0066664284 0.00026385704 -0.016555872 -0.0009897269 -0.0054344614 -0.001229044 -0.013637248 -0.0050002513 0.010192086 -0.015402306 -0.01246545 0.0049579665 -0.003583222 -0.0015905693 0.0032373175 0.005754755 0.00018174545 0.0065004206 0.012896368 0.00965296 -0.006996352 -0.0011890065 -0.016335422 -0.0029780627 -0.013711636 0.0044854935 -0.0045742933 0.01432959 0.0031533644 -0.0028108652 0.0055140653 0.0071963156 0.012333265 0.006201924 0.0009157827 -0.007973982 -0.0025816779 -0.014003566 0.0019824111 0.015780367 0.008042617 -0.008936629 -0.005442068 0.00781001 -0.007977789 -0.004514813 0.0090664625 -0.0049445913 0.003649465 -0.0047577205 0.0070015024 -0.008786289 0.009929898 -0.0067418134 0.0041880244 0.009642262 -0.0030138304 0.012919308 -0.0072358246 0.0058206627 0.008226179 -0.007159183 -0.0025894225 -0.0029997688 0.0037476306 -0.010201816 0.014167504 0.00588367 -0.007476346 0.013823104 0.008505666 0.014644356 0.00558324 0.004168055 0.009155334 0.0007097206 -0.006363489 0.019361496 0.010453457 0.010807546 -0.018713962 0.010657407 0.0019727587 
tardes -0.009686415 0.01692015 0.0039143036 0.0060100243 0.0056449133 -0.012218818 0.0043651364 0.025768146 -0.02100037 -0.0072059473 -0.0035630045 -0.015581394 0.0026635556 1.4047444e-05 0.011612599 -0.001831951 0.00024801525 -0.014879505 -0.0062208474 -0.024587478 0.0013804976 8.966388e-05 0.0050825384 -0.0062727123 -0.005683055 0.0038036637 -0.021976845 0.0018197633 0.0006320261 -0.0043588676 0.003900392 -0.006898027 0.0045585623 -0.006852464 -0.00012382459 0.012825771 -0.004727825 -0.000288251 0.0025246132 -0.011934884 0.0058121933 -0.00678273 -0.011362132 0.009400258 0.0049537737 -0.0074477335 -0.0073536346 -0.009999448 0.006278995 0.018057726 0.0016618102 -0.024478305 -0.010158831 0.0019342252 -0.0076008253 0.011981495 0.011980688 -0.0062258737 -0.014366082 -0.0019656953 0.0031884727 0.0031763706 0.008339989 0.0005171203 -0.022551734 0.015990596 -0.0043829503 0.010510769 -0.02005576 0.009264102 0.0020181956 0.005804521 0.019197846 -0.008606297 0.023340791 0.0076527568 0.0066854167 -0.009041356 -0.017565116 0.007257574 -0.011601313 0.004971511 -0.018879456 0.018342884 0.0071053416 -0.0007163908 0.014897472 0.0044647013 0.009446362 -0.0013529754 0.023139238 0.00840358 0.0025109043 -0.0032606134 0.026083566 -0.00011131955 0.016915096 -0.02575626 0.0143352235 -0.0079445485 
palo -0.02508457 0.018652365 0.008433077 0.010658731 -0.0037050473 -0.024196938 0.017005863 0.043073125 -0.026464414 -0.020015001 -0.0029674345 -0.021201894 -0.008176983 0.006335615 0.0039732987 -0.008917162 0.012072055 -0.018580114 -0.011025577 -0.038176145 0.0058114403 0.00751117 0.009825246 -0.017085237 -0.004901458 0.008822584 -0.01263099 -0.008759458 -0.009782699 0.0013463543 0.021210214 6.5255736e-06 0.008738491 -0.0037761768 -0.002863053 0.024977818 0.011376261 -0.014583456 -0.009880583 -0.022673078 -0.0027900985 -0.016887235 0.0024693883 -0.005937452 0.02412857 -0.009566687 -0.015011018 -0.013066296 0.01469878 0.0051848367 0.011598274 -0.013276284 -0.016417757 0.0045510298 -0.013087051 0.01137607 0.01225891 -0.0010908722 -0.03050039 0.0014289024 0.000111324916 -0.0048915204 0.008871 0.0030917618 -0.017101629 0.017156227 0.011419351 0.012051577 -0.03351394 0.025835054 -0.0039669643 0.008821667 0.03350712 0.002145364 0.030727267 0.00622952 0.008475512 0.008577068 -0.024595283 0.0061456575 -0.017515704 -0.0092169205 -0.018232236 0.026630307 -0.012965132 -0.011013749 0.01965822 0.005055472 0.026015785 0.018819004 0.018188136 0.014407799 -0.0032591145 -0.00805244 0.03535967 0.016217576 0.012096347 -0.028420996 0.018196858 -0.0055993064 
dursimo -0.013019688 -0.0031412896 0.011109458 0.009702176 0.0058385646 -0.015755823 0.003137398 0.010843329 0.0028385895 -0.0010664202 -0.0017293561 -0.004321553 -0.006707215 0.012615972 -0.0074540447 -0.008059731 -0.00074004685 -0.0058440687 0.0054892404 -0.0111273285 -0.004267688 -0.0013914515 -0.0010843417 -0.011522362 0.007394132 0.0016434222 0.0011485649 -0.0009566946 -0.0077406242 -0.008585624 0.010983483 0.0039515146 -0.0009203389 0.0045083775 -0.0032030423 0.00035268237 -0.0038524268 -0.0050828126 -0.002088701 -0.0095782075 0.010109754 -0.008213468 -0.007280802 0.0026849622 0.008424298 0.0024481793 -0.00993923 -0.011535574 0.012166976 -0.00142039 -0.007109821 -0.012346131 -0.010179258 -0.0026549692 0.0015391329 0.0077390797 0.0044058384 -0.0040563145 -0.00799742 -0.009670396 -0.0017147909 -0.009019723 -0.0043563587 0.009214921 -0.007052981 0.008406644 -0.0074813473 0.011380887 -0.011524469 0.010067647 -0.0106850155 -0.0030342587 -0.0019172467 -0.0016545752 0.0052573397 0.00086881267 -0.0027679838 -0.009565574 0.0051055006 -0.0008026341 0.0043571508 -0.0067404597 -0.011966946 0.010480317 0.0005220034 0.0062156473 -0.00025405322 -0.005870147 6.3307525e-05 0.00871928 0.010142686 0.004481676 -0.0031341494 -0.006110315 0.014279786 0.0060713445 0.003941891 -0.011581175 0.0068172556 0.0042874236 
quin -0.029518206 0.020468598 0.009270863 0.008824664 0.00014054289 -0.039878145 0.029939983 0.06357331 -0.029157614 -0.025686888 -0.008805803 -0.026675232 0.0004618206 0.009157297 0.0019721563 -0.005491882 0.011113134 -0.024190124 0.0012139924 -0.056404844 0.021310482 0.01173665 0.031911608 -0.023723925 -0.0128780035 0.00823788 -0.032861292 -0.018955408 -0.014307041 0.00055731647 0.024691984 -0.003196125 0.013317073 -0.008575905 -0.004412091 0.024337707 0.011024768 -0.02399444 -0.01684084 -0.03181642 -0.00093722926 -0.023307793 -0.0057045845 0.0021402906 0.024509689 -0.009918469 -0.033953886 6.28718e-05 0.022671893 0.024526557 0.003687312 -0.030242162 -0.020205798 0.00982341 -0.012716148 0.012945611 0.016992707 -0.0071881157 -0.024484707 -0.0024067815 -0.0008666227 -0.0047912444 0.004545911 -0.0102635985 -0.030048277 0.027990438 -0.0022242034 0.01768103 -0.0436204 0.029761598 -0.013113033 0.011206659 0.03491888 0.0071646348 0.026521511 -0.0014979356 0.007485475 0.0030614096 -0.02023812 -0.005772559 -0.002927521 0.00164253 -0.013352474 0.03985121 0.0041962955 -0.0009438047 0.006889858 0.014503165 0.02940495 0.007103785 0.029591925 0.0059394203 0.011877817 -0.008720141 0.033589393 0.009473249 0.0068085035 -0.0404442 0.013272794 -0.0017259689 
cama -0.033279628 0.02129695 0.020982867 0.002388337 0.01609911 -0.06633438 0.03148396 0.08627192 -0.042544413 -0.04739212 -0.0019971794 -0.05524049 0.0054982523 0.014738257 -0.0043449644 -0.021718426 0.03754387 -0.030094836 -0.006604924 -0.09441562 0.022787668 0.0032190783 0.045921188 -0.021295533 -0.01993687 0.0042017107 -0.041166965 -0.022609508 -0.024892012 0.0041949195 0.03778902 -0.010837537 0.016073165 -0.034624815 -0.0058460664 0.049001314 -0.0016236852 -0.034475327 -0.0155719025 -0.060643226 0.00050681265 -0.050819878 -0.0097629195 0.0064848517 0.032175675 -0.0030495846 -0.05430803 -0.009801735 0.03232223 0.033342265 0.0027084537 -0.039079078 -0.013520136 0.008039574 -0.015006101 0.012978474 0.032572992 -0.008597786 -0.04944579 0.0065644234 -0.0036043038 0.0013308992 0.010173888 0.0022531564 -0.042537857 0.04665584 0.012905023 0.041504603 -0.049031146 0.04377478 -0.012911122 0.03463056 0.06378156 -0.0064045014 0.04809926 0.0031836499 -0.004869094 0.0068824734 -0.038723163 -0.0010093219 -0.022579128 0.0018913198 -0.023975426 0.04571393 -0.0077304672 -0.007114069 0.025496919 0.026158722 0.032158796 0.015438006 0.036601465 0.011674982 0.002523419 0.0044208826 0.0708487 0.02054468 0.021877658 -0.049771264 0.017640142 -0.004923091 
dejaba -0.015419516 0.010452775 0.007427709 0.0048724883 0.00022574767 -0.003385619 0.002143119 0.028629802 -0.0019901113 -0.019587753 0.0073907278 -0.0046580117 0.008183454 0.0119402865 -0.0075977906 0.0007749971 0.006260825 0.00020192968 0.006680408 -0.027772117 0.008314542 0.0033481242 0.0038824852 0.0028913184 0.0056786262 0.0015927985 -0.010355148 0.0006256022 -0.0019223599 0.006493606 0.008301849 -0.00967717 -0.0037947095 -0.013110871 -0.006375488 0.015135029 -0.0054827766 0.0033673018 -0.001805472 -0.0059677404 0.0004604262 -0.013749551 -0.007089451 0.0004286527 0.005098544 0.0009720941 -0.0075838678 -0.011485333 0.007180237 0.002153961 0.010518852 -0.010594914 0.0026686979 -0.002568869 -0.009672172 -0.0024394046 -0.000822236 0.004973754 -0.013606188 -0.007836692 -0.003600873 -0.008815366 0.004919472 -0.00012045016 -0.01547782 0.014138605 0.0060666422 0.01504212 -0.019802682 0.012359144 -0.005864152 -6.582501e-05 0.020580936 0.0053455415 0.019270197 -0.004099336 -0.001277433 -0.007946987 0.0027411662 -0.007181375 0.0014040779 0.009444219 0.0032242383 0.01615966 -0.0061738496 -0.00391923 -0.0028108882 0.0065938137 0.0042256555 0.006340985 0.0011762471 -0.0035173504 0.0073668845 -0.001358371 0.008437538 0.011243448 0.0099894535 -0.0013970903 0.01029158 -0.0072058137 
vi -0.027677236 0.006042424 0.015033036 0.0056641656 0.00522121 -0.029246109 0.009081551 0.052686565 -0.02017266 -0.025522465 0.0038354564 -0.027712915 -0.008137483 0.0036124953 0.011022035 -0.021912904 0.023367781 -0.017526967 -0.00062677753 -0.046192035 0.014738158 -0.00037413396 0.016007325 -0.010351178 -0.010875439 0.006875005 -0.026488857 -0.021268405 -0.022171976 0.014789352 0.022043558 -0.009518755 0.0010157104 -0.013441562 -0.003981277 0.04037767 -0.0008071661 -0.020898538 -0.013130935 -0.03777979 0.008644029 -0.018796742 0.0072665727 0.0043198434 0.014164929 -0.011627211 -0.032870386 -0.0031412179 0.007069811 0.012238432 0.0038245132 -0.021379536 -0.0076209577 0.0065387078 -0.011295344 0.007967052 0.020444212 0.0023120113 -0.027483823 -0.0061765523 -0.0048741847 0.004592153 0.010244044 -0.00048943947 -0.020992069 0.029009214 0.011389965 0.024993172 -0.026076121 0.021157052 -0.0010610798 0.010658639 0.031027209 0.007610699 0.018801782 -0.007086863 0.0083452435 -0.007843707 -0.009861594 0.0017635161 -0.00514533 -0.0030735573 -0.022570023 0.035699356 0.006222061 -0.0059038126 0.012244114 0.002625174 0.031681042 0.014790442 0.028147437 0.018309968 0.00562323 0.00022732011 0.033360604 0.006290329 0.008295636 -0.026200572 0.013892399 -0.015127105 
pasa -0.037010636 0.035899866 0.009772547 0.008984698 0.0073877107 -0.061948996 0.027082616 0.098844945 -0.05036101 -0.039917562 -0.0048136674 -0.05657558 0.0076967515 0.031077186 0.008827742 -0.023253273 0.030907342 -0.02979789 -0.011198408 -0.09349145 0.018523952 0.0077731395 0.043762896 -0.031066531 -0.009541828 0.016179707 -0.053652354 -0.030341044 -0.028874466 0.017508857 0.041420717 -0.010762276 0.01840925 -0.032960143 -0.009667316 0.05341526 -0.0033287168 -0.023958411 -0.018092968 -0.06838019 0.009870847 -0.052249096 -0.010956422 0.0064199753 0.039606024 -0.0030633223 -0.051117413 -0.01621621 0.027967084 0.025470631 0.012190336 -0.042935833 -0.013316742 0.012914967 -0.015535832 0.012863658 0.037449427 -0.0009612025 -0.053421415 0.002680818 0.009406354 -0.0017872523 0.013783371 -0.0063832584 -0.035027944 0.059499357 0.013509454 0.03613978 -0.057698525 0.05078287 -0.0083400775 0.02183179 0.054076593 0.0070556407 0.047894664 0.002930443 -0.0028458335 -0.009993325 -0.036060713 0.0030770681 -0.020212615 -0.009033487 -0.02895517 0.0501532 0.0016948903 -0.01413841 0.021877961 0.012963473 0.03406813 0.0122307185 0.05102988 0.01608797 0.0063180295 0.0051460788 0.072687276 0.022425016 0.028991628 -0.057747707 0.018806137 -0.019716637 
estabas -0.0056244847 -0.00088496873 0.009508532 0.00421502 0.009822907 -0.007461953 0.008485684 -0.0008913892 0.0022118713 -0.008753449 0.001040363 -0.01268325 -0.0021976503 0.010529423 0.009024244 -0.009410956 -0.0034911758 -0.00613245 -0.006206132 -0.0077530164 -0.0012052025 -0.0047574686 0.010379299 0.0054268097 -0.0032757598 -0.0046572755 -0.010594913 -0.0057382393 -0.0092223305 -0.007264673 0.008079183 0.0047666025 0.0031607738 -0.006819883 -0.004151185 -0.00050387334 -0.0072809504 0.004159745 0.0028608332 -0.01167585 0.0038363244 0.00025085505 -0.010040805 -0.00989545 0.005871704 0.006713064 -0.005753329 0.0018279881 -0.007364189 -0.0073818606 0.007756668 -0.007124669 -0.0045098704 0.00858592 -0.009793358 0.0005844076 0.0080077145 -0.002965146 0.003618892 0.008739133 -0.005664625 -0.005880227 -0.008810122 -0.007106528 -0.0055573294 0.003075173 -0.009373206 0.007700327 -0.0097066825 -0.0033830642 -0.0054088617 0.0027954255 0.00966008 0.0056418395 -0.0036478145 -0.0052063484 -0.0033872523 -0.0028014625 -0.01107503 -0.002454203 -0.004183099 0.009700172 -0.005766154 -0.0041357805 0.0064209225 -0.005897041 0.010762604 0.004347503 0.0009928993 0.01073761 0.006658008 -0.0017858339 0.008213628 -0.0061677145 0.009686339 -0.0005224489 0.0092678415 -0.004694788 0.0098228445 0.007934941 
bueno -0.043960225 0.028651884 0.022003477 0.010422558 0.013125736 -0.077118605 0.044951774 0.101515375 -0.037404183 -0.052704424 0.00074441236 -0.0630521 -0.0057302853 0.031451553 0.010195768 -0.018266689 0.024255924 -0.025941005 -0.00806052 -0.10635456 0.022482233 0.020958452 0.052887894 -0.018661477 -0.004727581 0.0072803157 -0.05399553 -0.019464225 -0.017677652 0.004527443 0.04091614 -0.0059936284 0.029746084 -0.028228795 -0.0032880036 0.056816638 0.013442536 -0.027609695 -0.01740392 -0.05817352 -0.00014052835 -0.05389229 -0.011114945 -0.0027594601 0.03805562 -0.010517385 -0.048754193 -0.024467148 0.029943362 0.03468075 0.01826802 -0.058342513 -0.02627621 0.0014777958 -0.027356794 0.0030102022 0.03794384 -0.010209673 -0.06076222 0.01002774 -0.005075292 -0.0016145365 0.023164902 -0.0030182416 -0.0386252 0.057728864 0.011643214 0.042844296 -0.067606874 0.059399568 -0.02621829 0.026457278 0.05206008 -0.0070052855 0.04774754 -0.0061379313 0.010823778 -0.005786193 -0.037995927 0.003503622 -0.025098536 -0.004811348 -0.026764352 0.064419225 -0.0067005125 -0.014307766 0.026844937 0.031493176 0.034708533 0.025633989 0.056702696 0.021032674 0.00756129 -0.002158302 0.078844674 0.030449236 0.032254007 -0.04831419 0.025656894 -0.00159685 
espalda -0.0023569423 0.01206517 0.005347021 0.009290998 -0.008846067 -0.008544457 0.0039964984 0.012650327 -0.008186051 -0.0057679885 0.00084656023 -0.0011744907 -0.0040515293 -0.006801208 0.0032534236 -0.0026180018 -0.0015297624 -0.007908135 -0.0047837524 0.00055142684 0.003703524 0.010423909 -0.0025175726 0.005717623 -0.009293953 -0.0076642884 0.0007373787 0.0074794483 -0.010501928 0.003707707 0.0005750229 -0.0026768849 -0.0077232295 -0.0021319457 -0.009935406 -0.0013765239 -0.00963431 0.003782177 -0.0020902448 -0.009958965 0.0053023514 0.003606274 0.005901737 -0.007042856 0.0073196907 0.007812722 -0.0017028534 -0.0059172357 0.011399497 0.0057415934 -0.0041927174 -0.012123576 0.0066996445 -0.001306817 0.00671298 -0.0029599722 0.0072009484 0.009240327 -0.010046478 -0.006459622 -0.005713535 0.007193839 -0.006065333 0.0031768172 0.0050853174 0.0018345807 -0.004379806 0.010936124 -0.0023135329 -7.8618425e-05 0.0045573735 0.011326581 0.01164343 -0.002229063 0.0051279967 -0.0011549942 0.008491109 0.0016480796 -0.005745537 -0.007506722 -0.0050165607 -0.0076823467 -0.009093192 0.009404998 0.008443603 -0.010050492 0.011764683 0.0074407067 0.0002435395 -0.0042574503 0.00023936479 0.009774524 0.0056757214 0.006189385 0.0014707813 -0.0012440754 0.00552897 -0.0059223697 0.005583531 0.0036810734 
.... -0.021072147 0.0050932267 0.00496967 0.0056094704 -0.00289924 -0.025509713 0.023501541 0.037030082 -0.022108417 -0.022209628 -0.0050189444 -0.029357625 0.006399123 0.0053115613 0.0047956374 -0.014360423 0.009269354 -0.014098217 -0.0072357496 -0.03818759 0.01950502 0.009184119 0.01008359 -0.019247403 -0.009513006 0.009346325 -0.028234443 -0.014842558 -0.015042369 0.005627403 0.02820347 0.0035880844 0.0025426848 -0.009308189 0.0029396317 0.02077018 0.0021549307 -0.010221003 -0.0035875703 -0.031832278 -0.006193376 -0.024927564 -0.0001315555 0.006214883 0.018453315 -0.007822836 -0.01660669 0.0033550947 0.004694949 0.0069797104 -0.0009015136 -0.02164472 -0.0007063852 0.005096292 -0.008655958 0.011903646 0.014958108 -0.011680508 -0.027216773 0.003426819 0.01061266 0.0022738853 0.00031228943 -0.009630522 -0.017131936 0.015586188 0.0045467205 0.011398981 -0.03077688 0.024631752 -0.011922139 0.0095814485 0.020091023 -0.0060890904 0.014912971 -0.00093813305 -0.008013402 -0.0037496334 -0.009514157 -0.005662644 -0.0112363165 -0.009892477 -0.021201616 0.029806534 -0.010565124 -0.00048086897 0.016709996 0.017631005 0.009892346 0.014195468 0.015614842 0.00022326667 -0.007977543 -0.005679094 0.030609038 0.0018207104 0.0048164483 -0.014603502 0.006159191 -0.0053665396 
debi -0.0110991495 0.0065987683 0.010097788 -0.0033052086 0.004020385 -0.0039653713 0.015361438 0.026941184 0.0002849127 -0.006812222 -0.003746809 -0.019567506 -0.0010848668 0.011716661 -0.0061137043 -8.40864e-05 0.012408439 -0.0025617369 -0.011429181 -0.024423094 0.0028156461 0.0051415185 -0.00067588466 -0.011012886 -0.0033607902 0.0059334207 -0.014787357 -0.013859053 0.0039557694 0.012063804 0.018441796 -0.0032145185 0.002937803 -0.00029194343 0.006695217 0.010859367 -0.0035434626 -0.016440127 0.0049377666 -0.007428618 -0.0019239754 -0.01844852 0.0014733006 -0.0013299811 0.01300322 -0.008649029 -0.004867647 -0.004517304 0.0064510177 0.013544241 -0.0015213458 -0.00030852965 -0.01360601 -0.0050122878 -0.008105526 -0.005401966 0.0031309898 0.0034047184 -0.0094199 -0.005510451 -0.0058795526 -0.005576355 0.009943417 -0.0033614878 -0.0073354403 0.0053236904 0.0089536235 0.0087425485 -0.0025730575 0.0017757518 -0.005325311 0.0069716214 0.016739272 -0.00092254044 0.014421306 -0.0017035701 8.242005e-05 -0.0007264792 -0.01715754 0.0014271708 -0.002271533 -0.009532732 -0.011934787 0.013090841 -0.0058089215 -0.0055219173 0.0074226568 0.0019966115 -0.00024472573 0.011034083 0.011187277 -0.0028837945 -0.0022211152 0.0013847441 0.02336365 0.012877646 0.0045786276 -0.002455959 0.0062607396 0.007207153 
menos -0.00893375 0.015727052 0.0028796731 -0.008043461 0.004264769 -0.028045364 0.018824983 0.02256482 -0.013851246 -0.018973406 -0.0036916928 -0.014912868 -2.240433e-05 0.016658721 -0.0073919706 0.001549413 0.0018610518 -0.0037377751 -0.007842758 -0.021591794 0.008702246 0.010069179 0.0151584 -0.0012936763 -0.0060430192 -0.0072885235 -0.02351111 -0.009653203 -0.006573291 0.003137077 0.023749728 0.0055889376 0.008833554 -0.01233502 0.0031338357 0.013892727 -0.0037196446 -0.011919815 -0.0029811044 -0.011586064 -0.006948318 -0.0046630027 -0.009050629 0.0032387509 0.002228252 0.0001945091 -0.019961115 -0.01284934 0.011296799 0.015480618 0.013371677 -0.021258267 0.00048725712 0.002871498 -0.01604102 0.00416243 0.013853787 -0.010304413 -0.012941632 -0.0043010493 0.0058037755 0.0027250764 0.013974485 0.0075777154 -0.01968611 0.0083927335 0.0014559343 0.015129925 -0.014629397 0.025221827 -0.00011045097 0.004052114 0.028425906 -0.009778359 0.011148103 0.0076474748 -0.00757759 -0.0015763011 -0.00498945 0.0010765034 0.00016261314 -0.0058921105 -0.007951965 0.023861071 0.0071759075 -0.009106545 0.00031714706 0.0034001989 0.018130805 0.01362101 0.0076918947 0.0016400527 -0.0020334416 0.0051171985 0.028209424 -0.0018598901 0.014013458 -0.019203907 0.007072294 -0.0058329953 
donde -0.05517848 0.05182261 0.04011253 -0.0056334576 0.014650993 -0.12480906 0.06660799 0.17781308 -0.068229534 -0.08725399 -0.010195283 -0.11551218 0.00972621 0.041810807 0.007922887 -0.044783585 0.054702867 -0.056286678 -0.019682271 -0.1675814 0.044460498 0.0258554 0.074511185 -0.050886445 -0.02729521 0.01286326 -0.09712457 -0.045820918 -0.038511474 0.014193716 0.08460479 -0.0067223683 0.038446862 -0.04434267 -0.01869223 0.09958896 0.011481243 -0.061210133 -0.020627439 -0.12679453 0.019243052 -0.08653556 -0.008889912 0.0019144051 0.075586945 -0.018285299 -0.08230898 -0.019452002 0.050361313 0.047545336 0.018627692 -0.09781936 -0.031802766 0.008534831 -0.035945397 0.0196662 0.082782574 -0.0148822265 -0.09773231 0.008309942 0.003411838 0.00014981066 0.03726377 -0.0018872207 -0.074691035 0.10079806 0.017724795 0.061981097 -0.10323559 0.09657872 -0.034842048 0.041539896 0.10433587 0.0026104464 0.092343554 -0.007225048 0.010297556 -0.007472353 -0.0690807 -0.0047184066 -0.044385333 0.0022375716 -0.06461975 0.11272413 -0.002126438 -0.029629357 0.048159998 0.0428757 0.08167318 0.042539563 0.088753074 0.025022848 0.012695884 0.005750867 0.13660838 0.041279707 0.047249854 -0.102455296 0.039903242 -0.025147662 
cre 0.0002882765 -0.0028804077 0.005282639 0.0038973335 -0.0073820283 -0.0045894645 0.0017655481 0.008437371 -0.01155848 -0.01596559 -0.009936228 -0.017249335 0.0072013005 0.0046511986 0.0037180968 0.0058519775 -0.0025457868 -0.00053974375 -0.0110413525 -0.014243709 0.009891255 0.006322089 0.003963555 0.0007559614 -0.010844953 0.008352779 0.00091973663 0.0023429345 0.002871812 0.010808966 -0.00164979 -0.008320712 0.010736763 -0.014087101 0.0057684043 0.0030253266 0.008485309 -0.010086295 -0.006492543 -0.0022204088 -0.0033043062 -0.011976879 0.0060078087 -0.002094669 0.012695783 -0.00932317 -0.006802193 -0.003594735 0.0066332156 -0.0031090628 0.0029215084 -0.01682973 -0.006201354 0.0041904105 0.0046592588 -0.002041071 -0.0009620439 -0.0018223877 -0.011039071 0.00489677 0.004719603 0.0101622045 -0.0027390146 -0.006499864 -0.014483613 0.008180353 -0.0073677343 0.00063903606 -0.009833101 0.0024657988 -0.0004512385 -0.0031965384 0.014871646 0.00493162 0.013050869 0.0013728132 0.0016756046 0.006244366 -0.012008727 -0.0046152 0.0030919702 0.0023959943 -0.008802998 0.013258752 0.008401656 0.002677297 0.0078552505 -0.0013540804 0.011244146 0.0012276954 0.0088217 0.0011228542 8.994841e-06 0.002948262 0.015849125 -0.0015446611 0.0020126065 -0.01564905 -0.0034198454 0.0068076216 
considerado -0.008045863 0.0066346223 -0.0061015273 -0.005826294 -0.008337344 -0.0034314308 -0.004404995 0.023008928 0.003371006 -0.015948258 -0.0057463716 -0.011035629 -0.0031284397 0.0052533797 0.0024355475 -0.007823367 0.004146912 -0.007708563 -0.0040504793 -0.005965517 0.012398261 0.002221182 0.011726262 0.0059480253 -0.01164804 -0.0021937639 0.002770708 -0.012369042 0.0051643425 0.006938071 0.0022134413 0.008229269 0.009803817 -0.0015818628 0.0050976826 0.016223783 -0.0022685514 -0.0002547401 -0.011721999 -0.0075801206 -0.004096777 -0.015563408 0.005014917 -0.0030481739 -0.0021717984 -0.00090271514 -0.0153925745 0.0042429925 -0.002292852 0.0039019373 0.008131928 -0.01638286 -0.009484532 -0.008697371 0.0010738602 0.005455551 0.007967727 -0.0012277173 -0.0038163697 0.004443033 0.0008852101 -0.0015079533 -0.00622151 0.0050329347 -0.00025867647 0.013208869 -0.004276122 0.014774845 -0.0030623446 0.00934554 0.006543889 0.0020868208 0.012535951 -0.0037388639 0.0068546897 -0.0023423063 -0.0017573759 0.00062477007 -0.012884798 0.009700401 0.0044811666 -0.0089171305 -0.0073285215 0.011303408 0.005955471 -0.010123454 0.01214395 0.009850426 0.014260897 0.012507564 0.00087360694 0.012238056 -0.009307349 -0.0062669725 0.0058231326 0.008942764 0.002511298 -0.0027222822 0.0027658776 -0.003951845 
cinta -0.010674273 0.0015011886 0.0114433225 -0.0024442768 -0.0020123657 -0.0049589183 0.010214726 0.005589294 -0.0013869796 -0.008885749 -0.0027551556 0.0019992418 -0.0068019726 -0.0013192215 0.0065494482 0.002175214 0.011232729 0.0068924646 0.005248584 -0.0057729357 0.0039690677 -0.0015325914 -0.004838602 -0.0089194765 -0.005046823 0.00430798 -0.007718687 -0.009075738 0.0051698997 -0.0011104583 0.0107812965 0.008234669 0.011463649 0.0007909555 0.0048759636 0.0060436297 -0.00027907023 0.0017339307 0.0035701196 -0.008754701 -0.005281473 -0.0124145 -0.010312724 0.001983903 0.009866882 0.0066949576 0.0040807924 -0.007139682 0.010956266 -0.003503191 0.0021131162 -0.0016808247 -0.0012223187 -0.009091602 -0.0065516797 0.0051172315 0.012330161 -0.010116283 -0.0010099123 0.004396103 0.00085815537 0.0050991466 0.0021753265 0.009254222 -0.007393285 -0.0014679683 -0.004399786 0.0066059325 0.00048756466 0.003988252 0.0016869227 0.0007183524 0.0056894063 0.009626118 -0.002970084 0.0061460976 -0.0021081592 0.009632827 -0.00460402 0.0066641583 0.0040458725 -0.0030153296 -0.0020857973 5.7771278e-05 0.008495262 -0.006474068 0.012120604 0.0006427128 0.01247789 0.005099792 0.0019282056 0.009411895 0.006820642 0.0013645586 -0.0025297548 -0.00754805 0.0021933196 0.002855289 0.010782091 -0.0045474167 
perfume -0.017331714 0.020906916 0.014749021 -0.008815636 0.011331323 -0.031784564 0.014687614 0.047108702 -0.0217711 -0.022269066 -0.005392574 -0.016751084 0.004258092 0.0027800559 -0.005814327 -0.01817093 0.005467118 -0.020811718 0.00010979775 -0.04589404 0.01108892 -0.0010867083 0.019653542 -0.002949653 -0.0064692805 0.001449293 -0.021439524 -0.0005234722 -0.012492822 0.0050731343 0.016936194 -0.0062167826 0.015407299 -0.00876506 -0.0123891095 0.027329093 0.009140309 -0.007169563 -0.00010945121 -0.029121533 0.0043270164 -0.011750892 0.0010432109 -0.00080253434 0.02057545 -0.013459864 -0.01869521 0.0012875295 0.0013987527 0.009220581 0.0040421556 -0.01721923 -0.01743196 0.010151758 0.00017530876 0.0051420606 0.020077312 -0.0003011656 -0.016646704 0.008684384 0.002790261 0.0028557898 0.014521583 0.00047127216 -0.027848983 0.015564363 0.010638226 0.010205134 -0.021592872 0.028803205 -0.015277128 0.005541091 0.01880477 0.0048589706 0.02021337 -0.008245538 -0.005831451 -0.0028019743 -0.010701287 0.0051259804 -0.01793375 -0.0048141666 -0.009465083 0.027626399 -0.00882457 -0.003667296 0.001742987 0.018718608 0.009741302 0.009239253 0.016928744 -0.002823732 0.0075080916 -0.008326013 0.035475127 0.011088938 0.006146121 -0.023069993 0.016417295 0.0014082676 
Entonces -0.054510675 0.034046374 0.029146876 0.007483434 0.0022212903 -0.0831609 0.058981225 0.12993628 -0.06615021 -0.080289446 -0.013531468 -0.074052125 -0.005463212 0.037008736 0.007774356 -0.03810117 0.034616776 -0.04863252 -0.028324516 -0.13523032 0.041983977 0.020212144 0.056311954 -0.033986527 -0.013957045 0.006206833 -0.076265186 -0.032818716 -0.027973033 0.01986779 0.065656796 -0.00850392 0.025542796 -0.03307593 -0.019180119 0.088725336 0.0113772545 -0.051731218 -0.026432246 -0.09675873 0.011291125 -0.059957873 -0.00022979666 0.0016304775 0.05128768 -0.0098014185 -0.07055488 -0.024902493 0.035319693 0.04417018 0.02298309 -0.05843684 -0.01553538 0.0043218476 -0.028357135 0.023197003 0.04941997 0.0020199446 -0.07853705 -0.0012815435 -0.006662934 0.0054758713 0.03225367 0.0011679047 -0.06459809 0.07017739 0.00884195 0.04635859 -0.078064404 0.064548545 -0.031538036 0.044402972 0.07812022 0.0053084693 0.066330485 -0.008225763 -0.003003757 0.0066851615 -0.04566185 0.0031082658 -0.02875203 0.00062625686 -0.038330045 0.08227684 -0.008280195 -0.011580044 0.037866715 0.036225107 0.05939278 0.028931035 0.054447543 0.032135677 0.005709089 -0.0031509555 0.106291324 0.03886607 0.034003012 -0.07155059 0.023390397 -0.02385328 
