cigea 0.0013020278 0.003938042 0.0032792669 -0.0025505275 0.003857419 0.0016648903 -0.0032461518 0.009716644 -0.013273512 -0.0037644869 0.0021901173 -0.010144697 0.008018434 0.0006433445 0.0009320376 -0.003969296 0.004072397 -0.0016009056 0.004157579 -0.0069902833 0.012204225 -0.0062048337 0.001135265 -0.010969399 -0.0049709436 -0.0022522917 -0.002208373 -0.010755411 -0.0013257763 -0.0037744564 0.003764211 0.0031111985 -0.0026469124 -0.0017301172 0.0024528955 -0.0014513095 0.0015536036 -0.006146006 -0.006668563 -0.013487239 0.007725397 -0.001386587 -0.009212609 5.624471e-05 -0.0023956469 -0.008809569 0.0043655857 -0.009103688 -0.0060398187 0.012519256 0.00038536938 -3.7603866e-05 0.007825845 -0.007198736 -0.0057617226 0.0073828064 0.010338933 0.0039711273 -0.0042619347 -0.006961922 0.0066487165 -0.0073704617 0.0055053225 -0.002562133 -0.012782002 -0.000757653 0.00040340205 -0.0019539061 -0.009826766 -0.0043121562 -0.012294369 0.0003385759 0.0023226866 0.004538846 0.0124000255 0.0027650013 0.0053537544 -0.0061141583 -0.0069588106 0.0023353207 0.0016487098 0.006900167 -0.0036432769 0.012049256 -0.00086606864 0.004428076 -0.00399542 0.012752596 0.014850649 -0.00028501972 0.011376383 -0.0036230972 -0.007925608 -0.008803983 0.014874367 -0.003267549 0.005699331 -0.013735887 0.009338912 0.00044403126 
mi -0.058851983 0.06641817 0.050060224 -0.00374691 0.05150089 -0.13257505 0.0799221 0.21536009 -0.11129414 -0.09777357 -0.047813054 -0.1540085 -0.0052806437 0.026026137 0.028828366 -0.082055084 0.0373869 -0.061400183 -0.043607425 -0.20106746 0.08721173 0.0118940035 0.077069394 -0.041397825 -0.031536147 0.021245824 -0.08002342 -0.065906115 -0.08377481 0.01099125 0.09715407 -0.034345586 0.049023066 -0.11804197 -0.0306079 0.12503077 0.037963834 -0.09177395 -0.056907266 -0.15448661 0.0067064897 -0.10300527 -0.024706336 0.038515266 0.06661449 -0.04654976 -0.072605886 -0.032453593 0.027680613 0.08828132 0.056710765 -0.106346525 -0.01481357 -0.02015593 -0.06334451 0.04428579 0.047763918 -0.037073933 -0.09544504 0.013512579 0.0050579607 0.020293362 0.047285076 0.0013406344 -0.10485909 0.16870143 0.03102264 0.10048696 -0.14216869 0.07970293 -0.055480503 0.09965808 0.100597404 -0.011539802 0.12301315 0.03945687 0.0072811195 0.017365353 -0.07726913 0.018182093 -0.06600218 -0.031960066 -0.06930899 0.11434452 -0.037727755 -0.0040929476 0.042630162 0.07144778 0.11121572 0.023267742 0.12184294 0.03848686 0.03265591 -0.012489821 0.18924715 0.085672855 0.03436924 -0.11527299 0.028174557 -0.040424798 
besndose 0.006548624 0.008153913 0.008041933 0.0088880835 0.009115548 0.0027460302 0.003267786 0.0133715635 0.00057525415 -0.0044271606 0.003345045 -0.0056666993 -0.00038641313 0.0032613487 -0.0036399923 -0.0004507271 0.0032356062 -0.0067039323 -0.0057268613 0.0026898063 -0.001574015 0.008792499 0.010798311 0.0019927258 0.0049914867 -0.00083863887 0.0036336852 -0.002958473 0.00053944427 -0.0030036406 0.004393324 0.0032743355 0.004500566 0.0017930127 0.0012012109 0.00037820515 0.0056018215 -0.012502975 0.0012824371 -0.0037294028 -0.0023980315 -0.0026393593 0.002237374 -0.0025413297 0.0017786062 -0.00022147683 0.0011110252 -0.010600042 -0.00079035753 -0.00021065096 0.006586221 0.004238479 0.004592231 0.0062515344 -0.0075916224 0.005858262 -0.004306868 -0.006084116 -0.00888112 -0.0068058874 0.0046298355 0.0059681456 -0.0015203225 -0.0066005397 -0.007344906 0.004308572 0.00123349 0.004072242 -0.012909193 0.010521179 -0.009014382 0.011466927 -0.006275998 0.0021700268 -0.005667094 0.0008180876 -0.0046011508 -0.005178743 -0.0019843616 -0.0020576122 0.0009186104 0.0093939835 -0.005713866 0.002069511 -0.008641367 0.00025721677 0.0033875715 0.009064962 -0.006958374 0.004252606 0.009490624 0.0054621156 -0.004780856 -0.0032902763 0.0070051346 -0.0012931383 0.001392033 -0.008956012 9.067726e-05 -0.010867712 
trajo -0.009571232 0.012348699 0.007673275 0.0019001338 0.0060127205 -0.023235032 0.008729074 0.014395064 -0.0031439723 -0.012464611 -0.009536851 -0.01248223 -0.0071473345 0.009590181 -0.0016609804 0.0015565974 0.0064629675 -0.012539022 -0.00974149 -0.027712071 0.014719678 0.0027236056 0.0009235939 -0.0035414333 0.0019680983 -0.0072946968 -0.018723795 -0.012066423 -0.0053704656 0.0047726007 0.014406349 -0.0105418395 0.007756281 -0.007679968 0.0044342983 0.015378746 0.0053373952 -0.01762405 -0.013825254 -0.013399468 -0.0049992236 -0.009616424 -0.0075183697 0.0076599084 -0.0013449852 0.004636634 -0.002638319 -0.007498897 -0.0055746194 0.0121302735 0.0067531513 -0.0096411295 -0.0072129867 -0.0030806414 -0.012787725 0.0076249 0.004237191 -0.00033101416 -0.0056910417 -0.000959501 -0.002158877 0.0029108522 -0.0007488121 0.0015642702 -0.01852504 0.015211531 6.460657e-05 0.013777863 -0.021692768 0.00020421555 -0.0136599755 0.002265547 0.019204142 2.4957135e-06 0.016305692 -0.0029864742 -0.0033331804 0.010496698 -0.01816129 -0.0036930805 -0.010332345 -0.0067666383 -0.007878715 0.016869891 -0.0133984415 0.0039121127 0.0003746671 0.003060165 0.010151175 7.423015e-05 0.020525375 0.012260939 0.00413979 -0.0011665846 0.024544356 0.019044576 0.005104176 -0.006008441 0.0017375236 0.0045253625 
cantando -0.0068809395 0.012604439 0.012246928 0.0073807416 0.0017127404 -0.0021903012 0.01279033 0.010459122 -0.0016613408 -0.006038232 -0.0062067457 -0.00606864 0.005365698 -0.0058863065 0.0021932109 -0.0040586423 0.0039305645 -0.00955139 -0.008131409 -0.0061091287 0.00978493 0.00795428 0.0051469957 -0.0051183207 -0.0031585658 -0.0067474316 -0.012951813 -0.0113433935 -0.0035755676 0.00045465678 0.0048692864 -0.00092383893 0.00083990244 0.0016107094 -0.008687824 -0.0015694976 0.0032313424 -0.009149407 0.0018389476 -0.009852989 0.00801577 -0.010671909 0.0070327423 0.0075692134 0.0086356765 -0.0004133955 -0.014357935 -0.0049368744 -0.0062432713 0.012997091 0.0009455035 -0.0047156587 0.007357172 0.006952559 -0.010660365 0.0016045045 0.0023141042 -0.01124103 -0.00069633836 -0.00078178843 0.006009358 0.007538879 0.0070859715 0.008876664 -0.008795632 0.0038485657 -0.005696061 -0.0018455514 -0.014261731 -0.004434327 -0.0044214404 0.005566104 0.0068365596 -0.0047188913 0.00710865 0.009340477 -0.0021195002 -0.007953748 -0.00075125834 -0.0009952841 -0.0021831794 -0.007542314 -0.010150302 0.0025536122 0.0042876806 -0.003232345 0.009124403 0.009542098 0.015121698 -0.0046285107 0.007719862 0.0062127262 0.008378738 0.007385202 0.009487402 -0.004002192 0.011502718 0.00082583807 0.0043816185 -0.009401596 
debe -0.0006993312 0.0026224193 0.004627763 -0.006927476 0.008718655 -0.006923451 -0.00069981936 0.015253826 -0.0060276287 -0.00042263314 -0.011324961 -0.00051263394 0.0016896533 0.011294691 -0.007503807 0.0034330182 -0.0063128285 -0.00831361 -0.008949469 -0.016380692 -0.002668074 0.009930118 -0.00046752824 -0.0016998225 0.0062919855 0.009998035 -0.0016605029 -0.0022382478 -0.005284808 -0.0008402105 0.0049519367 -0.009528453 -0.0019619674 -0.0018598333 -0.009894087 0.011463081 -0.0012109464 -0.0030570896 -0.003087825 -0.005433623 0.009838161 -0.0024294758 0.0058807647 -0.0030895837 0.004852432 -0.008464535 -0.0040254663 0.0067206495 -0.0040348712 0.01287797 -0.0071350858 -0.0067121554 0.003470019 0.0038524205 -0.010649482 -0.0013384549 0.011677734 -0.0023051363 0.0019283656 0.00244535 0.0017529331 0.00028640858 0.004089117 -0.0026221015 -0.008536497 0.007931192 -0.0042821215 0.002406923 0.001830728 -0.004652654 -0.007768661 0.0026527252 0.013997642 -0.004135441 0.0094962595 -0.001331311 0.00399382 0.0062263426 -0.010385039 -0.0036418275 -0.00996467 0.0047058295 0.0031438754 0.013249862 0.000110845605 -0.005567242 0.008643094 0.011396419 -0.0017280653 -0.008371842 0.0091472715 0.0041074594 0.00974452 -0.00963041 0.0195402 0.010218635 0.010611402 -0.004205177 -0.0044263615 0.0007197708 
tarde -0.025941273 0.028450469 0.0207132 -0.00257578 0.01684055 -0.04510791 0.028451197 0.07441336 -0.040396992 -0.030699413 -0.009571297 -0.050808128 -0.005882746 0.015245148 0.0028248471 -0.027846722 0.018009715 -0.024010994 -0.022606574 -0.06281619 0.019272884 -0.0027437832 0.03861352 -0.008916994 8.2665254e-05 -0.00082218705 -0.029008059 -0.03286959 -0.021750255 -0.0037434257 0.03848696 -0.0053484165 0.013156003 -0.03778497 -0.001038237 0.038745377 0.0056583686 -0.039122555 -0.013206176 -0.042105787 0.0074419873 -0.037714176 -0.0023972548 0.010100501 0.011829525 -0.02138752 -0.023146637 -0.012571091 0.006638876 0.024115909 0.009646591 -0.035309784 -0.0061274897 -0.0050838203 -0.022873243 0.0053722085 0.021722427 -0.015399319 -0.024613135 -0.00026843537 -0.0038629523 -0.0025398387 0.019245584 0.0038984804 -0.045535482 0.049487345 0.015677156 0.039799783 -0.038522024 0.020728305 -0.013423764 0.033558283 0.039277375 0.007645975 0.03319193 0.012978731 0.011251434 -0.002815374 -0.019726904 0.017817583 -0.015430427 -0.014881272 -0.01528061 0.036751933 -0.003664268 0.0033160732 0.014425292 0.02643358 0.04335277 0.014557269 0.036044814 0.016018407 0.013321373 0.0005349671 0.052333903 0.03249141 0.0028002819 -0.029126165 0.0078101796 -0.016438233 
estuvieras -0.011585931 0.008670711 -0.0027451406 -0.00040776885 0.010995153 -0.026309064 0.010596141 0.026977647 -0.0153451795 -0.008212836 -0.006503772 -0.026869422 -0.006659676 -0.0019775883 0.0084342575 -0.009474471 -0.0020669536 -0.01798794 0.0010548217 -0.029047012 0.012715366 -0.003297181 0.020420898 -0.0004341984 -0.0038183818 -0.005201244 -0.0064167627 -0.0075947614 -0.019137962 -0.007837935 0.014915873 -0.0035208291 0.0006700716 -0.023822566 -0.0114967385 0.026410727 0.005861766 -0.024665702 -0.015273047 -0.033847947 0.00017589373 -0.008579233 -0.0008287806 -0.0039590937 0.0006961653 0.0025757318 -0.010076646 -0.008296843 0.012541117 0.007675361 -0.0013011937 -0.022572134 3.8390208e-05 0.0005744046 -0.016253272 0.008647187 0.0038059927 -0.013698369 -0.014450423 0.009654936 0.010671945 -0.0044777403 0.008643314 0.009089729 -0.02544914 0.024641687 -0.001375263 0.02017882 -0.023109466 0.019726614 -0.00061449135 0.022841092 0.005380605 -0.002423159 0.021105867 0.004329404 0.002040829 0.010065344 -0.015736206 -0.0037790025 -0.008641956 -0.011118614 -0.012474101 0.011500629 0.0029767514 -0.0040721986 0.015388269 0.01501475 0.008339314 -0.0071488167 0.02690225 0.0011673644 -0.0010289716 0.0038527378 0.032858163 0.022227691 0.007890473 -0.021343408 0.011498376 -0.0013373516 
magisterio -0.00945734 0.008352524 0.012032866 0.008449534 -0.002144566 -0.009454363 0.0022012135 0.021634696 -0.0016051669 -0.01196157 -0.0021931676 -0.0157267 -0.0016198906 0.0116344895 -0.0049338033 0.003351099 0.0015735459 0.0032326337 -0.010215227 -0.0066386876 0.008034087 0.006443482 -0.0007388383 -0.0010521635 0.007902288 0.0035996824 0.00065105275 -0.0032942086 -0.009887744 0.005259353 0.009665876 -0.006074909 0.003251269 0.00021610808 -0.002246907 0.01563832 0.0011143901 -0.0035432484 -0.008071927 -0.018520579 -0.006393549 -0.014145876 -0.0014577984 0.004928525 0.0060547832 0.0005237237 0.00025439984 0.006628316 -0.0074639157 0.013200494 -0.0064764866 -0.009478801 -0.008190519 0.004041191 0.00486964 -0.0039018092 -0.0039544287 -0.0030476125 -0.008559696 -0.002348222 -0.006691552 0.0038895225 -0.0017297693 -0.00414388 -0.017126929 0.0149943 -0.004190729 0.011820536 -0.0057409573 0.0084515195 -0.007632365 0.008036703 -0.00050708296 -0.005294843 0.012009895 0.005206013 0.009362118 0.008436951 -0.0010482548 -0.0069862204 -0.0039308886 -0.0003900342 -0.004266057 0.00078363356 0.00728556 0.0026936631 -0.00035094348 0.0053131706 0.014492469 -2.6155973e-05 -0.00051669806 0.0019978974 0.011168096 -0.0075567695 0.017207399 0.005148414 0.0050894986 -0.010967497 0.0035971657 0.0034126488 
seras 0.0037137843 -0.003992361 0.0024689573 -0.0016852433 0.0068264836 -0.013668098 0.0074178064 0.004726155 -0.0027924338 -0.002267213 -0.005244197 -0.0087735355 0.006210704 0.00063921674 0.0015899626 -0.012601621 -0.0027343733 -0.008708441 -0.011422078 -0.0090948865 0.0022292002 -0.0052975966 -0.00115462 -0.004259824 -0.0036434124 0.011295938 -0.0001441318 -0.008093023 -0.0136684235 0.009889652 -0.0018358045 -0.008159656 0.009639164 -0.015845953 0.0046018143 0.00078452664 -0.0050019026 0.001284128 -0.0039883684 -0.016289676 0.0018641936 -0.013337536 -0.0035037855 -0.0016931061 0.0056563797 -0.0017327031 -0.012604656 -0.0010767116 -0.0066044843 0.007731767 0.007390435 -0.0051661064 -0.0022222237 -0.0026541955 -0.0046704663 0.0029381332 -0.0070332075 0.00028911635 0.002329078 -0.00043517502 0.0099373 0.00081555324 -0.00044566067 0.0013403693 -0.008111563 0.015640466 0.002379498 0.012905709 -0.0027193855 0.0007718027 0.0048961593 0.0055713793 0.0003499083 0.0002466129 -0.003087547 0.008761525 -0.003679868 -0.0070953495 0.004045703 -0.0077635515 -0.00223688 0.0068634553 -0.0063723647 0.01352024 0.0058211805 0.008518945 -0.0012869034 0.006010049 0.0008733555 0.005314072 0.0151494965 -0.0021187135 -0.0049974006 -0.010038158 0.0037248787 -0.0038946304 0.0022728737 -0.008999541 -0.005155773 0.00016496457 
ella -0.053490814 0.06711934 0.042759493 -0.0013143555 0.054173544 -0.14667413 0.08483427 0.22973698 -0.10667078 -0.111552395 -0.055191375 -0.15642893 -0.011279974 0.036294557 0.01643962 -0.07910026 0.031090505 -0.06626203 -0.041649416 -0.21176216 0.08590531 0.020632679 0.09304282 -0.04067964 -0.02739495 0.023809977 -0.085021265 -0.069775485 -0.07132176 0.008418183 0.10018439 -0.021540556 0.057045817 -0.111828625 -0.027325423 0.12241751 0.039241944 -0.08895881 -0.057963453 -0.16281275 0.015496628 -0.0966515 -0.024811959 0.041822035 0.07026307 -0.044729773 -0.08333972 -0.045483347 0.033004656 0.08591453 0.042793397 -0.093004346 -0.01579543 -0.021646537 -0.07020232 0.034602344 0.05454984 -0.031817243 -0.09336654 0.022174565 0.015830712 0.020507373 0.041018486 0.0024376898 -0.11329201 0.1599831 0.030984648 0.096568756 -0.14497896 0.077006124 -0.0685192 0.10273015 0.10149379 -0.00084964326 0.12188096 0.031408288 0.019494548 0.0082729915 -0.09118849 0.022835148 -0.06262868 -0.026922183 -0.065893866 0.110200815 -0.028359301 -0.01707626 0.06181379 0.07684584 0.09856209 0.009382352 0.11695121 0.0336209 0.032341175 -0.0041733165 0.19518311 0.0956613 0.043791678 -0.111817285 0.020383846 -0.03064395 
segn -0.011079598 0.0044888104 -0.00081897946 0.0036754997 -0.0011279617 -0.0083003305 -0.0021736252 0.024050342 -0.01107946 -0.007579363 -0.0027212666 -0.020849096 0.00075218896 -0.006119663 0.009998684 -0.0072293836 0.010282358 -0.006140691 -0.005540389 -0.021130636 0.0036985886 0.009113171 0.0126223 -0.013691418 -0.001665597 -0.002863008 -0.0029256998 -0.0063340478 -0.0035748244 -0.007431435 0.013761747 -0.01194188 0.014609795 -0.009803448 -0.009255173 0.008715928 -0.003399687 -0.013680839 -0.0084166555 -0.021502968 -0.0066802343 -0.014759359 -0.0004924268 0.012620861 0.0042228824 -0.013432703 -0.008418866 0.00038594578 0.007508604 -0.0023321784 0.004177636 -0.0047218055 0.0011678351 -0.0004939093 -0.004445096 0.0064219637 0.009259125 -0.012681924 -0.006743688 0.007662742 0.0030061256 -0.00019809935 0.009042905 0.00052495865 -0.006126532 0.022010226 0.0010959383 0.014329752 -0.021473713 -0.0020370064 -0.002921568 0.00089565176 0.0005383161 0.003969495 0.011128313 0.0056625577 -0.006370028 -0.0014962455 -0.005610971 0.0009137848 -0.007343367 0.0064357677 -0.010834013 0.017695453 -0.0049118507 0.0026800595 0.009682127 0.009723827 0.012893697 0.0048767617 0.004821244 0.0032965275 0.00650614 -0.008492382 0.022448614 0.015183559 -0.00086352834 -0.013449443 0.0053730356 0.0008067523 
nariz 0.00016328241 0.0116381785 -0.00285015 0.008811584 0.0027752942 -0.019776655 -0.00096904463 0.013756915 -0.0063900594 -0.007669638 -0.006808494 -0.013956571 -0.0066484297 0.0052973493 0.0054655867 -0.008077921 0.012494766 -0.01091572 -0.0075872005 -0.01353052 0.013515637 0.00038866993 0.016735343 0.0015099845 0.0043033096 0.0001469769 0.00012706156 0.000221136 -0.0016863148 -0.0053658416 0.0053447634 -0.009071262 0.010871784 -0.009833293 -0.011256144 0.011838843 0.01203632 -0.013523001 -0.0026038887 -0.0061079594 0.0024316148 -0.00494348 -0.005887326 8.810101e-06 0.00095591886 -0.009689662 -0.004520833 -0.0049337144 0.0016755688 0.01300779 0.013706985 -0.017241413 -0.011354662 0.007418549 0.0039954106 0.0051256977 0.0076901964 -0.0005624607 -0.005330021 0.010677486 -0.007558598 -0.008922471 0.007672451 -0.0037675991 -0.0037617132 0.02214946 0.01150042 0.010756123 -0.013761913 0.014425155 0.0017783787 0.007868231 0.002364002 -0.004023468 0.004660494 0.0065043736 0.0015239469 -0.003541322 -0.012405269 0.007750431 -0.009135539 -0.0027427615 -0.010677081 2.4673383e-05 -0.0003383794 0.0037887774 0.013792292 0.007361952 0.015138461 0.005894547 0.010152323 -0.0068831253 0.0017939281 0.003722474 0.024932735 -0.0009898223 0.007005487 -0.017755143 -0.0031179085 0.0063009057 
odo -0.013299964 0.01007607 0.009991731 0.0009963447 -0.00061439106 -0.0037427354 0.012157607 0.014290955 -0.004216621 -0.001057259 -0.010345363 -0.0073596267 -0.00078418024 0.0099347625 0.009850829 0.0011261516 0.004286047 -0.0108066825 -0.0041820253 -0.007857391 0.0034066094 0.00247798 0.0041035973 0.0046037557 0.006652914 -0.004636114 -0.011766881 -0.010575701 0.00031266297 -0.00012950707 0.011662827 -0.0065246564 0.009797087 -0.012270377 -0.009479603 0.011210496 0.006142929 -0.012261227 -0.001288201 -0.0037938352 0.0058486355 -0.0014978009 -0.010741937 0.008760732 0.009988104 -0.006932474 -0.006081624 -0.0028037652 0.011622766 0.0035370665 0.007873706 -0.010000505 0.00079327857 -0.01076369 0.0021498583 0.004652239 0.010707329 -0.0023198542 0.002804708 -0.003326775 -0.004329128 0.0107072145 0.0053068744 -0.0017351031 -0.010546632 0.0073589366 -0.0021643518 -0.0006102064 -0.011299454 -0.0019695282 -0.011265724 0.00018621799 0.003874971 0.0063252947 0.011455829 -0.0058394875 0.010595364 -0.0070955083 -0.002503022 0.009403229 0.00070351386 0.0018574423 0.0024342092 0.0094692 0.007079375 -0.009859284 0.013550635 0.002002733 0.014399744 -0.0072176154 0.016243739 -0.004767464 0.0027931402 -0.008683508 0.0058115534 -0.0018399797 0.00882803 0.0016304764 -0.004360191 0.0062133856 
piedras -0.006301669 -0.0008907768 0.0039406475 -0.0023001707 0.008409591 0.0018934908 0.002407898 0.0078149205 -0.0020416921 -0.0019395961 -0.0070556886 -0.01800716 -0.0076960754 -0.002492731 -0.0057261414 0.00023330047 0.01195135 -0.0061074537 -0.007532979 -0.015694033 0.013162192 -0.0021125525 -0.0015243855 0.004807742 -0.008951496 -0.005477318 -0.005398072 -0.008186773 -0.003570744 -0.0037523794 0.006911056 0.0021507898 -0.0017226728 -0.001191024 0.004608772 0.00027461664 -0.002223155 -0.0005396184 -0.00608732 -0.014816077 -0.00019561332 -0.00308394 -0.0035681115 0.01017269 0.006830656 -0.01199203 -0.0005505608 -0.0004920546 0.0034854345 0.010295422 -0.0036551259 -0.004867027 -0.00906583 -0.00741981 -0.010064155 -0.0008132725 -0.0029201463 -0.0003073939 -0.007514746 -0.002879007 -0.0052211923 -0.005392986 0.0028318425 -0.0036024677 -0.013582807 0.001803392 0.010436702 0.0115846535 -0.007726876 0.013358597 -0.0049463883 0.005274987 0.008615811 -0.01006638 -0.00063273235 0.0069258986 -0.0012562365 0.007936749 0.0047277776 0.0018571776 -0.006641741 0.0048453244 0.006324736 0.0037190604 0.0010077747 0.005269906 0.0051027685 -0.0043981303 0.0038766651 -0.0027153771 -0.0012411316 0.008256424 0.009418443 -0.009019705 0.013685541 -0.0033679546 0.0053814817 -0.009640969 -0.00491912 0.0063270326 
escribi -0.0121787945 0.012718699 -0.0020083326 0.006697908 0.0017242131 -0.023105657 0.0041868957 0.0318042 -0.017257707 -0.021746974 -0.009495205 -0.015387049 -0.008597971 0.014016073 0.003465845 -0.012973376 -0.001637543 -0.011565144 -0.0034756423 -0.032364216 0.007941597 -0.0060846256 0.005492336 -0.01600111 -0.0065067406 0.0129522355 -0.0209418 -0.019425174 -0.0038224016 -0.0038357293 0.005593389 -0.0003060482 0.010765591 -0.013935859 0.0049783364 0.023132348 0.014000214 -0.016955731 -0.008184855 -0.030081915 -0.003255876 -0.021695977 0.0013917865 0.0009561821 0.018345306 -0.002362112 -0.007575095 0.0023974848 0.00847153 0.02084466 0.011947307 -0.006501857 -0.008646402 -0.0061344528 -0.020292036 0.006640358 0.017444065 0.0040427754 -0.014711538 -0.0019247908 0.009412782 -0.0066609094 -0.0005753058 0.010971033 -0.015980814 0.020318089 -0.002205855 0.01571507 -0.02021932 0.015002956 -0.013394391 0.0152420495 0.015044347 -0.0030638394 0.022911644 -0.002419193 0.008022704 0.009799544 -0.014439386 0.0010814567 -0.009850743 0.00034478583 -0.014684096 0.02226123 0.001369304 -0.0075078807 0.018143745 0.01735526 0.02451967 0.004223165 0.015638942 0.011243984 0.0042211236 -0.007561089 0.0365123 0.021586178 0.012015615 -0.027137868 0.010259297 -0.0019634068 
manera -0.013256926 0.014546654 0.0051594335 0.0061646537 -0.0029220076 -0.012281892 0.0081072 0.007398076 -0.011484706 -0.0145785995 0.006520381 -0.0041497936 0.0075691734 -0.0008629286 0.011477818 -0.008887736 0.007083972 -0.008322726 0.006770208 -0.021910096 0.008118973 -0.005582831 0.015521454 -0.0024626658 -0.0072295396 -0.004402196 -0.0064631435 -0.01039303 -0.011283808 0.005785776 -0.0028137395 -0.011301357 -0.00081079185 0.00027332664 -0.004991835 0.0061775115 0.0005884177 0.00022355895 -0.006713543 -0.0016923391 0.00975666 -0.01386375 -0.011731541 0.006072392 0.0022509682 -0.009316589 -0.014200202 -0.0011003945 -0.0015401554 -0.0028013045 0.0033626866 -0.004330206 -0.005317672 0.0042264825 0.0041162213 0.00014542538 0.0026126115 -0.0029084897 -0.0013693585 -0.0009418756 0.0010049829 0.0022625392 0.0039651166 0.009101335 -0.013759163 0.02000376 0.0060496978 0.0006727604 -0.00086504826 0.0075240694 -0.01271345 0.007816236 -0.002839775 -0.008125157 0.011188705 0.0005444061 0.0067381053 -0.0071219197 -0.000295698 0.0015944534 -0.0010608209 0.0031484668 -0.012124881 0.0115729915 0.0052147117 -0.0008600962 4.905583e-05 0.009589627 0.008125092 -0.0064247055 0.0011717912 0.011844235 -0.003547396 0.00831146 0.0074433684 0.00082259066 0.0095878765 0.0004043788 -0.0062633553 0.0019948038 
dormir -0.012131139 0.004946347 0.0018964254 7.6357406e-05 -0.0034436362 -0.013075172 -0.0009803707 0.0010836357 -0.012636843 -0.014789054 -0.009921789 -0.015170094 -0.0065609766 0.0030269318 0.010646812 -0.0048006917 0.0079809 0.0034948932 0.002160314 0.00013997522 0.003164213 -0.006881408 0.013980795 -0.006865047 0.004113098 0.008545656 0.0041218353 0.0064623286 -0.004821969 -6.903483e-05 0.004940982 -0.0065318253 -0.0026679593 -0.00043598044 -0.0080386065 0.0036304444 0.0065968307 -0.0026786611 -0.0109829735 -0.0028921068 -0.0032501144 -0.0016108393 -0.005082302 0.00033611862 -0.0051119085 -0.0110974265 -0.00437775 -0.0078045526 0.004117503 -0.0036324905 0.0007757513 -0.0016920791 0.004962323 -0.0021348922 0.0041068764 0.009667549 0.008910191 0.0070848335 0.002725462 -9.46838e-05 0.004512777 -0.002375562 -0.0026587124 -0.00882513 -0.0055217026 0.010546843 -0.007926829 -0.00089268165 -0.010287599 0.013984327 -0.012106047 0.009892963 -0.0038884035 -0.000852991 -0.0038847579 0.007793076 -0.005765297 0.0085034855 -0.0045417156 -0.007427437 0.0035977298 0.0014834587 -0.0026808581 -0.0001021786 -0.0003802891 -0.0026265776 -0.0063947435 -0.0015753667 0.006117126 -0.0016458869 -0.001681814 0.0033721458 -0.008546449 -0.00050979824 0.008708125 0.010346702 -0.0054467586 -0.011842708 0.00976463 -0.002133482 
aula -0.01117191 0.015451312 0.014298124 -0.008955247 0.015298944 -0.026097538 0.0029542027 0.03431616 -0.0125507675 -0.011345255 -0.014680738 -0.027322061 0.009099463 0.013063546 0.0038320762 -0.00844332 0.0075528924 -0.00055224064 0.0047233123 -0.01884103 0.016523438 0.0061274287 0.016218277 -0.012292276 -0.007717936 0.010022608 -0.013460475 -0.008777328 -0.00020701729 -0.0051976624 0.008537307 0.0005537942 0.014651899 -0.021609295 -0.0070460746 0.008926784 0.0005102444 -0.011172623 -0.012691571 -0.012572209 -0.0069146897 -0.01199804 -0.003300096 0.0026417049 -0.0003275441 -0.0015210493 -0.0021446215 0.00089946506 0.0050491192 0.012182711 0.0029937646 -0.0058177183 0.000659662 -0.0059347204 -0.00045136758 0.008672589 0.014742958 -0.010272645 -0.004149119 -0.0050338646 0.010714561 0.008817371 0.009638649 0.007236697 -0.005340311 0.02713369 0.0053693596 0.0104823485 -0.014963695 0.015245895 -0.0034989528 0.021189595 0.0041626175 0.0033180777 0.009510358 -0.0021541265 -0.005549007 0.007478071 -0.0062217987 0.004916003 -0.009122006 -0.008026761 -0.00058062124 0.011903841 -0.013881828 0.0045950185 0.013240964 0.009343933 0.01284848 -0.0021575298 0.016117742 0.0021249147 0.011724278 0.0022118937 0.012418855 0.0024655017 0.008353526 -0.01942413 0.012508946 -0.001096587 
vez -0.07283829 0.09074118 0.06139073 0.0024220173 0.06545501 -0.17984544 0.090656914 0.27701232 -0.13709876 -0.13410103 -0.063926086 -0.1892339 0.00027237175 0.05231401 0.035233546 -0.09585221 0.04772899 -0.07625783 -0.05310963 -0.2657502 0.11109843 0.0043438007 0.116003536 -0.056893557 -0.03400629 0.030707425 -0.11684913 -0.081499055 -0.10817323 0.0029396089 0.123710945 -0.03058195 0.07271984 -0.14788857 -0.031528614 0.15470228 0.0425713 -0.11403572 -0.083083645 -0.20251557 0.011556125 -0.118921034 -0.037583653 0.03677433 0.08068209 -0.059413143 -0.09960417 -0.04003895 0.037198097 0.1119999 0.058850747 -0.12906191 -0.038295485 -0.022579933 -0.07250293 0.054217037 0.061648168 -0.034924325 -0.122238085 0.021919746 0.019118385 0.015658777 0.058440078 0.023038499 -0.14116898 0.20474575 0.03312691 0.121340364 -0.17065781 0.11609196 -0.08258613 0.124322444 0.12561077 0.0016287514 0.15361029 0.04616689 0.01579631 0.0033489135 -0.11198102 0.025841994 -0.07469993 -0.03644451 -0.08543771 0.14964353 -0.052769177 -0.01617405 0.07201245 0.09420286 0.13683291 0.017611666 0.15918343 0.03617359 0.02761675 0.0012810796 0.22939283 0.12742805 0.039570436 -0.13408825 0.02498586 -0.054399163 
bofetones -0.0031304883 -0.0022414485 0.009611202 -0.0055623567 0.0017330418 -0.0020483225 0.0047633233 0.025062097 -0.016807484 -7.141972e-05 0.0017576404 -0.017131057 -0.0057529705 -0.0060637314 0.0037442488 -0.007233985 0.0121983215 -0.013831143 0.0027048704 -0.011841799 0.0110573955 -0.0053273425 0.00011861665 -0.0076109287 -0.0019011361 0.0025235687 -0.0067654867 0.0018430208 -0.001213859 -0.0042697866 0.012864946 0.0066326144 0.0064764125 -0.0020914518 -0.0017458547 0.012411862 -0.006925494 -0.011316213 -0.010885997 -0.016490908 -0.0039019086 -0.014005789 -0.0038030702 0.012001922 0.005553924 -0.005830569 -0.010647644 -0.0031376835 -8.038894e-05 0.004608209 0.0050434778 -0.015963282 -0.0022974785 -0.0016037654 0.0010047912 0.012367131 0.012439351 -0.009552444 0.0014257744 -0.002952769 -0.00031736228 -0.003838738 0.011375015 0.005917293 -0.010529504 0.013090325 0.0020125401 0.00904955 -0.0076626204 0.0053412104 -0.0026309658 0.011897259 0.0075364923 -0.00028981204 0.008598145 -0.007103433 0.0038526405 0.0045549427 -0.0009892219 0.0065362523 -0.00022934364 -0.010680822 -0.0063210637 0.0014871063 -0.0049393335 0.0039932425 -0.0022445098 0.006792869 0.0036909136 0.0036877994 0.0074468553 -0.004793799 -0.0016720522 0.006781355 0.01919783 0.0065925443 0.009443699 -0.0040633567 -0.007842081 -0.012093379 
suyos -0.010483106 0.011525558 -0.0026778742 0.0007149749 0.01497611 -0.019757887 0.012310922 0.034099843 -0.013081076 -0.017315479 0.0027658213 -0.01869626 -0.00064662326 0.000120645636 0.004577145 -0.018677639 0.0049359747 0.00046618975 -0.01090492 -0.026746925 0.006267445 0.0004584082 0.020850305 -0.00881047 0.004057918 0.0073641585 -0.006896316 -0.0127648115 -0.00903037 -0.0019158572 0.0071534244 0.0057543362 -0.0014385676 -0.018369058 -0.0052553057 0.024861492 0.004269453 -0.0036645685 -0.006671068 -0.02065437 0.0017499082 -0.022402553 0.005874616 0.013225164 0.008139998 -0.002837008 -0.004288784 0.0009852252 0.012316475 0.01833151 0.014402439 -0.004089234 -0.006206524 -0.0019092874 -0.01355812 0.003510851 0.016488073 -0.0004455791 -0.015205654 0.006333278 0.0010933338 -0.0013704672 0.006997069 0.008317344 -0.005743257 0.018984014 -0.002708615 0.021492042 -0.011091957 0.0074001215 -0.0033830164 0.0046944185 0.004347832 -0.0017907759 0.014855826 -0.005354867 -0.006990132 -0.0075505776 -0.017053252 0.0020370856 -0.008782074 -0.008927129 -0.014428461 0.018122429 -0.009887261 -0.00021743776 -0.0010418424 0.012335712 0.0076506473 0.009255187 0.023261333 0.002968283 -0.005118512 -0.0028132033 0.028864447 0.022473536 0.012776234 -0.017329752 0.012547152 -0.010208913 
ellas -0.012581828 0.0003626705 -0.0029736948 -0.00055912015 -0.0023031638 -0.011620838 0.0059763 0.026067922 -0.008449178 -0.0081163 7.163753e-05 -0.009387809 -4.244213e-05 -0.0012676533 0.009106228 -0.0041079707 0.010450462 -0.00853746 -0.0073772194 -0.020866185 0.011639657 -0.0021985976 0.008418649 0.0033185482 -0.00039935546 0.0092487335 -0.0007804179 -0.007930796 -0.013194379 -0.00216565 0.005466651 -0.010399983 0.00467077 -0.0041806404 -0.009834165 0.015029393 0.008970885 -0.012387704 -0.004681211 -0.012190551 -0.0056679016 -0.007867366 0.00039831377 0.0127959065 -0.0009327598 0.0026572798 -0.01869753 -0.0064769257 0.008974668 -0.0002492729 0.0023453652 -0.016607802 0.0014025322 -0.00081539486 -0.0056026005 -0.0016416853 0.004156013 -0.010579539 -0.01647921 0.011071097 -0.007646905 0.0037170593 0.0026821962 -0.005874502 -0.0154919075 0.01070548 0.00779204 0.011932593 -0.018116044 0.012252577 -0.014209417 0.0114066815 0.019980982 0.0075956807 0.010723997 0.011732525 -0.0066360044 0.005632269 -0.005043703 -0.004348611 -4.989133e-05 -0.007157374 -0.0067740157 0.011637318 -0.0009245764 -0.0073219896 -0.0030336832 0.004285598 0.016940646 -0.0005576931 0.011356335 0.012923527 -0.004614579 -0.008170471 0.02606966 0.013281165 0.009663358 -0.0073925266 -0.0015798853 -0.0064444602 
cuentos -0.005763303 0.008710173 0.0010583663 0.0076516937 0.013239119 -0.023064813 0.012798597 0.03439601 -0.016737876 -0.028690921 -0.01288234 -0.034428295 -0.00657768 0.0035480438 0.013615408 -0.02172236 -0.0023651102 -0.0134506645 -0.008800223 -0.03850104 0.02155906 0.009608118 0.025172208 -0.013296702 -0.002049808 0.011600004 -0.013542145 -0.015662607 -0.011905376 -0.00060249073 0.013098982 -0.010091443 0.014638546 -0.028681872 0.0035532536 0.017904572 0.015701244 -0.020910956 -0.012757705 -0.036304086 0.0005549039 -0.026335584 -0.00030546935 0.0057555437 0.0053569553 -0.00016921927 -0.0069658644 -0.0024876231 0.010204106 0.006026419 0.00019824866 -0.012247297 -0.0038513804 0.0054922043 -0.017197922 0.004561086 0.005814595 0.0009928548 -0.023002917 -0.0046786293 -0.007355808 -0.0045548305 0.008002518 0.00921637 -0.022855243 0.02864094 0.0127436295 0.01301602 -0.0147017585 0.02057299 -0.016649965 0.024975248 0.026359182 0.0011983474 0.016896084 -0.001859283 -0.0016819022 -0.0073450296 -0.005025684 0.009627871 -0.010132613 -0.0053629265 -0.007799378 0.021829218 0.00033127435 -0.011487689 0.011798238 0.017336255 0.021374442 0.008126258 0.027206097 0.004146065 0.0008510069 0.00067481014 0.041988455 0.01920593 0.016550334 -0.014944288 0.0041318513 -0.013913732 
emociones -9.668071e-05 0.0062097358 -0.0011621576 -0.0077033765 -0.0006789572 -0.008121236 0.005308446 0.0293273 -0.015522427 -0.014924951 -0.01337211 -0.009549003 -0.009194631 -0.0032258565 -0.0021390254 0.0009421107 0.0076167667 -0.0027327433 -0.013053691 -0.014397679 0.0053487048 -0.0060348613 0.01859652 -0.011280515 -0.0069231824 0.010007454 -0.008604762 -0.00016164943 -0.007843507 -0.0061397622 0.008056809 0.0006250554 -0.002703467 -0.015279257 -0.004563936 0.012348883 -0.0058404184 -0.009886424 -0.011179288 -0.020530654 0.006095243 -0.015572312 -0.0014147487 0.013150969 0.009463702 0.004180559 -0.008865936 -0.00057206786 0.0019573828 0.008333119 0.006928915 -0.0074482393 -0.0072972374 -0.008891684 0.0018645887 0.0056087035 0.0007335582 -0.004643201 -0.010975584 0.011718069 0.005445264 0.0072310646 0.0074583846 -0.0066323276 -0.018871855 0.018604744 0.0047447314 0.014641045 -0.00501327 0.013701985 -0.0036490485 0.004919096 0.0056377365 0.009322669 0.014988947 -0.0025557736 -0.0018953653 0.007973359 -0.002967521 0.0063679838 0.0017854267 -0.009378253 -0.0026213191 0.02021644 -0.009592481 -0.010487091 -0.0009023938 0.015854154 0.0027423135 0.0017967966 0.012362403 0.0074360473 0.006229284 -0.0018097765 0.019485261 0.01791301 0.00037226593 -0.019317871 -0.00015368375 -0.007953114 
sabrn -0.0014663517 -0.001718576 -0.0012258962 0.0043523083 0.011274041 -0.004585308 0.013226086 0.019254597 -0.008108505 -0.011869204 0.00066946074 -0.0063057537 0.0036478026 -0.0059756325 -0.0030007497 -0.011383241 0.0028396482 -0.0028810976 -0.008035797 -0.019828051 0.00679361 -0.008922585 -0.004300069 -0.007867306 -0.0025527675 -0.007414475 -0.012112149 -0.0042286078 -0.0031232056 -0.0042554107 0.00074512966 0.0008562963 0.00228103 0.000789173 0.008243761 0.012865562 -0.0007694033 0.00089325884 0.005259336 -0.0056811487 0.003763918 0.0027076956 -0.0028640586 -0.0058958447 -0.0021777188 -0.012350976 -0.0034773133 -0.006305386 0.000743142 0.013856969 0.0050287517 -0.0129072955 0.005376484 -0.0011735703 0.0060610175 0.00577669 0.0012135683 0.0019966096 -0.011783281 -0.003043241 0.0053194365 -0.00024596302 0.00524535 -0.0013322443 -0.010476146 0.009476062 0.0003896167 0.009818829 -0.0008345463 0.013576749 -0.010006686 0.0036426913 0.008164867 -0.0012169551 -0.0018234765 -0.00061516365 -0.0034594121 0.0035863367 -0.005708146 0.010164656 -0.013140968 0.006829634 -0.00711381 0.016542133 0.00040295243 -0.010900336 0.012190584 0.00095393416 -0.0028748026 0.003043141 0.00856472 -0.004438367 0.00092876534 0.009298902 0.0055736685 0.0043870686 0.0054112067 0.0025449852 -0.007718195 -0.002153603 
quisiramos -0.0024256404 -0.00037209518 -0.0029230472 0.00893334 0.0099911885 -0.014301535 0.004387065 0.014435388 -0.009223492 -0.004931207 0.005185593 -0.012971355 -0.008081506 0.006469141 0.0011422081 -0.008822337 0.0039670817 0.000754019 -0.0065630837 -0.013836599 0.008642497 -0.005677352 0.009662775 -0.002762402 0.005162374 0.006386999 -0.004309882 0.00050615217 -0.0089488 -0.0049284343 0.003814199 -0.0045103393 -0.00011624192 -0.004549837 0.006804069 0.008179458 0.0039678277 0.0011827874 0.0065573473 -0.00082500605 -0.004541832 -0.007899392 -0.004638007 0.007535358 0.008995711 -0.007688316 -0.0071719345 -0.006965093 0.0020187302 0.013538136 -0.0061520594 -0.0010193984 -0.0065450664 0.006841292 0.0044103977 0.008633664 -0.0062316023 -0.0075715333 -0.00084094814 0.0019186597 0.007506226 -0.0057992786 0.008316465 0.0011723874 0.0012132168 0.007871843 0.0065045683 -0.0029618896 -0.009300875 -0.0058848537 0.0031988558 0.008841945 0.008334547 -0.008639852 0.004167917 -0.0066817487 -0.0063398504 0.0097186025 -0.0020543921 -0.0017454464 0.0013039296 0.0038801394 -0.0024444817 0.0041835993 -0.0050902497 -0.009306189 0.012104503 0.006497721 0.0018089626 0.003995992 0.007585288 0.007812603 0.0011098186 -0.0058518318 0.0020235034 0.0035584825 0.009062929 -0.0027885218 0.0065518804 0.0028021142 
cuidarla -0.0013808047 0.007063876 0.006461293 -0.002986593 0.0039722016 -0.00299916 0.002627612 0.014345959 -0.0123052895 0.004965085 -0.006079867 -0.0002156223 0.0061929836 0.0022746902 -0.0077728364 -0.0024106242 0.008912975 0.007050578 -0.0009638568 -0.0047282386 -0.00696829 -0.0019254375 0.0074734217 0.0021515642 -0.01006597 -0.008180154 0.00544631 -0.0015799283 -0.009399735 -0.0018065113 0.0015926047 -0.0060593807 0.0102351485 -0.0088594705 0.002369121 -0.00083990215 0.0108107915 -0.007128426 -0.010266762 -0.0019496871 -0.0027341596 -0.0012648063 -0.008756528 0.0028820557 -0.0029094294 -0.009031734 -0.00027389062 -0.0059110625 0.0015476018 -0.0009920137 0.00019509485 -0.010803943 -0.005054002 -0.01025955 -0.004087733 0.0074447202 0.0014138279 0.0068672164 -0.0069665397 0.010207195 0.00779995 0.00116577 -0.0059253904 0.0021630777 0.0051326654 0.014023332 0.0039649475 0.0010446601 -0.012011923 0.011664966 -0.010485281 0.010241815 0.0072489628 -0.0036456583 0.0017528054 0.0041819206 0.0045657083 0.0010502012 -0.011720815 0.005881515 -0.0024295857 -0.010643505 0.004819056 -0.005660798 -0.0058396067 0.008070839 0.0064299367 0.00260572 0.0031273102 0.0073393383 0.0056636776 -0.0028520622 0.0095294565 -0.0059820334 0.013871177 0.005772529 0.004752099 -0.00015544219 0.0054232646 -0.007781559 
pedazo -0.0031412009 0.0016385964 -0.0059401905 -0.0035583877 0.007610583 0.0008293367 0.009215852 0.0067818696 -0.0040853135 -0.010284038 -0.003984218 0.0036972663 0.001311386 0.004688991 0.006972495 -0.0031605635 0.0062126387 -0.007001225 0.005374838 -0.016177393 0.009941365 0.007852042 0.0049261595 -0.0012049959 -0.0028350935 -0.0049534026 -0.013196144 0.006552049 0.0025451975 0.008270419 0.013092569 -0.0046446756 -0.0042744814 -0.0021281354 -0.005255691 0.0048382175 0.005989239 -0.002981251 -0.0072936164 -0.015655624 -0.0037321737 -0.0048913243 0.0057191574 0.008885392 0.008870243 -0.0074504134 -0.00946718 -0.009383054 0.009510977 0.00047654423 0.0095463395 -0.011763793 -0.004841885 -0.001968016 -0.005150552 -0.004118775 -0.0008848442 -0.010441872 -0.0002545736 -0.003901057 -0.0004072088 0.004834636 -0.0018939496 0.00938871 -0.00064497744 9.758613e-05 0.0059106834 0.009906511 -0.014217257 0.0053494647 0.0069352877 0.0041464088 0.008566733 -0.0072209258 0.0026784732 0.010056574 -0.0006440684 0.009592998 0.002556916 -0.008232184 -0.0070583643 0.0024102926 0.0010821923 0.005671438 0.0032550103 0.008675317 0.0011427448 0.0006344289 0.0012113326 -0.003093917 -0.0019654885 0.009584624 -0.0010705593 -0.0037597904 0.011248738 -0.0056923646 0.007407749 -0.008212914 0.0047415695 -0.00012893931 
viene -0.01924844 0.016018828 0.020066071 0.002209658 0.023086354 -0.033878673 0.019115567 0.061981715 -0.028420515 -0.029160818 -0.008728014 -0.04978413 -0.011703837 -0.0006383356 -0.00055066805 -0.027649036 0.002271097 -0.017835606 -0.01462274 -0.055145893 0.029526921 0.0007112666 0.028477026 -0.0086448165 -0.001422355 0.016626514 -0.020515574 -0.019354794 -0.020284832 0.002140185 0.019184755 -0.0076792766 0.019763354 -0.040642004 -0.0016151632 0.034125175 0.012019901 -0.030386796 -0.023932237 -0.052750647 0.0022877299 -0.03296897 -0.0087306965 0.012855154 0.012833249 -0.014638472 -0.032330435 -0.0052352 0.02022088 0.01837006 0.012556112 -0.037980076 -0.0023624261 -0.009840571 -0.01783667 0.009079268 0.011389964 -0.016454076 -0.018517181 0.009566134 0.0054861656 0.002598893 0.0055458415 0.0013895808 -0.027625322 0.044534985 0.015366796 0.03432739 -0.03336562 0.028624678 -0.0134084085 0.033775393 0.028167244 0.004224291 0.03192651 0.003946499 -0.003788089 -0.0011837872 -0.018777287 -0.00075892656 -0.014223519 -0.011921218 -0.02455937 0.026727565 -0.001481946 9.904987e-05 0.016892172 0.019575693 0.036750685 0.0063688294 0.041463226 0.011386409 -0.001303963 -0.011481472 0.057467476 0.03249268 0.016083695 -0.03144262 0.011124033 -0.01707695 
brillabas -0.0037757955 0.014517721 0.007004726 0.009269867 -0.0059757275 -0.013084258 0.0067839962 0.021101417 -0.012275682 -0.009421503 -0.0020889484 -0.0070757093 -0.004546143 -0.0064367573 0.004256344 -0.0062508145 -0.0011447434 -0.010150632 -0.006428391 -0.006405559 0.0076177204 0.009993044 0.00033538367 0.004637228 -0.009943695 -0.0063876933 -0.0015866917 0.0043910006 -0.014484121 0.003576915 0.003822652 -0.0042973603 -0.005554418 -0.008579234 -0.010581105 0.0030565725 -0.007570987 -0.00076638494 -0.005157226 -0.015992602 0.0051762946 7.794061e-05 0.0044967663 -0.004449242 0.009082135 0.00529074 -0.003823351 -0.0073308 0.0119149415 0.009547467 -0.0015305458 -0.015327896 0.0065169553 -0.0029125821 0.0038554387 -0.000680076 0.007813084 0.00742546 -0.012514069 -0.004901715 -0.0049370374 0.0077543757 -0.00430937 0.0040261038 0.00023379762 0.009326724 -0.0031874748 0.014777515 -0.0073039597 0.0020395499 0.0016472044 0.0162063 0.013950022 -0.0022444287 0.0095364135 0.0010366096 0.009544342 0.0023745615 -0.008877165 -0.0059330272 -0.008068135 -0.0091735 -0.011032109 0.012909581 0.006375796 -0.010115905 0.013669519 0.011444163 0.0046944167 -0.0049443394 0.0052618636 0.010641561 0.007286889 0.005560479 0.0091215465 0.0037324722 0.00602417 -0.009778838 0.0054713595 0.0019627588 
Venecia -0.010115334 0.009957149 0.007581919 -0.007514377 -0.0044819517 -0.017583756 0.007410146 0.016128225 -0.013361661 -0.002775626 -0.006883184 -0.000751293 -0.0055187386 -0.0059741978 -0.004448419 0.002479673 0.01221286 0.005506212 0.0024113776 -0.017740639 0.0052194824 -0.003027307 0.0050197393 3.149466e-05 0.0012726486 0.00010055591 -0.006806507 -0.013431693 -0.014234176 0.0017289415 0.0029677171 0.0077495985 0.0063429233 0.00012716276 0.0015292205 -0.0004242919 -9.1752554e-05 -0.0035298034 -0.00950699 -0.013021472 0.0070475647 0.0014696878 -0.01011772 0.002751396 0.008056012 -0.008029206 -0.0052235313 -0.009894331 0.011876752 -0.0038341233 0.004153492 -0.015637482 -0.009254863 0.004336137 -0.002675999 -0.0047435863 0.013337768 -0.0011647786 -0.012793785 -0.0050344216 -0.00089567294 -0.0033311634 0.008761675 -0.0004131894 -0.009960995 0.006213938 -0.0009862512 0.0020753432 -0.0055603534 0.0053484654 -0.006340178 0.0038945763 0.0040149475 -0.007467265 -0.0009983889 0.004678341 0.009146565 0.010573965 -0.008575563 0.00018517561 -0.0037243092 -0.008338213 -0.0011089494 0.009047587 0.0059872284 -0.003994815 0.008475371 0.012876589 0.0077296807 -9.71692e-05 0.009315474 0.009570161 0.009515728 -0.010087628 0.021608533 -0.0012787286 0.0036992878 -0.016001647 -0.005948154 -0.0023742078 
Escondida -0.0055231703 0.011636195 0.0076845516 0.009338272 -0.005003909 0.0008830512 0.013926429 0.011141762 -0.0018173215 -0.0009044318 -0.010294374 -0.005655739 0.007865799 0.0025323757 -0.0026036096 -0.012419407 -0.0037869706 -0.008505283 0.0013519919 -0.007855564 0.0052141757 -0.008747971 0.0011959 0.0010113851 -0.0018864664 -0.0012235397 -0.011981405 -0.007463927 0.0051935846 0.0036391213 0.0057519143 -8.241509e-05 -0.0018727203 -0.003600908 0.002471124 -0.0026828186 -0.0023357158 -0.007302418 -0.0014210047 0.00012353627 0.0008181477 0.00451207 0.0019658615 -0.004145191 -0.0043577794 -0.0041398564 -0.014174164 -0.0033702317 0.008677982 0.00815702 0.0031554603 -0.0038473185 -0.00026602217 0.0028463444 0.003791994 0.0031916357 -0.0066258395 0.004183896 -0.013218533 -0.0036552334 -0.005963151 0.009693716 0.00012674979 -7.229021e-05 -0.0027287633 0.0155362245 -0.008493773 0.0102848625 -0.016869657 0.010444446 0.00032577987 0.002831958 0.010359946 -0.0023891502 0.0148871215 -0.00061376835 0.008911259 0.009347011 0.0009618193 0.0070756148 -0.0101270545 -0.00841075 -0.009845292 0.006568932 0.007063513 -0.00838092 -0.00429052 0.0089391805 0.0065188915 -0.0027250957 0.001056599 -0.0011221891 0.0041734963 -0.008278263 0.009127956 0.010570482 0.010823543 0.0014603004 0.0051967353 0.00451305 
manotazo -0.0086754495 0.002664027 -0.0068734135 0.0068376763 0.012174482 -0.0014958519 0.010051572 0.016149199 -0.009023788 -0.00021352056 -0.0117034875 -0.010805945 0.0045561013 -0.0068212324 0.004678492 -0.014400761 -0.0046823025 -0.00850096 -0.00012733736 -0.0038279444 -0.0006820904 0.00534134 0.010188883 -0.0039402954 0.008534311 -0.006560539 -0.0041463366 -0.012691265 -0.005228226 0.007846462 -0.0014830136 0.003911617 -0.006951792 -0.014186999 0.0046740226 0.0163381 0.0020401126 -0.002479743 -0.008238732 -0.0064303135 -0.0027278387 -0.007338534 0.0026784854 -0.0056546596 0.0022516854 0.006494785 -0.010078443 -0.0028798722 -0.002672365 0.0015068598 -0.00015518795 -0.015047552 -0.0009182496 0.009069249 -0.0061727907 -0.00032477657 0.00024202933 -0.0037659223 0.0038266683 0.006481209 0.009628124 0.006974371 0.0040170504 0.004880762 -0.00787821 0.017027223 0.0032109846 0.006649341 -0.00041184024 0.006745003 -0.003671821 0.015031298 0.0105599025 0.0028794247 0.009338064 -0.0019848598 -0.006320606 0.0025838611 0.0038624573 0.008305388 0.0013184339 0.007863007 0.0038848456 0.01527389 -0.0022314393 -0.0043513286 0.0059619765 -0.005088012 -0.002874883 0.010523463 0.01655289 -0.0028440203 0.010359765 -0.00083524367 0.01216649 0.010589581 0.008804796 -0.00560188 0.0035079932 0.004418844 
rezos 0.00097338815 0.010804965 -0.0040266705 0.006478074 0.010668757 0.006000356 -0.002246592 0.0114872735 0.0024126477 0.0068668835 -0.0062875864 -0.0056480328 0.0038651435 -0.008936906 -0.009263515 -0.006766194 -0.0037651926 0.0021764324 0.0029877457 -0.0014282896 0.006201357 0.0043992177 0.006105315 -0.00094498124 0.005281136 0.0060287192 -0.009973596 -0.0043952465 -0.0043355757 0.0069985692 -0.006549836 -0.0061426037 0.0017987649 -0.003182146 0.005297625 0.010135712 0.00901563 0.004085875 -0.00815884 -0.010756122 -0.004500681 -0.0088664 0.0021909152 0.005137699 -0.004797298 -0.0022530777 0.0031141352 -0.005651597 -0.006206917 0.0054565906 -0.0025523487 -0.0089389905 -0.0030290913 -0.00567869 -0.00065226236 0.006646305 0.004907135 0.0059615155 0.0049922396 -0.00724037 -0.00822971 0.008807647 0.009976055 0.0052819215 -0.0034360136 0.007966888 0.002971346 -0.003154255 0.001659638 0.0030268328 0.0026456239 -0.002524054 0.002197244 -0.0033901653 -0.0022061048 7.8137295e-05 -0.008450172 -0.0012236561 0.0018123749 -0.0052616466 -0.0059537236 -0.0056904336 0.0064031533 0.003060186 -0.0065181456 -0.009211973 -0.0034745298 0.0109337885 -0.005566668 -0.0015478294 0.0005454307 0.0042834445 -0.0048031774 0.00033509996 0.00028302148 -0.005452667 0.0021632358 0.005700971 0.00596521 -0.008907638 
Estoy -0.022120763 0.01717714 0.018341558 -0.004561386 0.0110071935 -0.033488993 0.026284765 0.07036252 -0.02130511 -0.025844302 -0.006450691 -0.044200778 -0.011353661 0.000971475 0.013828181 -0.029671557 0.016706187 -0.02249256 -0.017146755 -0.06731225 0.020450419 0.006218148 0.034682423 -0.0070114126 -0.0027801362 0.0058655147 -0.018980015 -0.019803032 -0.013715437 0.008857117 0.036930874 -0.002094583 0.018608201 -0.02582325 -0.009079411 0.03481501 0.014125827 -0.025520677 -0.0118897045 -0.0543103 0.003962101 -0.030201048 0.0026769647 0.0111688785 0.023230426 -0.010719153 -0.014654517 -0.01753159 0.017742744 0.028557643 0.022980738 -0.025191415 -0.010420927 -0.006548691 -0.015164977 0.007561837 0.010021719 -0.011437114 -0.023588356 0.0040078457 0.0058993683 0.0010907404 0.020611346 0.001840447 -0.031522103 0.050073434 0.0011846261 0.02949733 -0.047991425 0.019462034 -0.013639691 0.034968708 0.033835664 -0.008108179 0.04416465 0.00088750804 0.007929081 0.0016971155 -0.018280849 0.005575989 -0.023841318 -0.00011674522 -0.011677111 0.042509466 -0.015338627 0.0018604099 0.01247636 0.023617553 0.03395339 0.012749231 0.034506567 0.010103774 0.01687132 -0.00985336 0.05713516 0.029813748 0.01802098 -0.02844622 0.0008993297 -0.010936012 
llorando -0.0058212103 0.011250424 0.0051280856 -0.0032966004 0.018702948 -0.02830662 0.0196661 0.04835523 -0.027608132 -0.0131580755 -0.018046673 -0.037999738 -0.0017961742 0.014875083 -0.0025083744 -0.025019784 0.014173029 -0.004263618 -0.015767034 -0.044885516 0.009725632 0.00039903197 0.013890353 -0.0042024627 -0.012160644 0.0022593804 -0.022878284 -0.023265505 -0.024326283 0.0040037967 0.01900541 0.0023071715 0.011127508 -0.019561484 -0.0012204355 0.026226727 0.014160715 -0.022381522 -0.01750004 -0.028214457 0.0018640389 -0.017704258 -0.013474719 0.0079554515 0.022628263 -0.00986096 -0.011501989 -0.017690767 0.013184946 0.01532387 0.014101842 -0.016608538 -0.0012634385 -0.008078075 -0.023496794 0.008000154 0.013489303 -0.010490344 -0.027940765 0.0055447877 0.0001910687 0.005272363 0.01764499 0.0060641286 -0.032917365 0.044417888 -4.1859086e-05 0.01749024 -0.030990781 0.013329344 -0.0032242634 0.013721301 0.020481167 0.007863306 0.035003792 0.011829398 0.009312567 0.0032207102 -0.009155087 0.0021934719 -0.0054899277 -0.007326137 -0.011332998 0.016003754 -0.0025471582 -0.004344092 0.013955331 0.020534752 0.028154012 0.0059031597 0.021325363 0.0069686896 0.008872693 -0.0046600928 0.03217091 0.019791152 0.00183792 -0.032891646 0.005167949 -0.01711411 
blanco -0.014200976 0.0067616887 0.010869668 -0.009174986 0.012774274 -0.02174094 0.0129548535 0.04932212 -0.011683291 -0.025678353 -0.014146943 -0.029753266 0.0069220536 0.016221767 -0.0047653397 -0.010916825 0.0139344325 -0.01736789 -0.006702384 -0.03845788 0.017683081 0.0056096283 0.011855476 -0.015354746 0.001645045 -0.00022565259 -0.020241003 -0.015957363 -0.02364319 0.008074292 0.014088632 -0.008398921 0.01288892 -0.017397618 -0.0044340356 0.022903891 0.0018392783 -0.010299779 -0.0159111 -0.029844513 0.009848341 -0.012450789 -0.014581473 0.014240289 0.022286795 -0.0061237174 -0.021541351 -0.0015319905 0.0019810388 0.009039171 0.005701699 -0.024053564 0.0049816146 0.0010628777 -0.022532295 0.0010497024 0.0010325054 -0.005749628 -0.023747748 -0.00021124975 0.009956844 0.0046724756 0.0094724605 -0.0020231558 -0.02830445 0.033353236 0.008815967 0.027724471 -0.031654377 0.02475748 -0.0038095582 0.022093676 0.026889049 -0.0052973307 0.029774817 0.0014967318 0.0013210748 -0.0017073024 -0.025282675 0.0110373655 -0.022150856 0.0035945282 -0.011794974 0.0297219 -0.005755208 0.0068449927 0.019696953 0.013876442 0.025266463 0.0023529006 0.027310068 0.0002805937 0.01140448 0.00028578992 0.030631239 0.027978403 -0.00082200463 -0.016870767 -0.0019348912 -0.0008472871 
Sabe 0.0008678819 6.8876296e-05 -0.004329566 0.0032110175 0.010655002 -0.012836039 0.008921421 0.004024774 -0.007455793 -0.0072539384 0.0012560916 0.0005106197 -0.0019314617 0.010154301 -0.008115093 -0.003658815 0.0028443153 0.002045111 0.00045382278 -0.0024414824 0.012259268 -0.0046839095 0.0063201776 -0.01131289 0.007400313 -0.004254777 0.0048923674 0.006624657 -0.0070314654 -0.002118107 -0.0034358115 -0.003240061 0.00472143 -0.014180923 -0.0019092252 0.006281318 -0.008206906 0.0021479863 -0.01256392 0.0023618084 -0.00028004413 -0.005358955 -0.0011813114 0.0071105706 -0.0010598009 0.0031795115 0.0020737632 -0.0071273753 0.011205174 -0.00615067 0.0018790177 -0.0031574997 -0.002878767 -0.0021768026 -0.0031793723 -0.0027748747 0.0001872083 -0.008104053 -0.004077782 0.0015539222 0.005304636 0.006519781 -0.000115176255 -0.00017195455 -0.00013948262 0.008638883 -0.0044538626 -0.005019384 -0.008354987 0.0073739737 -0.0017062394 0.01297264 0.0069861887 0.0071686856 0.010053555 0.0062749395 0.0010439723 0.0044848025 -0.010663439 -0.004812593 -0.012264774 -0.0070038475 -0.006924328 0.0046730153 -0.0036466082 0.007205548 0.00302226 -0.00033429702 0.014837983 0.0072448053 0.012737603 -0.0084653 -0.0064622597 -0.010052504 0.015483036 -0.003824034 -0.00035153827 -0.0051783463 -0.0014987987 -0.008065959 
recuerdo -0.0017620949 0.004725203 0.0064820247 0.0036052226 0.01069794 -0.015615856 0.0060111894 0.020486735 -0.008863283 -0.0048699104 0.0019993235 -0.009338481 0.0073785004 0.011247827 -0.0030570338 1.4072313e-05 0.006116518 -0.008455111 -0.008758841 -0.017935358 0.0017240088 0.0014585669 0.0146852825 -0.007872374 -0.0076149753 -0.0007212519 0.0004559517 -0.0076986314 -0.0038062432 0.0072910776 0.0031269772 -0.0011826619 0.002518084 -0.01077404 -0.003923055 0.003939496 -0.0065204767 -0.018468019 -0.0023178135 -0.018265227 -0.0072731753 -0.01891587 -0.0039226743 0.008732863 0.013056109 -0.0045403712 -0.008357713 0.005403897 0.005934583 0.011848074 0.0035130172 -0.0037068913 -0.007677592 -0.009379668 -0.005560523 0.008164526 -0.004005063 -0.012802833 -0.015723338 -0.006295143 -0.006576505 -0.0003962302 0.010636227 -0.0017548094 -0.015644513 0.0070942556 -0.0054732054 0.015019614 -0.019290444 -0.00070486916 -0.0008703186 0.005544798 0.009117855 -0.007846459 0.0033036096 -0.002838286 -0.0069354665 -0.000253579 -0.012098039 -0.00036738298 -0.01618143 -0.0039849724 0.000462308 0.0058733956 -0.010270586 -0.009648435 0.0054210364 0.011353773 0.0042661554 0.00840416 0.0114248665 0.008533452 -0.006122821 0.006497836 0.016380718 0.015605772 -0.005914019 -0.013546916 0.00093376555 -0.009541485 
Pareca -0.0016530908 0.0061273174 -0.002889688 -0.0018715772 0.009166411 -0.016460361 0.004779594 0.026162386 -0.021772109 -0.010657292 -0.0027354467 -0.02683684 0.0004923154 0.013798401 0.007042286 -0.0045360066 0.00537037 -0.0025753097 -0.013540731 -0.036899842 0.01034001 -0.006737802 0.0136324745 0.0011205182 -0.0021412135 0.004970436 -0.016222851 -0.01341234 -0.016297366 0.01037655 0.007828222 -0.0038194016 0.009983109 -0.014249122 -0.0050611133 0.025972635 -0.0010661292 -0.014861328 -0.0015209282 -0.03011677 -0.008093226 -0.011030367 -0.0041695996 -0.0018856677 0.0066244793 -0.0040319776 -0.015756449 -0.012410236 0.0023045233 0.008080164 -0.002780598 -0.0127250785 -0.00856311 -0.008118536 -0.010072904 0.0045767063 0.001744299 0.0017359401 -0.010640368 0.0067050336 0.0055443915 -0.002221736 -0.0006573359 -0.0016143065 -0.009006884 0.015398859 -0.002814245 0.010289076 -0.021132931 0.008645742 -0.002503865 0.014526567 0.005470151 0.0005170579 0.016682377 -0.0031046616 -0.0023589458 -0.0084318975 -0.01483107 -0.0045756786 -0.014440736 -0.0072584925 -0.0056177713 0.015585219 -0.0056206016 -0.008213089 0.016136723 0.0034241755 0.009378909 0.0019467305 0.02500134 -0.0023339698 0.002484634 -0.0011174857 0.022553772 0.020237481 0.0038768463 -0.0068464167 0.0002640811 -0.0061305705 
fiera -0.010291101 0.007829332 0.011502861 -0.0006167449 0.006689761 -0.015637705 0.010941944 0.014679302 -0.018353518 -0.014536326 -0.0033788122 -0.013712677 -0.010036481 0.007302783 0.002453363 -0.0037765256 0.0050134906 0.0005049543 -0.00891555 -0.010408563 0.0128019415 -0.0062364205 0.014814801 -0.01239556 0.005766663 0.0031226075 0.0008452771 -0.010552742 -0.010109395 0.005826594 0.015104079 -0.004815641 0.000156362 -0.01796626 0.0050192745 0.004758218 0.00023751412 -0.013371657 -0.0005271286 -0.014555381 -0.008563068 0.00038905605 0.0062165186 -0.0033399318 0.00950719 -0.0035852722 -0.0048766844 -0.007836718 -0.0031310956 -0.0012728549 0.0053208554 0.00037056432 -0.007396855 -0.008703646 0.0021871426 0.004346918 0.0038334988 -0.010743072 -0.0042722803 0.002735711 0.005129971 0.0081968885 0.01122755 0.009074528 -0.007596964 0.017710626 0.0014358187 0.0054875505 -0.00520727 0.016318927 -0.011234763 0.00052884466 -0.0015635128 -0.008483915 0.019573228 0.008873179 -0.0024851006 0.0054651997 -0.014256388 0.0031678288 -0.014345893 0.0013377859 -0.0009905256 0.00938507 0.00589687 -0.0043150065 0.009698092 0.0022122378 0.0018818113 -0.0066098846 0.005705548 0.0033337248 0.0033232106 -0.0021321913 0.010432689 0.016620163 -0.0016341048 -0.015260289 -0.0061481786 -0.009529607 
A -0.06378132 0.06958201 0.04249896 0.002941954 0.049922865 -0.16943234 0.098618574 0.27290633 -0.13009116 -0.11846301 -0.046565313 -0.17239556 -0.011542361 0.04900985 0.017555358 -0.09616458 0.048960768 -0.081769526 -0.057660967 -0.2373367 0.10596441 0.0073675695 0.10069388 -0.04607271 -0.025832156 0.02074996 -0.096665405 -0.08745563 -0.09068098 0.014685212 0.11884544 -0.02408665 0.07144491 -0.14925054 -0.025072984 0.14841372 0.03888624 -0.106289305 -0.06747282 -0.196433 0.018830037 -0.11840154 -0.028808849 0.043663878 0.071382366 -0.05779311 -0.09681598 -0.036184844 0.047184236 0.09632008 0.04864264 -0.12252937 -0.018716466 -0.025071846 -0.0664526 0.047407072 0.06418916 -0.025687324 -0.09775808 0.03744395 0.023290277 0.002945657 0.06155994 0.0032151637 -0.14657468 0.18790238 0.03072123 0.11783578 -0.16835766 0.097808674 -0.07310931 0.11413978 0.11542206 0.00076222775 0.14764805 0.03226944 0.01599139 0.009267196 -0.101652734 0.0320383 -0.06868715 -0.020757135 -0.08302997 0.1262415 -0.05115391 -0.022828603 0.06547409 0.08874549 0.12991603 0.027999425 0.14660865 0.038922135 0.041107535 -0.0015884631 0.21831322 0.105288595 0.04421108 -0.12428291 0.034246553 -0.04746793 
Vine -0.0013809581 0.009266619 -0.0041454937 -0.0034353393 -0.00074294454 -0.012809604 0.010212083 0.025361821 -0.010669271 0.0008651757 -0.00218585 -0.011406516 0.0069648568 0.0037696462 0.004485753 0.004198452 -0.0037601548 -0.010509288 -0.0029621685 -0.005863357 0.00122413 0.004143486 0.008325625 -0.007987659 -0.005156844 0.01084496 -0.014250663 -0.0062126378 -0.0034313696 0.005956158 0.007786302 -0.0037566032 0.0018930478 -0.007891741 -0.0064598336 0.0074272333 -0.006617832 -0.0009230784 -0.013557589 -0.013378689 -0.00076949404 -0.009307235 -0.0035268727 -0.0034632601 0.0075326883 -0.008523044 -0.01146744 -0.010623908 -0.0055771563 0.00581846 0.00086180115 0.0017738503 0.004902734 -0.010343561 -0.010141529 0.0070896633 0.009898448 0.0072044386 0.00096685824 -0.006799447 0.0013992105 0.008618073 0.010882715 -0.0035977578 -0.009872141 0.0027485033 -0.00024197344 0.014969347 -0.009178349 -0.002912358 -0.010913145 -0.0027821925 0.0076558725 0.005210873 0.014437433 0.0075456183 0.010486457 -0.0051348205 -0.0143059185 0.003645064 0.0020856024 -0.010744506 0.0034685933 0.0057504 -0.004569353 -0.0038049514 -0.0062552905 -0.0020425604 0.007559402 0.004099204 0.00088649546 0.009843971 -0.007103423 -0.0007517731 0.010724621 0.00038203632 0.0023978357 -0.0018380343 -0.006940525 0.002724384 
callada 0.0030898943 0.0062943753 0.013972911 0.0072201462 0.009804228 -0.0032389255 0.008903232 0.0189817 -0.0015472341 -0.002614309 -0.004891193 -0.01898078 0.0036631336 -0.0028631848 0.0104052 0.0003160388 0.004201403 -0.0073718945 -0.007777081 -0.025295405 0.014441356 0.0016193588 0.0054206345 -0.0023801487 -0.00015862436 0.010625186 0.0009764248 0.001730451 -0.0117557 -0.0077824234 0.0044940496 -0.005239022 0.0016257575 -0.01127579 0.0016608505 0.018668296 0.006240571 -0.004047455 -0.0110231945 -0.0084665865 0.009743125 -0.0010949358 0.002210872 0.001505627 0.0011265489 -0.008018616 -0.0050778682 -0.0021645548 0.008588391 0.0023887176 0.010778158 0.00039744712 -0.002859359 -0.0007347485 0.003222833 0.0094881235 -0.0002794061 0.00022578836 -0.0028093136 0.01209378 0.007584507 -0.008834291 -0.0014632319 -0.0048716613 -0.004028443 0.019142278 -0.002580387 0.008396234 -0.013588146 0.008211039 -0.001483373 0.016248375 0.004348348 0.0061235772 0.0076221204 -0.00062362204 0.0074838125 0.005852793 -0.005844168 0.006195477 0.0015959183 -0.0026493627 -0.010089699 0.019613627 0.0019211129 -0.004489835 0.008854117 -0.0021539407 0.017152123 -0.0006617225 0.015906243 0.010969575 0.0029724524 -0.0072818324 0.019371428 0.012854046 0.011306366 -0.004579125 -0.0016740044 0.0021027518 
mazorcas -0.0025176248 0.006623267 0.0032096633 -0.008586495 -0.0014861544 -0.009666798 0.011985099 0.0023400115 0.00044170005 -0.006261628 -0.00461678 -0.0054676365 0.0018675074 -0.0043847007 -0.006010019 -0.00492884 0.00014399645 0.0063587422 0.00023898475 -0.013331604 0.0032007215 -0.00679616 0.0013346242 -0.0115807755 -0.007583693 -0.007043169 -0.009732757 -0.012325206 -0.004321242 0.010458075 0.01426412 -0.0109241875 -0.003973969 -0.0010738616 -0.0007910242 6.5591914e-05 0.011245782 0.0035526587 -0.0120857395 0.00012775145 0.001729683 0.0008925047 0.0047733732 -0.003307749 -0.003546819 -0.0045985775 -0.0034771503 -0.009946769 -0.0024356337 0.013786792 0.009488832 0.0019039148 0.002357436 -0.0075458456 0.004794321 0.011983892 0.0037720432 -0.008908932 -0.014468737 -0.0021726508 -0.0090963105 -0.0022088096 0.00034615432 0.010507153 -0.010251925 0.015509263 0.010392125 0.009003356 -0.0071271546 -0.0012533213 -0.009227963 -0.00062187715 -0.003181004 -0.004096899 0.010804696 -0.0066961986 0.0037395593 -0.0006724059 -0.0019472151 0.006723659 -0.0124505535 -0.010210145 -0.0030596242 0.004890628 0.0070816325 -0.0025101062 -0.003464312 0.0109958 0.010433251 -0.0037689607 -0.0016088454 0.007760589 0.0043392726 -0.002007803 0.019403247 -0.004015816 0.0032013152 -0.0033099027 0.009591756 0.0042971186 
Salgo -0.0058931694 0.010206994 0.008961423 -0.001856992 0.0057279267 -0.014622778 0.0058216844 0.021662908 -0.008723277 0.002539154 -0.003638496 -0.013371263 0.0056417473 -0.008058977 0.00649717 0.0030818928 -0.005971879 -0.0042105126 -0.004447226 -0.010217652 -0.003725581 0.00779818 0.012524255 0.0074808463 0.0023614445 0.009774581 -0.009642491 -0.0031684083 -0.012488796 -0.008654891 0.0076439166 -0.00872104 -0.00018466443 -0.0023818214 -0.0027706998 0.004777599 0.009569027 -0.00080783 0.004177293 -0.017426426 0.0012809477 -0.004335039 0.0024752559 0.0033883937 -0.005303168 -0.0027720728 -0.013600298 -0.010522928 -0.005436945 0.0027284052 0.008974433 0.0020172275 0.006576016 -0.0040255142 0.0050350185 -0.0069754804 -7.08468e-05 0.004411652 0.0025564567 0.008125984 -0.008693226 0.008035851 0.008927625 0.0049379733 -0.005194454 0.014200563 -0.00781383 -0.0024989753 -0.0065503586 0.0008689457 0.0066301334 0.009205483 -0.0027457734 -0.0050109965 0.005733591 0.0006985842 0.0013942862 0.008060803 -0.00015035202 -0.0054925303 -4.426725e-05 -0.006924546 0.0054629417 0.015926527 -0.010364846 0.0029116054 0.007886839 0.004268022 0.006637448 0.003566441 0.010382489 0.009906896 0.006252394 -0.0075131403 0.01886814 0.0032633508 0.0017530598 -0.009670229 0.009059519 -0.005606822 
dan -0.012117694 0.003984904 -0.008115105 0.001745193 -0.0036385846 0.0030547 0.010186715 0.007595365 0.0022489266 0.0021640053 -0.011418538 -0.014533745 -0.0072275093 0.005132436 -0.0070590763 -0.008295553 0.0051475205 -0.012530785 0.0021318635 -0.009259635 0.0019173285 -0.0090718195 0.009378122 -0.009195512 0.008560859 0.007836724 -0.011796536 -0.006313614 0.0042815036 0.006079993 0.0019113703 -0.0031484654 0.0099068945 0.0027576834 0.0058265096 -0.0011718033 0.0022868512 0.00047307363 -0.008269715 -0.015699822 0.007911964 0.0019538016 -0.008086637 0.0047786683 0.008558437 0.0026664985 -0.0010719346 -0.0035744847 0.0013268318 0.010243552 0.006200456 0.005189085 0.006250011 0.0055966806 0.000754156 0.00081304595 0.00041762198 0.0035899216 -0.013829715 -0.0045476393 -0.009324667 0.005014486 -0.007453952 0.00229053 0.00015221402 0.0038930858 0.0077613317 0.0079528475 -0.011374443 -0.004590493 0.0030175955 0.004622264 0.013630148 0.007087882 0.009805426 -0.0010292056 -0.0042460486 -0.0019466392 -0.00019508688 -0.00062060036 -0.0017397702 -9.908643e-05 -0.005573996 -0.003349713 0.0055991653 -0.007388839 0.010870364 0.011140134 0.008141015 -0.0061924825 0.002435788 0.00051924377 -0.006690589 -0.0019398144 0.0062838066 0.0046575777 -0.00319872 0.0008964152 0.010633002 -0.00522512 
cogi -0.01021515 0.0005646954 0.00056282745 -0.0068991873 0.0018120145 -0.011853114 0.018471273 0.027706098 -0.017298728 -0.009197079 0.0032060791 -0.026912538 -0.00053076266 0.0104862405 -0.004387886 -0.013774906 0.005643606 -0.007598602 -0.01410581 -0.023688497 0.0066436343 0.0023345712 0.008530453 -0.010624966 0.0003995144 0.0124440435 -0.0075759743 -0.01775816 -0.012208668 0.008069605 0.011175976 -0.00073992374 0.0076672253 -0.023903709 7.228591e-06 0.0237521 -0.0022891671 -0.016550865 -0.011150307 -0.028032076 0.0048805964 -0.009037129 -0.0011161258 0.0006863292 0.016346313 -0.0037196283 -0.0044490024 -0.0070576426 0.009132342 0.009912071 0.0107979 -0.015357742 -0.0033285932 0.0070013953 -0.015224744 -0.0022621357 0.0065392954 0.0032268588 -0.01830978 0.0005597333 0.0016539765 -0.0074757156 0.00042661518 0.01150289 -0.022787163 0.022199621 -0.0033476476 0.0054013906 -0.016074957 0.0033330098 -0.00971712 0.005507227 0.020834161 0.0048508034 0.0065670847 -0.0015940556 0.0067001027 0.0066239005 -0.011914066 0.004368608 -0.013181868 -0.008660327 -0.011535007 0.012957455 -0.01323442 -0.00095207815 0.0152860265 0.018204613 0.017711647 0.0027985666 0.019558195 0.0016557295 -0.0014100426 0.008841659 0.021555534 0.0057864967 -0.002641903 -0.018156717 0.002217026 0.0006073542 
deseos -0.011933276 0.005605312 0.010755977 -0.001985271 0.011229952 0.0012705543 -0.0008382627 0.021519404 -0.013819418 -6.9717906e-05 -0.006268678 -0.004990704 -0.0073158033 -0.0038628704 0.011170649 -0.0058533424 -0.003982568 -0.010535238 0.0065711034 -0.008091033 -0.0035416626 -0.0021810532 -0.0031616197 -0.010281232 0.0062518287 0.008194203 0.0012420721 -0.0017646381 -0.0017655074 -0.0044021513 0.0047583906 0.005034933 -0.00046517357 -0.0024980688 -0.008904611 0.0076712565 -0.007928895 -0.009880327 -0.012230673 -0.0030835948 0.009519993 -0.014473724 -0.007821652 0.008427568 0.004524616 0.0064914785 -0.011544062 -0.0023700336 0.000705724 -0.0017018248 -0.004459544 -0.014002103 -0.011214837 -0.0062451 -0.002413126 0.007743169 -0.002099446 0.0053869556 8.257614e-05 -0.0034477145 0.009499789 0.0018697943 0.0041671377 0.003516387 -0.011416635 0.01648833 -0.0033430157 0.009044797 -0.008819179 0.0070246193 -0.0053297533 0.006564379 0.005418316 -0.0023138754 0.009775739 0.0062797526 -0.004388708 -0.0022890894 -0.01403988 0.005808278 -0.012395663 0.005818018 0.0051413635 0.0051907995 -0.0018379352 -0.0027868985 0.00857658 0.0053817 0.01079451 -0.0004698707 0.0055507086 -0.005239168 -0.0016743776 0.002466956 0.014119315 0.014573655 0.009264138 -0.0062646796 -0.0033754688 -0.010656973 
Luego 0.0026933975 -0.0015377612 -0.0017558393 -0.00737615 0.014684628 -0.025127955 0.007117671 0.01722017 -0.020768406 -0.012391512 -0.013658344 -0.01909832 -0.01064291 0.005636821 -0.0005532874 -0.017173544 0.001128363 -0.01689792 -0.003455146 -0.017645864 0.0030479466 0.0012308548 0.014014542 -0.013973428 0.003767401 -0.002401745 -0.011817085 -0.010795143 -0.014470622 -0.004320983 0.018823557 -0.0009191769 0.003225937 -0.01508014 -0.0073656607 0.010780573 -0.0015887362 -0.0074294233 0.0024757117 -0.017694766 -0.0007912563 -0.0030469866 -0.0011978894 0.0021728077 0.013624925 0.0007631681 -0.015648082 0.0054246266 0.007919149 0.018296631 0.014642099 -0.008672164 -0.0090119615 -0.010347245 -0.017087525 -0.000411127 0.011212074 -0.0075091138 -0.017165251 0.012508256 -0.00052138517 -0.0024938018 -0.0012358241 -0.0055277487 -0.016474728 0.016860547 0.001914617 0.018430296 -0.014443993 0.013877125 -0.00068789005 0.018851075 0.007175252 -0.006164323 0.018479735 0.005939474 4.8818365e-05 -0.005372425 -0.0097046755 0.0071786083 -0.0021150399 -0.00031414317 -0.001467252 0.0063138544 0.0018602419 -0.01141637 0.0064146677 0.015021658 0.011882888 0.007720187 0.008536035 0.008699546 0.00040230318 -0.003107676 0.02180123 0.0014614578 0.005354504 -0.008686202 0.0111946715 0.0010239105 
buenas -0.019425789 0.014091039 0.009823786 0.0056608007 0.014416771 -0.02621813 0.007274133 0.051157665 -0.013574685 -0.017791882 -0.019553311 -0.029481145 -0.008419995 0.00081342395 0.0036104808 -0.012339588 0.0011631914 -0.013825092 -0.0031998218 -0.03296704 0.025500784 0.006645766 0.027040048 -0.0077252868 0.0045964066 0.0010713197 -0.014238004 -0.019964525 -0.010807186 0.0071540656 0.024542239 -0.014314077 0.007561898 -0.014936644 0.003942177 0.016747123 -0.0034690765 -0.015584353 -0.0070842826 -0.024372188 -0.004699304 -0.028660938 0.0010060318 0.0033294156 0.008326434 -0.015611235 -0.025554722 -0.008425752 -0.0024434123 0.010167231 0.005768164 -0.021642849 -0.004862154 -0.0005884609 -0.016632153 0.015359162 0.006269989 -0.0039860476 -0.01643404 0.0071670166 -0.00070831465 0.004974128 0.002806229 -0.0018086353 -0.021991212 0.02918437 0.012337231 0.015350155 -0.02975072 0.015736436 -0.017812373 0.024147708 0.012954216 -0.006699446 0.033910993 0.005499589 0.012004996 0.003154276 -0.017368022 0.008566744 -0.0086296825 -0.006463574 -0.021307986 0.017544385 0.00062697777 0.00043870916 0.017560301 0.02349208 0.01839544 -0.0022751319 0.032918703 -0.0030486784 -0.0045473557 -0.008533875 0.043850746 0.020322993 0.010236581 -0.019869935 0.0044864607 -0.008659133 
sabe -0.01863202 0.040222324 0.020322217 0.0023910708 0.025609765 -0.06609074 0.043696705 0.10631983 -0.04722086 -0.043313213 -0.023619056 -0.07636604 -0.012174134 0.01736103 0.009146051 -0.02575853 0.009178158 -0.02836451 -0.009735146 -0.10180748 0.034684654 0.009578708 0.04641613 -0.017501477 -0.013284769 0.0062697288 -0.040878702 -0.038120754 -0.045115154 0.0026018303 0.04531233 -0.018063713 0.022237169 -0.048083838 -0.004337828 0.04781935 0.0052589704 -0.0477436 -0.020062707 -0.074233785 0.0020200277 -0.04336961 -0.0034971235 0.022979187 0.035962023 -0.016973045 -0.040022682 -0.025668414 0.016366191 0.044088356 0.021487957 -0.042845327 -0.0085091675 0.0024605596 -0.029187836 0.019106803 0.024834238 -0.020212049 -0.03487509 0.0056953104 0.0006518371 0.01378179 0.02246732 -0.003959143 -0.051560014 0.068532035 0.008310394 0.047557697 -0.06090145 0.04842089 -0.02651194 0.035634648 0.041802872 0.00074646604 0.045546677 0.020120304 0.004902606 0.006366082 -0.047093388 0.011180115 -0.025550902 -0.006104719 -0.025456376 0.04594957 -0.008031995 -0.010045504 0.025667379 0.0426332 0.050393485 0.00612516 0.05167921 0.009446266 0.003821429 0.0025190283 0.08641381 0.033692855 0.019458061 -0.052508406 0.0017192697 -0.021711616 
bembona -0.008666287 0.016304092 0.013433979 -0.0073373537 0.018300105 -0.040418804 0.02574049 0.057240386 -0.023886343 -0.029729744 -0.021569151 -0.04194483 -0.01141218 0.007989739 0.0043012914 -0.012410293 0.00760064 -0.021630034 -0.019237414 -0.048968576 0.017045973 -0.0012708914 0.021834306 -0.020232182 -0.0043173614 0.005825449 -0.028114742 -0.013594307 -0.016159287 0.012089339 0.032355167 0.0023905993 0.004995914 -0.02975682 -0.015417139 0.03191553 0.006935651 -0.015841292 -0.0107232155 -0.049244653 -0.0024406072 -0.029562354 -0.0031313284 0.0034683796 0.015183351 -0.021012181 -0.01399342 -0.012638468 0.012737203 0.015746133 0.01646479 -0.02554975 0.00038543463 -0.00061242393 -0.00688939 0.017029336 0.02268483 0.0017647702 -0.013570885 0.01189019 0.008065504 0.008052723 0.006687503 -0.00012241716 -0.03000976 0.046315365 0.0003477097 0.018595926 -0.03922633 0.031209575 -0.009657188 0.03014272 0.03026766 -0.0016138004 0.036370434 -0.0015891097 0.00643962 9.3420414e-05 -0.016854305 0.01129061 -0.013892603 0.0016502624 -0.016161725 0.021204267 -0.016351365 -0.008567859 0.018396748 0.014823424 0.034997657 0.009762185 0.031437512 0.0072545796 0.0024481195 0.0051588044 0.039812 0.028996699 0.0068837334 -0.0268169 0.0037353837 -0.0076486734 
trenes -0.009014571 0.009313415 1.973284e-05 0.0007133677 0.007966717 -0.02262794 0.007983669 0.040238973 -0.015010765 -0.011037608 -0.01750406 -0.026957115 0.0020856662 0.00042713425 0.0068335375 -0.016399564 0.0044140103 -0.0074218693 -0.0022424979 -0.04151808 0.016254473 -0.004255962 0.021375718 -0.0025077374 -0.004554273 0.00045372505 -0.004922281 -0.010299887 -0.010759236 -0.004666672 0.0062734582 -0.009508962 0.0015144799 -0.028196523 -0.0055678855 0.022897419 0.009768801 -0.020080049 -0.013159983 -0.023132531 -0.0057700076 -0.008373409 -0.008441118 0.0060445615 0.015247591 -0.017556861 -0.02178099 -0.008288066 0.0010281244 0.012973487 0.010241696 -0.011874318 0.0044006333 0.0051356917 -0.00891365 0.0036101197 0.011511735 -0.012543829 -0.024267755 -0.0021274951 0.006287947 0.0021063879 0.010687062 -0.005297923 -0.010125787 0.028014988 0.0020500226 0.019817453 -0.030509213 0.018819222 -0.0039689452 0.02337262 0.023309175 0.002549725 0.020961475 0.00765412 -0.0035518727 0.009238072 -0.020750878 -0.0053446116 -0.019262409 -0.005862318 -0.010958215 0.022654831 -0.011332826 0.0028470047 0.0011766291 0.019313805 0.025937539 0.00941583 0.010999517 0.0040788306 0.013205845 -0.008573808 0.024305932 0.013599431 0.014293573 -0.021635437 0.010837382 -0.00067263364 
iras -0.0026556326 0.0070983088 -0.0018240229 -0.0025684934 0.009544118 -0.007443 0.0076219793 0.017122515 -0.018363468 -0.0009496768 -0.0072323126 -0.0068027508 0.00645223 0.007986333 -0.0037016817 -0.0050185793 0.008857643 0.003864522 0.0012182905 -0.011887104 0.008162021 0.007886869 0.011716605 -0.013054879 -0.005475978 -0.00400672 -0.0006454282 -0.011798365 -0.0131747285 -0.005380715 0.0029330894 -0.0012876247 -0.0048527946 -0.009458514 0.0068043205 0.0064345403 -7.0922775e-05 -0.0015275889 -0.004643252 -0.011948082 -0.0015984529 -0.008904484 -0.0015036458 -0.007127728 0.004130044 -0.00092838815 -0.012652773 0.0046706987 0.0033345623 0.0073628556 -5.582488e-05 -0.0050611864 -0.009169242 -0.00096141116 -0.010462689 0.007466204 0.0030898028 0.00496554 -0.0035946972 0.0018624273 -0.0064026834 0.009934641 0.010513863 0.0105998805 -0.011107271 0.011776759 0.0033466443 0.017296666 -0.009013007 -0.00023861039 0.0015282967 0.014156149 0.0032400824 -0.0024959564 0.019704187 -0.0010152413 0.0027412532 -0.0055904547 0.0011522416 0.007908574 0.000742776 -0.007273994 -0.0022022543 0.0029864428 0.0022787296 -0.006662763 0.008314681 0.0036559093 0.01759959 -0.0031344437 0.018851442 0.00856417 0.006703465 0.004883014 0.025291823 -0.001295577 -0.00510574 -0.014269891 0.008378853 0.004947014 
siete -0.0051398193 0.013066241 0.00218989 0.001448077 0.012249434 -0.01812938 0.01120059 0.031913582 -0.012469845 -0.004302983 -0.005269901 -0.017412812 -0.0067832046 -0.00047902414 -0.0023277737 -0.016633393 0.013252486 -0.010745372 -0.00024291677 -0.030819675 0.013416724 -0.0020112584 0.014517226 0.0023763622 -0.00987819 0.000107855994 -0.008167114 -0.017444117 -0.009074078 0.00074948365 0.015172703 0.0009620468 0.010529355 -0.009306872 -0.006279508 0.019549835 0.005903384 -0.008998651 -0.014648887 -0.009291229 -0.0028836525 -0.019020189 -0.008049652 0.0018923592 0.0043713073 0.0005941052 -0.014392047 -0.0051465286 0.0077343388 0.0123644415 0.0075757816 -0.008090896 0.0017594069 -0.00074249733 -0.014316241 -0.004555176 0.008200904 0.0013936912 -0.008632165 0.011758878 0.010472385 0.0051788394 0.008102044 -0.0043434147 -0.01394499 0.025466518 -0.007146416 0.010550282 -0.021628195 0.012778353 -0.016630562 0.006911327 0.009144045 0.003460921 0.01381535 0.006689498 -0.0060793962 0.00075131515 -0.00529866 -0.001727064 -0.009030804 -0.0082586575 -0.011421411 0.010730855 -0.014155338 -7.5912656e-05 0.01254609 0.011374963 0.012417907 0.0076829814 0.0077606416 -0.000119291035 0.00011239457 -0.00590895 0.027157392 0.008715162 0.010633315 -0.012688701 -0.0043352204 0.0028594532 
Trato 0.0008726222 0.008596266 0.013906034 -0.0071479967 0.01215195 -0.021386823 0.00998997 0.025248416 -0.0047319448 -0.01763029 -0.0049365195 -0.015921494 0.0027680285 0.0075031775 0.0009832411 -0.006079873 0.008009926 0.0013603697 -0.009957547 -0.019528253 0.01763179 0.0019467557 0.005540877 0.00076546444 -0.0038756502 -0.0010559022 -0.0014443254 -0.009394386 -0.007836779 0.006989277 0.018858066 -0.003868525 0.0062947064 -0.011681769 -0.008699223 0.0111176465 0.0010395036 -0.013273843 -0.012756488 -0.018614624 -0.0048439973 -0.016070556 0.0034046639 0.0010745279 0.016644385 -0.00092965463 -0.018834777 0.00090999395 0.006517074 0.005626708 0.014672042 -0.012651741 -0.0070788413 0.0068884897 -0.015193285 -0.004061906 0.0046460633 -0.012503896 -0.0014799006 -0.0070920647 0.0076379287 0.006473498 0.0037078015 0.011262911 -0.020671485 0.019855084 0.0073513696 0.005702893 -0.017722858 0.010334797 -0.0039979853 0.018674497 0.01300529 0.0077626123 0.013150849 -0.00016240677 0.009409513 0.009395299 -0.018177524 -0.0027333358 -0.016355278 -0.0071605383 -0.013249626 0.0040297215 0.002450211 0.0050574807 0.008504359 0.0025988785 0.006821202 -0.0018667129 0.014548464 0.007011965 0.0021987525 3.317332e-06 0.028721403 0.01850544 0.00934631 -0.0068077594 0.011201718 -0.005321039 
puedo -0.017896181 0.026170203 0.012702737 0.00023502416 0.010885141 -0.033220105 0.03232265 0.06302918 -0.035104636 -0.039368387 -0.012215454 -0.03355202 0.007298556 0.014242962 0.008183196 -0.02541737 0.009639768 -0.009078511 -0.00877693 -0.0584055 0.032933384 -0.0047526895 0.015355311 -0.020608222 -0.011240435 0.0037216765 -0.02272449 -0.022444634 -0.015976327 0.0025388745 0.0212178 -0.016415237 0.011761062 -0.02979865 -0.00022650106 0.036179557 0.00440093 -0.024348773 -0.019940214 -0.051967036 0.0009350132 -0.029449176 0.0014937525 0.005721753 0.011841574 -0.012418105 -0.031043632 -0.0036951862 0.0017734492 0.018874265 0.0058503416 -0.03416361 -0.0017439103 -0.0053582536 -0.010040463 0.009417455 0.0058338423 0.000711262 -0.031732533 0.0012175755 -0.0028625876 -0.0030874582 0.019454414 -0.0035164955 -0.02336555 0.056234162 0.0031237586 0.033386678 -0.037332095 0.01631534 -0.009773401 0.038195815 0.024613272 0.0025526818 0.02632963 0.014212524 0.0061610145 0.007455639 -0.021726029 0.013121407 -0.016314464 -0.0031520885 -0.013706198 0.030478591 -0.016731847 -0.0061440747 0.017547857 0.022473639 0.022932936 0.0060648457 0.027464299 0.0072024306 0.0069002635 -0.011512755 0.045004673 0.019795801 0.0018893657 -0.03232486 0.014789601 -0.0044224123 
luces -0.0052179135 -0.00093386834 -0.0028079487 -0.008027614 0.012389588 -0.0044183303 0.00033864935 0.010785262 -0.015049173 -0.0035803015 -0.010322011 -0.02171897 0.0011632066 -8.188298e-05 -0.0055432506 -0.004300254 0.0071496866 -0.0032360393 -0.008698644 -0.014612367 -0.0017591261 0.00068346644 0.001479953 0.00033734506 -4.72125e-05 -0.0037527273 -0.008004509 -0.014733788 -0.015646424 -0.0059840274 0.010259436 -0.0003015541 -0.001988464 -0.00683848 -0.0013324615 0.018141892 0.004710016 -0.008746772 -0.0068361037 -0.018265836 0.00993851 -0.009777454 -0.011354037 0.0120378435 0.010191853 -0.0043273903 -0.0047852825 -0.0055496045 -0.0022066585 0.0016027188 -0.0014995466 -0.00784339 0.0032489728 0.0013871081 -0.0047639785 0.00036085598 0.0036748135 -0.0016949299 0.0001697199 -0.0064345147 0.0023534587 -0.008289211 -0.0011320888 -0.0074509634 -0.0025484066 0.0178209 0.010111722 0.01043973 -0.0032637236 0.004647181 -0.0072010034 0.0038795806 0.008559299 -0.00941687 0.011959867 0.0046918932 -0.006137066 -8.065268e-06 0.0015264705 0.00022937793 -0.014647606 -0.011443157 0.003932976 0.013562734 -0.0067027994 -0.010841855 0.004334002 0.008654195 0.011582414 0.00971594 0.0007649928 0.010553439 0.0019995135 -0.0046050465 0.015590559 -5.8012403e-05 0.0050187856 -0.0079202205 0.0034318673 -0.005220777 
amarrada 0.0035505258 0.004811682 0.0044779377 -0.0098451795 0.0041263015 -0.007080033 0.0035060924 0.0106877545 0.004701798 -0.010243095 0.0071758186 0.0011393245 0.007494949 -0.001300019 -0.0019238372 -0.0042483546 0.010172192 0.007469951 0.0017185342 0.0020167911 0.012833154 -0.0046457234 0.00037377555 0.00092091964 -0.007545789 8.5795255e-05 0.0016800356 -0.0043347795 -0.009261584 0.0034695321 0.010985563 0.0012801108 -0.007846203 0.0036529498 0.0006984637 0.0030626499 0.001850648 -5.3676238e-05 0.0077552046 -0.011945112 0.0022190153 0.0012456302 -0.0016298548 0.010833051 0.0044064336 -0.0037351234 -0.01067708 0.008546928 0.008901545 0.00881994 0.007888794 -0.005509601 0.0070081335 0.004379841 0.00240728 0.007939213 0.0031075946 0.0031996984 0.0059639295 -0.0030165664 -0.0030933232 0.0048489803 0.01125593 -0.008247846 -0.0053192005 0.0014220136 -0.0065499623 0.00697332 -0.0062368894 0.012623812 -0.0036132748 -0.00075571326 -0.0011681124 0.0030063826 0.007080279 0.008092564 0.0033154904 0.0028636532 -0.010190257 -0.008476752 0.0006564226 -0.0056234114 0.006014564 0.013517769 0.0016566545 -0.005392732 0.0073697446 0.012092223 0.007831662 0.008318616 0.013541126 0.008773656 -0.0030528873 0.0037040848 0.0008546638 0.0117085 0.0066123824 -0.007549803 -0.0023094208 -0.005651404 
Sin -0.0086038485 0.014785625 0.012080251 -0.0017889383 0.020146258 -0.03147492 0.019951358 0.05376669 -0.032731377 -0.02230066 -0.004717086 -0.040850583 -0.00990864 -0.00076481665 0.0149962725 -0.01762305 0.016553031 -0.014486025 -0.01179348 -0.044178747 0.017298613 0.007973869 0.017370602 -0.014392449 -0.0045481487 0.011152683 -0.026599493 -0.01467258 -0.012369207 -0.0063088094 0.030213315 0.0008229092 0.011281763 -0.027026627 -0.0029204716 0.039199546 0.006683926 -0.023220535 -0.015743874 -0.043084953 0.00029705174 -0.03332447 -0.004555476 0.0019145823 0.011448459 -0.021824948 -0.022446187 -0.0060908343 4.1490744e-05 0.02944407 0.019488633 -0.021054726 0.00025188847 0.0061508487 -0.024853365 0.007762506 0.023430383 -0.01592983 -0.02375298 0.00952654 -0.0037386806 0.011876313 0.01239703 0.0063902107 -0.022164823 0.03830393 0.0072228666 0.027351161 -0.040989984 0.019138318 -0.009463913 0.019412339 0.014924922 -0.0061372914 0.029983843 0.009295905 0.001174205 0.009196926 -0.02938693 0.0014711755 -0.009463397 -0.007696915 -0.023523374 0.021726 -0.013943398 0.0017862655 0.0067343647 0.017413544 0.029456323 0.008336359 0.022960193 0.007019871 -0.00095804624 -0.004771626 0.048394624 0.01625263 0.0076051084 -0.029156867 0.014919638 -0.013441368 
dejado 0.004606491 0.010937262 -0.0042753117 0.0067818942 0.013091491 -0.0037105128 0.008359882 0.015192363 -0.013949378 0.0014292401 -0.012359692 -0.010509233 -0.006731129 -0.001957208 -0.004023961 -0.015138166 -0.0009795959 0.00018229733 0.0050490918 -0.017059872 0.012984462 -0.0044035916 0.01602481 0.0058814194 0.0035676674 -0.00042718265 -0.011967497 -0.0061522205 -0.014083145 0.0063624 -0.0030480158 -0.008097214 0.00488464 -0.013325262 -0.0045784875 0.009269521 -0.001977756 -0.0012813582 0.0005601053 -0.019901788 -0.006716101 -0.005876385 0.0003845809 -0.0068972656 -0.0009545005 0.0019851287 -0.003703788 0.0061082034 0.008086639 -0.0014495715 0.0037326121 0.0024311515 0.0061507034 -0.00055431155 0.0024162794 0.011163425 0.004487042 0.007668051 -0.0016614203 -0.0013364431 -0.0015130751 4.031026e-06 -0.005878583 0.0021352363 -0.014869758 0.008017457 0.00024313397 0.012600534 -0.017307885 0.0074931076 -0.0016591569 0.0052364706 -0.0010474287 0.0050504156 -0.00028679208 -0.0061030276 0.009848153 -0.006128739 0.003236604 0.009731424 -0.014329295 0.000743741 -0.0032088805 0.011461722 -0.0057876976 0.0035481486 0.001993396 0.005227842 -0.00018820608 0.001676475 -0.00066328957 0.009131363 0.010806363 0.004654664 0.022438547 0.0045095785 -0.0012567327 -0.012476856 0.001020869 -0.010903513 
muertos -0.002403778 0.0016497886 0.0049627284 0.006944416 0.010728072 -0.022265308 0.011428017 0.016867831 -0.020393105 -0.020194143 -0.0075285216 -0.013683454 -0.00977532 0.007289262 0.0017093883 0.0010299063 0.010194597 -0.010500702 0.0046748286 -0.028594812 0.013013493 0.008727756 0.019415475 0.0037577397 -0.011758274 0.004213864 -0.014623486 -0.0053951037 -0.013325889 0.005152322 0.010269975 -0.010564384 0.011540996 -0.01686639 0.003137374 0.019104932 0.005064398 -0.015081018 -0.014058922 -0.012605323 0.0069720508 -0.0117802685 -0.005018073 -0.0007603074 0.001869909 -0.010827472 -0.010136033 0.0028044577 -0.001736788 0.014998101 0.002432034 -0.011603433 -0.010140702 0.0040679546 -0.016076714 0.012433531 0.0049435347 -0.012556028 -0.0018487655 0.0034892391 -0.003679765 -0.0007549035 0.014105802 0.009312351 -0.008419547 0.020850856 -0.0072544534 0.006833823 -0.014532286 0.0078616245 -0.00032448105 0.0043128626 0.008044072 -0.0019574969 0.013399631 -0.0015541323 0.009287492 0.004875525 -0.016948057 0.010400697 -0.006333691 -0.004236711 -0.009747639 0.01390872 0.0011871487 0.0030449748 0.00074996654 0.0029879713 0.021388689 -0.0013885971 0.016872268 -0.00053163606 0.0050083874 0.00031433042 0.013763889 0.014576784 0.009052019 -0.021381404 -0.0010773294 -0.0005191824 
tragado -0.0026103011 0.01111271 0.0054499726 -0.0003024935 -0.004256159 -0.0110016605 0.011742708 0.024070961 -0.002018283 -0.003804993 0.005225531 -0.007589392 -0.006845579 -0.00033219333 -0.005878633 -0.0037484607 -0.00021996198 -0.0048115817 -0.013075488 -0.018590081 0.009218903 0.009941082 0.0052401554 -0.010179301 -0.0061947657 0.0026050627 0.00080777396 -0.010207845 -0.0010338661 -0.0064558545 0.008183702 0.006694049 0.00082694634 -0.016995693 -0.0064965026 0.004508448 -6.8792535e-05 -0.018859137 -0.006698191 -0.008020354 -0.0063725156 -0.004463304 -0.008736995 0.0051500243 0.007737574 -0.0064983363 -0.009292224 0.005575046 -0.005283083 0.0027693743 -0.0052808095 0.00019012493 0.0011724457 -0.0068896925 -0.011224279 -0.0004217712 0.010290144 0.003068659 -0.0052629183 -0.0042663813 -0.0048710355 -0.0072710332 -0.00092321454 -0.0054668495 -0.011291416 0.022138694 -0.007106116 0.0046830457 -0.005041433 0.010708842 -0.006138279 0.005419863 0.013936053 -0.003566384 0.005886671 -0.0011318305 0.0034787706 0.004984409 0.0007161663 0.0029038556 -0.013815954 0.0069455584 -0.007935869 0.010414878 -0.005432817 -0.0037328065 0.002491159 0.001952679 0.009591643 0.0041141314 0.020227056 -0.0058782822 0.004146434 -0.006975504 0.02675686 0.013215467 0.0017346344 -0.0016865709 0.00710141 0.0018960735 
Quiero -0.016114337 0.0011181924 0.00999246 0.0014108565 0.001550123 -0.022718735 0.020862956 0.040646385 -0.017395176 -0.01776953 -0.014267097 -0.029443175 0.002825355 0.0010122386 0.002662343 -0.020585602 0.013033132 -0.016256293 0.0018515226 -0.019228363 0.015169066 0.0019386857 0.015525822 -0.013842354 -0.0046237046 -0.0057222894 -0.008134025 -0.01502142 -0.0042606383 -0.0030589087 0.0202775 -0.0053811707 0.006352707 -0.007151109 -0.009149785 0.015310897 0.005584298 -0.02279425 -0.009314812 -0.027922941 0.0039092633 -0.017024033 -0.00059228507 0.0060482235 0.012090867 -0.016827796 -0.015695795 -0.003994265 0.004848795 0.018648878 0.0093169045 -0.01692363 0.0034929558 0.0066701733 -0.010439656 0.0034576757 0.003255452 0.0026286016 -0.012048554 0.00068135455 -0.005136216 -0.001749914 0.0007592008 0.00040221112 -0.011241008 0.016242296 0.010670066 0.022859253 -0.01209457 0.015876936 -0.0040158075 0.018419184 0.019662077 -0.0066726566 0.017455695 0.0068596425 0.0049773715 -0.00090336497 -0.021483967 0.0017230966 -0.0045489464 -0.0010755066 -0.018445237 0.025378807 -0.004372172 0.002964049 0.015517467 0.020612996 0.023306929 -0.003594226 0.015771668 0.0006415424 0.012758055 0.008904187 0.028970396 0.017748607 0.0033199415 -0.015864942 0.010351459 -0.011643184 
oso -0.0015892632 0.012802033 0.0067686965 0.009061283 0.011495618 -0.01101585 -0.0010943473 0.01071324 -0.0050481344 -0.014567221 -0.0056676297 -0.013901648 0.00084538065 -0.0071821944 0.009102323 -0.009188563 0.003402363 -0.010881421 -0.0009518363 -0.0059870067 0.006661783 0.010021037 -0.0008029524 -0.006545559 -0.0020941948 -0.0013354723 0.0029265995 -0.007409164 0.0027602853 0.004088089 -0.00063655927 0.0021530148 -9.3972245e-05 -0.003843328 0.0023887865 -0.00039764194 -0.0034955014 -0.014593212 -0.0014564429 -0.002505854 -0.0049786135 0.0006133131 -0.0070421677 0.0081255855 -0.0015748055 -0.01124713 -0.0040014354 -0.0037548535 0.003068593 -0.0035221977 -0.0040228483 0.0021603573 0.0020242066 -0.0062689623 0.0040506916 -0.0069741393 0.0071996762 0.0063088643 -0.013986597 -0.007858937 0.009752611 0.00634429 -0.0012081296 0.009037614 -0.005734807 0.0145232575 -0.007635624 0.0048677647 -0.0038565074 0.0066888123 -0.0005316809 0.0030798747 0.0071867495 0.007113821 0.0030529567 -0.004651639 0.0041584694 0.0076476685 -0.010073696 -0.0012842299 0.0034934273 0.0033456713 -0.00876377 0.01210167 -0.010618639 -0.0049938248 0.01313252 0.0066599916 -0.0017063413 0.0074983337 0.010947883 0.0020181143 0.009400273 0.001736661 0.014788643 0.004116796 -0.0001446311 -0.001209174 -0.0011881076 0.0016758285 
lengua -0.0042883917 0.00015693848 -0.00011173739 0.00030901493 0.006518146 -0.0148404 -0.004214561 0.010719586 -0.011181444 -0.0066038854 -0.004894641 -0.0064741075 -0.00074702955 0.006983052 -0.006089776 -0.012231789 -0.0019880622 0.002840726 -0.003969185 -0.011318261 0.004454046 0.005619446 -0.0019353084 -0.00034560385 -0.0027939728 0.0023531183 -0.012744312 -0.00929147 -0.008116334 -0.006603504 0.010480102 -0.0053006327 0.008254415 -0.013937408 0.008129792 0.007583246 0.0115896445 -0.007369871 -0.0064050034 -0.0064476053 0.007826456 -0.015413095 -4.1211308e-05 0.006980333 0.0033751244 -0.002225633 -0.013637564 0.0035079925 0.0041096285 -0.0028205663 -0.0063657872 0.0008408736 -3.6840873e-05 -0.01074338 -0.011652513 -0.0052351225 -0.004336122 9.665029e-05 0.001539271 0.0020167623 -0.005575626 0.010594525 0.010372109 0.0015437829 -0.013198236 0.016056271 0.0045768265 0.0033650782 -0.01564723 3.2863958e-05 -0.0030506665 0.007340736 0.005251018 0.001514732 0.016310731 0.00477307 0.0022732527 -0.005839179 -0.0001780537 -0.00048204302 -0.01243579 0.002820692 0.005803413 0.0055458304 0.0021400207 0.008512984 -0.0017617363 0.0013436823 -0.0019656545 -0.0008250775 0.005819528 -0.002218222 -0.0032713078 0.0059662126 0.01372833 -0.0031513618 0.0028614586 -0.013478087 -0.0025525424 0.0056651435 
emociona -0.0045953104 0.0012732596 0.006800265 -0.002849987 0.012152939 -0.015951881 0.008561691 0.024666218 -0.0033838737 -0.01559993 -0.0058912677 -0.009977112 0.004438119 0.008226992 0.005538001 -0.014193615 0.0116528515 -0.005858851 -0.0025907462 -0.010547673 0.012112827 -0.008629459 -0.0020546683 -0.0044830726 0.0010085347 0.006447693 -0.00029703462 0.0021329552 -0.014292483 -0.008076948 0.016744068 0.0065494054 0.0037753636 -0.007129933 0.0018961637 0.009470717 0.0019980483 0.0006409445 0.0016064353 -0.020434175 -0.006392551 -0.015408717 -0.0062727057 -0.0021080663 0.0061910427 0.0032184015 -0.015752168 0.00097075995 0.0041386597 0.015540959 0.010868216 -0.0081686685 -0.0077492045 -0.010455696 -0.007262511 0.012561775 0.013221823 0.0045867274 -0.009673167 -0.0027950574 -0.008298798 0.0050903494 -0.0038790395 0.006382169 -0.005207811 0.004642572 -0.0027915102 0.002343721 -0.003682508 0.015222832 -0.014211276 0.015807569 0.0028365543 0.00018070335 0.013217102 0.00087025017 -0.0047466727 0.007988098 -0.0012666363 -0.0025579985 -0.0074039316 -0.009692555 0.003185168 0.011734426 0.00062777335 0.0027211823 -0.00023028193 0.010846705 0.0013230497 0.0006372004 0.00345157 0.004975621 0.0028300358 0.004326688 0.008261289 0.01672363 -6.453492e-05 -0.004472452 0.0062952605 0.0067111203 
conocen 0.0065711816 0.008183494 0.005798699 -0.0009390568 0.007538714 -0.00040458736 0.0022386406 0.011150864 -0.005954581 0.0044140276 -0.0109748775 -0.010452755 0.0073860334 0.0057269917 -0.0037220393 -0.00935189 0.00022972497 0.0028026183 -0.0017527359 -0.016265823 0.011411656 0.0070186523 0.00063671614 0.0051949704 -0.0050162748 -0.0051315674 0.0024048388 -0.008034651 -0.0014490861 0.010029661 0.0021075797 -0.0056876023 4.2837608e-05 -0.002519529 0.003739197 0.008023187 0.0029890821 -0.0070467484 -0.0054486403 -0.008417178 -0.008294982 -0.0019821273 -0.0051089847 0.0023053645 0.009218037 0.0017873045 -0.0016171784 -0.0037392806 0.011123792 0.005264084 0.010582005 0.00032246235 0.0031981522 0.008917679 0.0020255905 0.011559725 0.0103413 -0.0028211884 -0.014605473 -0.003921049 0.0038677822 0.009482244 0.001920351 0.0076631024 -0.004669381 0.0098111555 0.0018843715 0.00031350777 -0.014415088 0.0048951283 -0.0023044473 0.013159849 0.0047774417 -0.009483809 0.009556155 -0.0028844497 0.00036041433 0.00349736 -0.0036317229 0.009525665 0.001785758 -0.002120975 -0.011631521 0.00091814686 0.000385764 0.0081931595 0.0125383595 0.0010307106 0.015545843 0.008008371 -0.0029224996 0.00931222 0.010550987 -0.0068984115 0.0021350884 -0.003019495 0.0064447415 -0.010962997 -0.005580433 -0.00042869715 
Vi 0.005897942 0.0005456947 0.0063592326 -0.007271538 0.0091045275 -0.00943259 0.001033009 0.015099357 -0.010437056 -0.011670777 0.0012393637 -0.0024428403 0.0040520066 -0.0062748077 -0.0067249867 -0.0050347196 -0.0001063315 -0.010713613 -0.007158965 -0.0025794297 0.011184525 0.0062273033 0.009399481 -0.0046556625 0.0049245916 0.0024987732 0.0036378254 0.0035095594 -0.007599536 -0.0007845704 0.005187836 -0.00011241484 -0.00080504623 0.00068173854 -0.0005095404 0.0068345647 -0.005977797 0.0017976697 -0.0016283384 0.0013136104 -0.0012165982 -0.00570784 -0.010035215 -0.007242184 0.0069393287 -0.006424961 -0.012878194 -0.010996074 0.0016393944 0.0059511615 -0.0017812616 -0.0035675233 -5.049949e-05 -0.0014346379 -0.011319578 0.011266958 0.0050480207 -0.0037007679 -0.009086351 0.007595734 -0.0038387114 -0.00044960374 0.00038175855 0.0042339633 -0.011683323 0.0068927873 -0.002504945 0.004463021 -0.002689468 0.007472736 -0.0015873464 0.00036535074 0.005081061 0.0030650992 7.6429395e-05 0.0025677895 -0.0013438418 0.0005571284 0.00084250234 -0.0018939327 -0.006092189 0.007905456 0.0035263903 -0.0016425981 0.0075571924 -0.0029368375 0.004012399 0.01070911 0.0042321454 0.009067321 0.008405123 -0.003968779 0.009121949 -0.0020271214 0.009409826 -0.003479041 -0.008198298 -0.01235785 -0.003209836 -0.008593787 
cine 0.00045887972 0.01006992 -0.00082186534 -0.0041544596 0.0057117413 -0.014642219 0.011087395 0.01204681 -0.015410982 -0.01773619 0.0055189217 -0.011535323 -0.001481584 0.009477671 -0.0018036212 -0.009025714 0.00045029743 -0.0049138917 -0.0028030192 -0.020312505 0.0038207122 0.0048683267 -0.00016044184 0.005988933 0.0014858124 0.008667145 -0.00028725687 -0.007025238 -0.013290958 0.00938211 0.012993598 0.0041734716 0.0001171359 -0.017115502 0.0017766175 0.011804132 -0.005550998 -7.793064e-06 -0.009417961 -0.0024008465 -0.002845837 -0.0056069554 -0.0037338713 0.011650645 0.001777012 -0.000117004616 -0.015878992 -0.0016716844 0.0016066687 0.00057755277 0.0029180204 -0.0020684795 0.0026656762 -0.008899633 -0.0059919837 -0.005664925 0.0069167973 -0.0098529495 -0.0044049174 0.0070153642 0.004274873 0.00731486 -0.0031011286 -0.003706144 -0.01614474 0.012828164 -0.0027944704 0.014420698 -0.016547136 0.007995079 -0.0069890837 0.0013482472 0.013116288 -0.007992515 0.005165539 0.009550152 -0.00043251785 -0.0052930173 -0.0098268585 0.0088391295 -0.00425159 0.0040995837 -0.007833626 0.013819915 -0.011119035 -0.005135239 0.01085189 -0.0020796703 0.0042812144 0.010516112 0.010295448 -0.0026281509 0.0027021165 -0.007685301 0.018020479 -0.0027411631 -0.0071352376 -0.007165803 -0.0043632933 0.0010053634 
cuatro -0.008300646 0.0026406832 0.007915258 0.00013983564 -0.0039208857 -0.021018842 0.005928591 0.020563254 -0.018705986 -0.0051334244 0.0036145304 -0.006031808 0.0026555106 -0.005914196 -0.00075247366 -0.0007254113 -0.00043279587 -0.010005882 -0.0013021735 -0.011786933 0.0098175 0.009674019 0.0050609964 0.003562312 -0.008168216 0.009699347 -0.018419707 -0.013928743 -0.009038243 0.0010811145 0.015505988 -0.0065401634 0.007445861 -0.010329823 -0.0035187106 0.019927872 0.0032653613 -0.0062353397 -0.011409866 -0.015288517 -0.002407753 -0.0059454194 -0.006648163 0.009505488 0.0005403901 -0.0046080737 0.00024668363 -0.001216367 -0.0029285674 0.009066501 0.013316374 -0.017243642 -0.011779733 -0.009146544 -0.0073300283 0.013882796 0.0026525867 -0.0075050765 -0.013478225 0.004045932 -0.0036299888 0.0017516088 -2.657449e-06 0.00017587934 -0.012668537 0.018534122 0.007982124 0.01082686 -0.01037717 0.0147083765 -0.0013270146 0.01875821 0.009415667 -0.010276978 0.013509888 0.0059801005 8.359148e-05 -0.004933497 -0.0095138885 -0.0005518751 -0.013626601 -0.0041940543 -0.016462266 0.019350104 0.0038762235 0.006162675 0.0011819579 0.013477853 0.017802922 0.0019375696 0.012979734 -0.0012361526 0.00949844 0.008098605 0.014897477 0.018979969 0.006658019 -0.0163139 0.008127036 -0.0045251413 
roja -0.0043814597 -0.004011185 0.0022443512 0.005453493 0.003307833 -0.014230181 -0.0067114457 0.0015953181 -0.0063988995 -0.009886913 -0.006016546 0.0012016367 -0.0050899326 0.01022841 0.007028401 -0.0052419496 -0.0055504334 -0.0026147333 -0.0031300255 -0.017597111 0.0016412588 -0.0011703883 -0.00013536928 0.007888422 -0.0074236807 -0.0018332219 -0.012246465 0.007153065 0.006591582 -0.0061230417 0.008676944 -0.009669149 -0.0074168677 -0.0071684495 -0.0060514333 0.0036311296 0.006899508 -0.0022440215 0.0038117184 -0.014383133 0.0038933875 -0.0017026187 0.005452022 -0.0074043595 0.008081469 -0.0044002635 -0.011752027 0.0062277643 0.005164863 0.004817716 -0.004259929 -0.009537106 -0.0033005902 0.001432728 0.005345128 -0.0040278025 0.007837335 -0.009829017 -0.003268189 -0.0072498396 -0.0071946494 -0.0019673875 -0.0038067626 0.004529456 -0.0059140334 0.0033406331 0.0023798966 0.004882406 -0.014225379 0.010652518 -0.0046764635 -0.005546495 -0.005454338 0.0077918507 0.003100207 0.0030785685 -0.009008197 0.0026266766 -0.008255919 -0.007946809 -0.0011882599 -0.007368948 -0.011182732 0.0036077702 -0.007812974 0.008194693 -0.0018229105 0.00234981 -0.0050555603 -0.006170275 0.011538401 -0.00019963275 -0.0057997666 -0.006153375 0.013330847 0.0014851931 0.0097777955 -0.0076678307 0.008351014 0.0037775873 
m. -0.026742492 0.024048747 0.024325162 0.005860467 0.012163039 -0.051735677 0.022078577 0.08932279 -0.036896635 -0.032594126 -0.017762786 -0.055238508 -0.0122105805 0.010784332 0.010386458 -0.028447654 0.017495185 -0.029915476 -0.013182013 -0.075543016 0.024646709 0.00326563 0.026404217 -0.020608392 0.0010180227 0.00035847723 -0.02938115 -0.03343624 -0.037095767 -0.0060729226 0.029174829 -0.010643348 0.025526531 -0.041479204 -0.0010040425 0.046372227 0.01512085 -0.040208697 -0.013839609 -0.062379543 0.0069799987 -0.03136224 -0.018370776 0.013534632 0.02816662 -0.016287157 -0.025890931 -0.020860799 0.017955668 0.024078993 0.024165334 -0.035448764 -0.017967446 -0.013568533 -0.033892874 0.02418161 0.016467063 -0.016717782 -0.03582748 0.0024813402 -0.0053418656 -0.0050374228 0.023683432 0.0132981 -0.03638866 0.06447391 0.013649845 0.0427981 -0.05558568 0.022571249 -0.021718334 0.043226615 0.038467847 0.00075586076 0.038101368 0.012606726 0.0009967862 -0.0050880522 -0.03404496 0.017739175 -0.020911826 -0.017718708 -0.014396152 0.034655795 -0.006408549 -0.0030226163 0.018384783 0.03793442 0.03638181 0.004891592 0.05441693 0.0059854332 0.0063996566 -0.009415646 0.0646922 0.041385327 0.015102504 -0.04969405 0.017692888 -0.015003417 
encierra -0.0024587736 -0.0055194646 -0.007903864 -0.0011515593 0.00592809 -0.0003688215 0.010484354 0.012819768 -0.0043208674 -0.0037717146 -0.001656952 -0.00055965676 0.0035855777 0.00013887226 0.006780629 0.0067263027 -0.0012249856 -0.006246494 0.0081958985 -0.001867998 -0.003745499 0.0018410388 0.007882594 -0.008222413 0.0015934057 0.008132031 -0.0065619713 0.001419331 -0.011105812 -0.00619248 0.012130138 -0.0026283218 0.011876861 0.0020079797 0.0016360158 0.0033961223 -0.0050320844 0.0038499557 0.0019979745 -0.0049837707 0.008032829 -0.009913171 0.008006606 0.009498947 0.0066194073 0.0046721944 -0.00995805 -0.005610803 0.011486751 0.00028119783 0.006674358 -0.007808901 0.007334807 0.00025851023 0.0008080572 0.00064894 0.00079386996 0.004740577 -0.011686142 0.010162138 0.0035370584 -0.0017478756 0.003480175 0.0040827114 0.0007785641 -0.0026183298 0.0023979214 0.0032146834 -0.015367122 -0.0054192618 -0.012476899 -0.005053912 0.0081239175 -0.008340151 0.002679944 0.0015032205 0.009963333 0.001850615 -0.01031611 0.00470993 -0.011483884 -0.0066310433 0.0024594897 -0.005016321 -0.007287965 -0.005629265 0.008601535 0.008612154 -0.0052768406 0.006526543 -0.0009894556 0.0063637453 0.0041395696 -0.0017794962 0.0024583985 0.0018564874 0.0033755056 -0.005462393 -0.00015999033 0.00021549233 
cuidars -0.010030087 0.0026548707 0.009632494 -0.006668447 0.014449352 -0.02269825 0.012518594 0.016827922 -0.0153353475 -0.009762865 -0.0029453645 -0.022661934 0.005612046 0.0088606505 0.0046684057 -0.0036907273 0.009521012 -0.010230658 0.0044158837 -0.033773817 0.008179555 0.006709205 0.012232938 -0.013353112 0.006943446 0.008388527 -0.009042315 -0.0038099573 -0.018202292 -0.005055903 0.020142103 0.005091882 0.012881196 -0.0051447293 -0.012091344 0.024644747 -0.0041992003 -0.020919379 -0.005819434 -0.010894249 0.006187727 -0.014008259 0.006458812 0.009508045 0.0059394226 -0.010139084 -0.016822888 -0.0006598317 0.011351032 0.002068561 0.015020113 -0.0054515186 -0.0040279552 -0.0030330021 -0.008695125 -0.004174917 0.0026013379 -0.001568002 -0.0048070922 0.012047994 0.010464656 0.004294974 0.012330469 0.010807807 -0.016493222 0.016005464 0.0059668943 0.0075319135 -0.014559356 0.0014663509 0.002431706 0.007624749 0.0020402302 0.009094225 0.014950573 0.0013363103 0.010038547 0.008524658 -0.0033668266 0.00935608 -0.0038461087 0.0055786166 0.0018960438 0.0148519045 -0.013898975 0.003021235 0.0103763025 0.0178133 0.008722824 0.00019222306 0.0144313285 0.010479 0.007840339 0.008373071 0.017345026 0.008831808 0.011532235 -0.01917078 0.0009470285 -0.0017400119 
