the -0.627085 0.292816 1.250433 -0.396598 0.056409 0.157971 1.017483 -0.155604 -0.714375 0.043269 0.714338 0.305140 1.682769 -0.516257 -0.471526 0.057077 0.227436 -0.646954 -0.487285 -0.344827 -0.764312 0.318020 0.793162 -0.372852 0.041885 -0.245095 -0.136935 -0.227179 -0.386109 -0.318465 -0.095884 0.506595 0.032887 -0.723391 -0.107487 -0.240285 -0.583279 -0.900612 -0.178034 0.676188 0.790541 -0.085860 0.075378 -0.101742 0.930698 -0.765370 0.801151 -0.358212 0.628240 0.783172
of -0.426024 0.299546 0.955005 -0.922241 -0.425497 0.150568 0.379599 0.217405 -0.779902 0.355825 0.249156 0.673908 0.893419 -0.676377 -0.562304 -0.121318 0.093205 -0.773752 0.549333 0.190088 -0.181329 0.545358 1.691770 -0.385068 -0.177097 -0.402606 -0.247076 -0.404360 -0.033832 0.144196 -0.473691 -0.148867 -0.034157 0.126585 -0.226370 0.171894 -0.319806 -0.347146 -0.350953 -0.308593 1.083256 -0.501603 0.332214 0.039566 0.034919 -0.101172 0.433498 0.694785 0.618732 -0.175428
and -0.234718 -0.319983 0.858146 -0.764884 -0.377656 0.274446 0.340325 -0.187687 -0.255939 0.197262 0.225791 0.418150 0.356295 -0.322298 -0.651769 -0.448125 0.276243 -0.786076 0.173565 -0.385576 -0.467286 0.629118 1.118884 -0.015653 -0.143134 -0.647405 -0.555882 0.581059 -0.030670 0.792480 0.139924 -0.262536 -0.276490 0.071110 0.213779 -0.124431 -0.285267 -0.218678 -0.431960 -0.142193 0.677340 0.084929 0.142265 0.170844 0.142826 -0.285246 0.102508 0.325895 0.632417 0.100450
in -0.503458 -0.073829 0.695098 -0.125864 -0.069432 0.282356 0.428563 -0.422899 -0.133804 -0.079765 0.360008 -0.053364 0.577352 -0.278235 -0.627669 -0.709439 0.505625 -0.268896 -0.323814 -0.426807 -0.307399 0.410711 1.486517 0.139150 -0.279864 -0.582112 -0.417953 -0.048351 0.254452 0.616965 0.018109 -0.018023 -0.185919 -0.588595 0.052540 -0.470303 -0.306746 0.031465 -0.452434 0.053553 0.520052 -0.112502 0.233646 -0.138597 0.859153 0.226152 0.437053 0.162653 0.701243 0.166627
to -0.624736 0.625611 0.483220 0.570903 0.542299 0.226340 0.316742 -0.310898 -0.352932 0.645477 0.156477 -0.296189 -0.154531 -0.096005 -0.679831 -0.683464 0.051806 -0.053956 -0.174019 -0.101079 -0.973928 0.460698 0.949458 0.477451 -0.599183 -0.066214 -0.421837 0.222314 -0.345160 0.719002 0.502500 -0.029245 -0.178702 0.095918 -0.122324 0.255049 -0.777270 -0.149697 -0.308331 0.610840 0.014864 -0.264021 0.118883 0.521781 0.371427 -0.550487 0.133255 0.116029 0.928269 -0.094412
a -0.335504 0.681875 0.674887 0.195719 -0.163188 -0.028467 -0.243072 -0.026588 -0.373269 0.460735 0.160926 0.373736 0.507538 -0.551132 -0.853175 0.147766 -0.122004 -0.071192 0.359250 0.277567 -0.820852 -0.068710 1.355987 0.399480 -0.351097 -0.153792 -0.367024 -0.891605 -0.166150 0.412329 0.309207 -0.002100 -0.452184 0.081770 -0.450833 0.391354 -0.510177 0.070406 -0.676115 -0.220075 0.542512 -0.097644 0.117664 -0.347082 0.888893 -0.284770 -0.024402 0.107588 0.348413 0.071887
one -1.556530 0.449658 0.628048 -0.568142 -0.632959 -0.532077 0.326513 -0.378051 -0.274192 -0.996608 0.350994 -0.593175 0.671636 0.355209 -1.207840 -0.050316 0.167351 -0.499091 -0.489832 -0.188360 0.420792 0.388607 0.980043 0.211085 -1.331084 -0.382817 -0.385740 -0.272069 0.252008 0.797396 0.322844 0.286207 0.140141 -1.233884 0.114828 0.304745 0.063592 0.074519 -0.564589 0.269256 0.298186 -0.117997 0.072634 -0.619311 1.079209 -0.003084 0.510171 -0.279474 0.756387 0.129307
is -0.195277 0.621356 1.042527 0.467898 0.157196 -0.156080 -0.316862 -0.092168 -0.509153 0.896251 -0.178825 0.318714 0.798231 -0.378336 -0.764067 0.342574 -0.005846 -0.158199 0.144686 0.415638 -1.156387 -0.555038 0.940974 0.114508 -0.476263 -0.155067 -0.137741 -0.920669 -0.158487 0.186720 0.149360 -0.191336 -0.605411 -0.384831 -0.348781 0.343469 -0.444197 -0.415712 -0.623178 0.204159 0.188340 -0.197903 0.136184 -0.139288 0.654409 -0.377108 0.056539 -0.059389 0.359227 0.122564
as -0.154661 -0.246090 0.678476 -0.059836 0.036484 0.499984 -0.022688 -0.140476 -0.092479 -0.042511 0.225847 0.775336 -0.008699 -0.717868 -0.802056 -0.601594 -0.060515 -0.230875 0.207756 -0.061912 -0.388608 0.354376 0.994433 0.410932 -0.181105 -0.567465 -0.224398 0.325545 -0.176453 1.124689 0.302975 -0.255467 -0.520291 0.222248 -0.028196 0.047083 -0.220277 0.237246 -0.612969 0.043515 0.302959 0.387300 0.070416 0.133889 0.650130 -0.094797 0.210975 -0.026083 0.559797 -0.464211
autism -0.333192 -0.039595 0.019599 0.355116 -0.202894 -0.042733 -0.570658 0.719342 0.219603 0.462699 -0.153289 0.486964 -0.052001 0.127652 -0.724716 0.581817 0.709467 -0.311712 0.682873 1.036716 -0.967168 0.009404 0.654067 -0.297146 -0.174120 0.001977 0.029397 0.376288 0.104309 0.477593 0.126897 -0.428494 -0.321726 -0.239692 0.074549 0.959056 0.084193 -0.404191 -0.446702 -0.088668 -0.124745 -0.115273 -0.240489 -0.053103 -0.051698 0.273824 -0.110837 0.893908 1.493285 -0.210255
that 0.003322 0.449425 0.794826 0.488185 0.421484 0.078712 -0.095186 -0.124814 -0.206133 0.766204 -0.297800 0.290558 0.232783 -0.370348 -0.737784 0.110723 -0.052465 -0.297323 0.125085 0.475421 -0.953598 -0.105545 0.878014 0.269499 -0.276544 -0.298082 -0.092549 -0.545757 -0.120125 0.473380 0.215911 -0.158169 -0.614685 -0.147700 0.102317 0.149059 -0.373748 -0.365243 -0.416311 0.266615 0.218089 -0.122105 -0.008957 0.220859 0.753918 -0.252804 0.051047 0.174680 0.363319 0.016075
zero -1.401564 0.831245 0.567595 -0.676618 -0.768652 -1.002380 -0.245335 -0.043555 -0.525080 -0.618799 0.020544 -0.387207 0.537766 0.576384 -1.077725 0.561575 0.157919 -0.668380 -0.190549 0.451764 0.271734 0.215761 0.904145 -0.024370 -1.739763 -0.151412 -0.410038 -0.446061 0.196898 0.844902 0.303276 0.088265 -0.220650 -1.155828 -0.001627 0.825185 0.398217 0.020876 -0.553635 0.166665 0.154304 -0.211879 0.133551 -0.723421 0.785322 0.020408 0.154371 0.011695 0.500561 -0.179683
with -0.572568 0.270866 0.286715 0.659927 0.276565 -0.096111 -0.054071 0.109823 0.204030 0.115563 0.304484 -0.039167 -0.271525 0.114563 -0.839538 -0.430135 0.654545 -0.260128 0.139128 0.285270 -0.708800 0.229060 0.918120 0.079082 -0.529716 -0.140140 -0.265780 0.665594 -0.100145 1.100837 0.428324 -0.135277 -0.270716 -0.294891 0.104174 0.468668 -0.364261 0.090597 -0.452678 0.263888 -0.163105 -0.129550 -0.156321 0.146222 0.179599 0.138116 0.120203 0.317936 1.341183 -0.273607
or -0.297820 -0.210235 0.084409 0.162111 0.201580 0.400308 -0.269969 -0.178921 0.398448 0.300650 -0.103183 0.048020 -0.366164 -0.189873 -0.423298 -0.729085 0.237278 -0.248292 0.051520 0.002854 -0.167740 0.435119 0.909980 0.235903 -0.485806 -0.129836 -0.266652 0.307122 -0.098602 0.918285 0.061697 -0.080246 -0.491267 0.482690 0.111482 0.074022 -0.277876 0.114975 -0.546635 -0.022939 0.061806 -0.239366 0.137756 0.313379 0.334009 0.347215 -0.015062 0.494592 0.338829 -0.411881
for -0.119909 -0.109739 0.551889 0.267855 -0.174372 0.182655 -0.160314 0.026559 -0.225072 0.606514 0.043957 0.525650 0.260143 -0.256792 -0.814346 0.223122 0.315906 -0.294559 0.354310 0.603040 -0.846755 -0.105423 0.663430 -0.047255 -0.082563 -0.220884 -0.107009 -0.096117 -0.185278 0.389795 0.404576 -0.135254 -0.446492 -0.060907 -0.025392 0.310562 -0.228777 -0.222709 -0.388890 0.035598 0.003455 0.126033 0.011163 -0.010426 0.185394 -0.200633 0.202386 0.370105 0.706615 0.103408
s -0.450431 0.164939 0.759091 -0.929641 -0.536663 -0.527245 -0.087991 0.529172 -0.067535 -0.155979 -0.124467 0.595070 0.395717 0.306539 -0.231917 0.431233 0.068468 -0.855221 0.206270 0.516315 -0.187554 0.346953 0.585517 -0.480859 -0.580988 -0.357129 -0.340237 -0.160264 0.166226 0.895206 0.232534 -0.423593 -0.471230 -0.431060 -0.058067 0.282143 0.054401 0.101179 -0.389943 -0.163974 0.652971 0.164440 -0.169832 -0.167725 0.660223 0.056710 -0.137049 0.358185 0.551740 -0.232169
nine -1.399439 0.348547 0.562122 -0.823011 -0.795494 -0.567172 0.341423 -0.305949 -0.308182 -1.139473 0.351829 -0.570018 0.663522 0.418436 -0.932787 0.051407 0.054074 -0.491653 -0.455339 -0.275669 0.696364 0.394772 0.810303 0.161371 -1.225321 -0.368037 -0.397579 -0.315217 0.232574 0.689986 0.248068 0.304862 0.223378 -1.134029 0.054902 0.221316 0.188356 0.235355 -0.469365 0.098524 0.283411 -0.016900 0.090567 -0.787036 0.987355 0.068619 0.400615 -0.431035 0.463301 0.111713
anarchism 0.295164 0.077021 0.845865 -0.365615 -0.582391 0.132693 0.198364 0.687229 -0.787498 0.082192 0.125554 0.906057 0.322079 -0.722340 -0.290710 -0.028158 -0.207537 -0.236877 0.763703 -0.341470 -0.348366 -0.115662 0.299798 0.088669 0.570991 -0.583730 -0.342951 -0.272487 -0.108271 -0.012099 0.251807 -0.162141 0.150998 0.143694 -0.560506 -0.151173 -0.539730 0.767901 -0.396225 -0.418631 0.695293 0.506678 0.097561 -0.658419 -0.011786 -0.187198 -0.254998 -0.562348 -0.089691 0.484175
by -0.309529 0.049442 0.730022 0.086775 0.067692 0.222784 0.073421 -0.203131 -0.308178 0.258393 0.165593 0.286810 0.324745 -0.640150 -0.886448 -0.393941 -0.028011 -0.293048 0.148775 -0.189373 -0.526342 0.240818 0.842245 0.190977 -0.037587 -0.444292 -0.186539 -0.048461 -0.080922 0.566542 0.144822 -0.037333 -0.278847 -0.055342 0.034565 0.058659 -0.206593 0.031060 -0.535084 0.044785 0.354825 0.016797 0.005135 0.029012 0.423802 -0.310373 0.229600 0.101111 0.400459 0.171270
are -0.066489 -0.051211 0.431417 0.486951 0.342388 0.244665 -0.226416 0.094886 -0.133721 0.670760 -0.295067 0.185748 -0.098609 -0.214198 -0.683723 -0.281608 0.488154 -0.007150 0.192923 0.649565 -0.648113 0.050501 0.854387 0.116312 -0.179476 -0.178205 0.001612 0.154345 -0.045550 0.659428 0.123773 -0.274496 -0.382051 -0.053313 0.223929 0.096512 -0.157195 -0.166432 -0.312770 0.124757 -0.293904 -0.101268 0.019812 0.475877 0.031099 0.147115 0.312588 0.318618 0.869613 -0.234279
autistic -0.064266 0.104380 0.425174 0.802855 0.428591 0.260561 -0.108732 0.248065 0.126581 0.501096 0.201487 0.185939 -0.157965 -0.058207 -0.278716 -0.419338 0.656517 -0.027602 0.284980 0.184770 -1.191224 -0.132702 0.757133 -0.031791 0.307822 -0.109736 0.067724 0.555875 0.056704 0.456075 0.386049 -0.311234 0.055115 -0.123576 -0.163113 0.203817 -0.579145 -0.140828 -0.219468 0.203517 -0.047262 -0.097290 -0.136500 0.540618 -0.025422 -0.032026 0.126384 0.403156 1.480216 -0.060767
an -0.339503 0.142000 0.483671 0.035314 0.072597 -0.005382 -0.107104 -0.043004 -0.171888 0.323709 0.130188 0.208390 0.508696 -0.190001 -0.517358 0.087874 0.122356 -0.251541 0.150761 0.046173 -0.677569 -0.010430 0.782134 0.064520 -0.062268 -0.186553 -0.011888 -0.239421 0.082525 0.183712 0.081277 -0.146295 -0.155976 -0.187437 -0.216554 0.338406 -0.121348 -0.264056 -0.426117 0.024191 0.340147 -0.171238 0.131050 -0.041203 0.223048 -0.335527 0.076221 0.282729 0.559830 0.027527
anarchists 0.050419 -0.100273 0.728415 0.063885 0.008462 0.446762 0.154130 0.137045 -0.249425 0.223277 0.075300 0.415277 0.028000 -0.487846 -0.524371 -0.270819 0.143514 -0.243514 0.274232 -0.044938 -0.434192 0.190665 0.648811 0.165906 0.322010 -0.395100 -0.250519 0.125499 -0.037361 0.431481 0.152063 -0.267764 -0.007979 0.135171 0.151444 -0.209536 -0.301164 0.068034 -0.213284 -0.071480 0.163483 0.204508 0.031466 0.145896 0.208696 -0.118137 0.253642 -0.037424 0.560113 -0.011408
it -0.023291 0.325389 0.663815 0.534011 0.351297 0.118089 -0.090854 -0.365984 -0.216745 0.685976 -0.057165 0.155599 0.359721 -0.353605 -0.685497 0.085463 -0.144279 -0.041691 0.084862 0.202221 -0.822754 -0.215160 0.727773 0.325163 -0.223039 -0.231785 -0.169290 -0.571940 -0.124974 0.277062 0.258784 -0.067859 -0.524179 -0.097306 -0.018451 0.083526 -0.408816 -0.345857 -0.424259 0.254668 0.191437 -0.091774 0.082685 0.123653 0.646560 -0.380976 -0.013428 -0.031995 0.207593 0.122252
on -0.515248 0.211909 0.442745 -0.220181 -0.306355 -0.157589 0.053976 0.011690 -0.242982 -0.051920 0.163904 0.074810 0.704209 0.017603 -0.644165 0.325522 0.043180 -0.289458 0.022756 0.175031 -0.217470 -0.069802 0.427223 0.035408 -0.301832 -0.129158 -0.008025 -0.468756 0.054414 0.232454 0.106924 0.067648 -0.068968 -0.413797 -0.121927 0.228962 -0.227313 -0.160336 -0.400842 -0.037848 0.254300 -0.010037 -0.048500 -0.182983 0.478421 -0.195340 0.191165 -0.041237 0.407673 0.057246
be 0.225071 0.374837 0.292836 0.967442 0.860622 0.333721 -0.023723 -0.390762 -0.040467 0.781597 -0.000990 0.028002 -0.385246 -0.514027 -0.644660 -0.631505 -0.156251 -0.066618 0.261096 -0.060172 -1.081407 0.154802 0.657309 0.334291 -0.080863 -0.234004 -0.224654 0.168338 -0.357371 0.679737 0.399385 -0.138084 -0.508581 0.260241 0.248251 0.094298 -0.649506 -0.134663 -0.351536 0.527444 0.085452 -0.179274 -0.099841 0.539792 0.197730 -0.327663 -0.097837 0.268596 0.524485 0.031174
two -1.137435 0.401467 0.505848 -0.510891 -0.607071 -0.552615 -0.047782 -0.222989 -0.370712 -0.599913 0.127752 -0.357784 0.556027 0.258234 -1.065786 0.119873 0.178922 -0.446342 -0.308274 0.074824 0.319180 0.220450 0.815221 0.109966 -1.251163 -0.303736 -0.284172 -0.232144 0.249481 0.752443 0.243468 0.159533 -0.081634 -0.998255 0.036614 0.415837 0.256445 0.123587 -0.587192 0.144303 0.184027 -0.040057 0.148066 -0.560014 0.680948 0.021360 0.271140 -0.048425 0.452524 0.009542
from -0.606876 0.270168 0.447793 0.125936 -0.109221 -0.253137 -0.071221 -0.157853 -0.292458 0.075901 0.067915 -0.159331 0.406694 0.141605 -0.765175 0.178527 0.188648 -0.233600 -0.167337 0.170934 -0.374536 -0.018777 0.498977 0.166243 -0.679563 -0.209496 -0.197391 -0.119003 0.032994 0.492257 0.267429 0.058896 -0.194056 -0.595418 -0.030184 0.296256 -0.115413 -0.144506 -0.432600 0.288626 0.008709 -0.062240 0.055274 -0.181423 0.505081 -0.224939 0.146831 0.012576 0.541264 0.117510
anarchist -0.081203 -0.040847 0.417628 -0.399400 -0.048959 0.043011 0.161298 -0.080705 -0.176288 0.255124 0.140648 0.241479 0.587730 -0.143810 -0.061220 0.081061 -0.010083 -0.265113 0.185951 -0.333666 -0.400860 0.159260 0.540697 -0.065530 0.322117 -0.264466 -0.090190 -0.222427 0.192153 -0.196523 -0.135618 -0.277377 -0.013880 -0.026524 -0.189915 -0.037055 -0.084050 -0.279421 -0.074013 -0.200375 0.560200 -0.165364 0.189226 -0.077424 -0.004540 -0.379722 -0.013430 0.174956 0.157749 0.152148
not 0.132746 0.177445 0.374458 0.850417 0.487634 0.402414 -0.505492 -0.041734 0.093959 0.711797 -0.238714 0.247901 -0.144214 -0.351090 -0.658278 -0.006171 0.081679 0.107185 0.298530 0.515648 -0.940976 -0.172638 0.588137 0.265922 -0.110009 -0.039625 -0.013992 -0.106635 -0.207017 0.470996 0.291849 -0.114223 -0.499388 0.232487 0.189914 0.271684 -0.434652 -0.406222 -0.421198 0.365394 -0.232271 -0.076718 0.004294 0.392222 0.185212 -0.053180 -0.052643 0.185996 0.561526 -0.145526
was -0.504573 0.163934 0.615922 -0.235893 -0.209027 -0.106702 0.204920 -0.200118 -0.406328 -0.262964 0.281756 0.007309 0.764098 -0.166977 -0.584302 0.036666 -0.186806 -0.142794 -0.155405 -0.356306 -0.068833 0.040533 0.429430 0.170050 -0.184334 -0.284617 -0.104898 -0.409572 0.068594 0.061014 0.062392 0.228805 0.026390 -0.489267 -0.208337 -0.044382 -0.109724 0.053628 -0.406852 0.073964 0.392953 0.030382 0.069273 -0.417043 0.576212 -0.296432 0.209926 -0.351555 -0.003615 0.387162
this -0.196738 0.251158 0.771113 0.308774 0.098808 0.097586 0.078752 -0.283707 -0.485089 0.547932 0.091062 0.141756 0.535097 -0.338174 -0.671064 0.006350 0.071683 -0.259914 -0.000052 0.094484 -0.809417 -0.164085 0.572761 0.062985 -0.182321 -0.214744 -0.168630 -0.364246 -0.142903 0.187574 0.174593 0.018600 -0.285649 -0.199732 -0.114322 0.027570 -0.451988 -0.278681 -0.313569 0.262322 0.192931 -0.053626 0.074994 0.085146 0.352022 -0.434254 0.236719 0.021941 0.329233 0.252491
have 0.074856 0.182103 0.392583 0.652950 0.497515 0.296381 0.060789 -0.149669 -0.034928 0.354322 0.146714 0.165961 -0.388394 -0.245483 -0.416864 -0.394353 0.215712 -0.089273 0.178095 0.062203 -0.769144 0.069672 0.630487 0.227520 -0.036216 -0.288892 -0.248002 0.321132 -0.060861 0.754113 0.333810 -0.204939 -0.227747 -0.046637 0.162657 -0.054224 -0.440033 0.052487 -0.212996 0.148371 -0.000031 -0.008298 -0.027791 0.375158 0.359460 -0.072816 0.082370 0.190556 0.728066 -0.204984
some 0.113858 -0.144034 0.511702 0.375544 0.269277 0.471714 0.058374 0.127122 -0.111411 0.519818 0.104098 0.506860 -0.169397 -0.527511 -0.570363 -0.477919 0.234167 -0.179148 0.392675 0.162568 -0.565383 0.258842 0.797493 0.123980 0.295066 -0.267190 -0.165443 0.385196 -0.203904 0.634499 0.156860 -0.324433 -0.186411 0.294883 0.140651 -0.016965 -0.292213 0.006622 -0.231844 -0.010348 0.010219 0.058709 0.016701 0.370011 -0.029988 -0.110317 0.213138 0.301699 0.790106 -0.202912
they 0.371037 0.195921 0.283895 0.923014 0.695592 0.334085 -0.087060 -0.240341 -0.088973 0.486781 -0.138507 0.061385 -0.438636 -0.334461 -0.604215 -0.406139 0.100185 0.046122 0.049731 0.255771 -0.775727 -0.019651 0.397175 0.366816 -0.115219 -0.169225 -0.115648 0.149145 -0.309180 0.709003 0.298848 -0.053766 -0.475117 0.270453 0.306759 -0.060895 -0.496054 -0.179135 -0.284325 0.487199 -0.311088 0.010225 -0.027756 0.612881 0.171880 -0.113428 0.042872 0.047486 0.414372 -0.196133
many 0.043162 -0.038346 0.720150 0.423449 0.314673 0.451808 0.014120 0.039283 -0.196012 0.582864 -0.055233 0.399050 0.055814 -0.476605 -0.624163 -0.325687 0.248101 -0.175648 0.249232 0.221648 -0.827408 0.096884 0.840110 0.183425 0.194152 -0.407931 -0.150405 0.084826 -0.090665 0.552371 0.194174 -0.238800 -0.262329 0.134825 0.084651 -0.110724 -0.439891 -0.136904 -0.332830 0.111721 0.103184 0.058118 0.050170 0.373700 0.234170 -0.154386 0.239385 0.184885 0.759602 -0.028968
people 0.072346 -0.013592 0.289650 0.810301 0.583170 0.337761 -0.119699 0.203618 0.215135 0.614963 0.057696 0.237543 -0.432096 -0.176710 -0.316263 -0.493412 0.606342 -0.155158 0.362430 0.336988 -1.157990 0.120941 0.705617 -0.067513 0.155640 -0.166673 -0.287143 0.697350 -0.142622 0.791555 0.333257 -0.357658 -0.200167 0.225004 0.133210 0.079340 -0.635365 -0.143289 -0.237211 0.185637 -0.113048 -0.063131 -0.119342 0.665490 -0.112210 0.098995 0.044730 0.557269 1.356159 -0.233322
eight -1.241322 0.252704 0.331413 -0.574309 -0.607017 -0.557638 0.242652 -0.452135 -0.082158 -0.967839 0.177655 -0.643925 0.507635 0.436017 -0.802415 0.124240 0.042789 -0.280558 -0.505948 -0.202606 0.603033 0.278727 0.531660 0.276253 -1.084329 -0.259521 -0.353985 -0.367313 0.339364 0.428772 0.262021 0.219442 0.159472 -1.039257 0.190426 0.136857 0.289876 0.053327 -0.295672 0.119068 0.153108 -0.026079 0.089073 -0.669510 0.945144 0.048235 0.302246 -0.379088 0.239001 0.115010
at -0.524553 0.161316 0.552120 -0.109688 -0.069259 -0.122622 -0.018283 -0.463357 -0.291446 0.017534 0.127818 -0.052936 0.342863 -0.390232 -0.623890 -0.300971 0.039965 -0.203671 -0.098115 -0.229017 -0.236972 0.162607 0.711563 0.022703 -0.461549 -0.251930 -0.037603 -0.159133 0.026789 0.598217 0.081494 0.085555 -0.321690 -0.210429 0.053296 0.094306 -0.114401 0.097300 -0.430652 0.072931 0.261375 -0.138685 0.095954 -0.050986 0.331426 -0.125519 0.197582 0.046307 0.158368 0.085614
three -1.189793 0.282918 0.327620 -0.643236 -0.586285 -0.499352 0.029232 -0.368857 -0.122561 -0.712100 0.146990 -0.474257 0.346968 0.333497 -0.781673 -0.068996 0.055350 -0.425968 -0.440165 -0.185963 0.623939 0.331292 0.730207 0.143251 -1.253337 -0.194770 -0.362788 -0.222338 0.170495 0.645623 0.138948 0.237251 -0.033891 -0.746962 0.030748 0.304116 0.250167 0.140642 -0.442540 0.015544 0.122061 -0.107472 0.145731 -0.542149 0.672300 0.129974 0.221219 -0.123338 0.197404 -0.068746
also 0.200243 0.330706 0.756469 0.289736 -0.029922 0.204328 0.123624 0.122754 -0.636347 0.518251 0.070362 0.518004 0.148493 -0.585509 -0.598171 -0.115580 -0.109986 -0.233830 0.394911 -0.087973 -0.923691 -0.168066 0.437311 0.215883 0.166061 -0.334644 -0.361439 -0.267671 -0.309395 0.183947 0.414971 -0.026962 -0.228128 0.056678 -0.237061 0.001801 -0.648572 0.199461 -0.370774 0.070425 0.348823 0.276347 0.034635 -0.152582 0.178669 -0.386895 -0.093358 -0.382911 0.123265 0.473582
which -0.234170 0.330209 0.590471 0.091775 0.126455 -0.110534 0.106079 -0.142109 -0.287348 0.243956 0.048234 0.083585 0.437547 -0.166478 -0.472973 -0.054720 0.043051 -0.229023 -0.147598 0.025360 -0.447322 -0.029795 0.652990 0.010737 -0.305271 -0.157523 -0.099588 -0.337804 -0.037269 0.193062 0.001424 0.019816 -0.278808 -0.327085 -0.077223 0.088363 -0.211062 -0.194941 -0.329148 0.133379 0.179505 -0.136412 0.061430 -0.003380 0.365346 -0.205300 0.196134 0.016067 0.258131 0.094088
six -1.219516 0.297862 0.305525 -0.811255 -0.722511 -0.536703 0.350706 -0.314931 -0.232511 -1.123484 0.348616 -0.571048 0.676169 0.428162 -0.693238 0.189228 -0.035645 -0.374608 -0.476349 -0.235720 0.900712 0.270414 0.528939 0.146774 -1.065915 -0.223615 -0.257141 -0.408264 0.216440 0.421957 0.062388 0.377896 0.288703 -0.992471 0.047865 0.200402 0.180049 0.133319 -0.303618 0.044814 0.209038 -0.069054 0.077627 -0.757376 0.815850 0.100067 0.346539 -0.412335 0.106563 0.052316
other -0.194078 -0.047605 0.297436 0.206672 0.134924 0.301096 0.056208 0.057484 0.034961 0.243462 0.056134 0.079389 -0.123405 -0.203001 -0.411294 -0.306370 0.337264 -0.196777 0.183000 0.111715 -0.578540 0.243180 0.533279 0.022230 -0.050157 -0.237946 -0.348707 0.357734 -0.069847 0.458277 0.213568 -0.171495 -0.064866 0.157406 0.230113 0.002203 -0.375851 -0.200903 -0.157975 0.107160 0.061640 -0.005510 0.059253 0.359716 0.032199 0.047451 0.130652 0.236406 0.805208 -0.020543
social -0.196032 -0.327178 0.007965 -0.407290 -0.097517 0.224350 0.027762 -0.363807 0.174315 -0.087090 0.063931 -0.052499 -0.090673 -0.155545 -0.292121 -0.724159 0.047544 -0.340232 -0.233938 -0.363190 0.347991 0.480859 0.609402 0.131871 -0.355403 -0.281592 -0.235131 0.389307 0.120579 0.563093 -0.079723 -0.138641 -0.061393 0.129061 0.119482 -0.162244 0.064049 0.164610 -0.256221 -0.038952 0.290753 0.050289 0.196218 0.113127 0.110932 0.283471 0.094921 0.289573 -0.082288 -0.267323
such 0.227367 -0.316048 0.314225 0.179206 0.237175 0.538583 -0.037427 -0.112685 0.020248 0.228211 0.095015 0.540146 -0.276409 -0.581130 -0.396091 -0.550057 -0.010737 -0.042168 0.215504 0.012388 -0.358813 0.204556 0.586087 0.290297 0.139510 -0.370361 -0.172118 0.463774 -0.181183 0.690401 0.214409 -0.212968 -0.393053 0.444152 0.110915 -0.096869 -0.209708 0.092189 -0.282213 0.022524 0.079772 0.276039 0.029449 0.358001 0.179709 -0.040321 0.087993 0.077871 0.378739 -0.312783
can 0.311813 0.147877 0.261041 0.765233 0.614927 0.309119 0.027316 -0.113530 0.036518 0.648794 0.055311 0.195384 -0.304702 -0.383976 -0.385648 -0.477862 0.089616 -0.160197 0.222168 0.028392 -1.004351 0.090011 0.388829 0.141747 0.134811 -0.165603 -0.178388 0.318173 -0.276093 0.484432 0.316226 -0.129947 -0.383163 0.299753 0.135911 -0.013726 -0.591945 -0.094589 -0.211877 0.365242 0.054205 0.027051 -0.119070 0.462208 0.019814 -0.191194 -0.039277 0.231594 0.524169 0.028951
has 0.043710 0.272660 0.471187 0.328366 0.139604 0.167932 0.078774 -0.098304 -0.305779 0.563085 0.046113 0.243554 0.183224 -0.367171 -0.392011 0.038936 -0.027956 -0.067979 0.204958 -0.011485 -0.652998 -0.051365 0.580133 0.244084 0.118428 -0.253814 -0.089880 -0.355849 0.007360 0.198281 0.130265 -0.103012 -0.227635 -0.005619 -0.176474 -0.038132 -0.327640 0.035085 -0.232299 -0.071176 0.295319 -0.039793 0.041116 -0.003092 0.374904 -0.272926 -0.050317 0.034562 0.210755 0.109199
their -0.041228 0.151405 0.390594 0.282031 0.318976 0.292299 0.115198 -0.135317 -0.151297 0.421308 0.082361 0.194593 -0.218141 -0.239336 -0.501270 -0.523006 0.133884 -0.169626 0.084248 0.067585 -0.516041 0.267360 0.772414 0.144198 -0.136745 -0.170515 -0.199449 0.206277 -0.114178 0.648037 0.165263 -0.233515 -0.259581 0.150697 0.100193 -0.019238 -0.412186 -0.009224 -0.277592 0.187796 0.056785 -0.118634 0.079146 0.505945 0.120312 -0.097532 0.184553 0.291591 0.587391 -0.249282
abu -0.214382 0.348180 0.144234 -0.679845 -0.492229 -0.292677 0.109440 0.109459 -0.373334 -0.410597 0.131014 -0.322578 0.333954 0.212298 0.352409 0.170224 0.100227 -0.175856 -0.037612 -0.125278 0.549402 0.172129 0.352380 -0.294606 -0.439863 0.075445 -0.018669 -0.074861 0.076925 -0.112439 -0.446663 0.151600 0.286652 -0.458865 -0.026291 0.035287 0.109116 0.097801 0.117426 -0.125856 0.224317 -0.302368 0.219211 -0.527756 -0.151186 0.337406 0.120799 -0.082126 -0.325816 -0.138235
dhabi -0.199527 0.354121 0.154042 -0.642551 -0.483159 -0.297976 0.063976 0.102386 -0.371734 -0.393918 0.114318 -0.310806 0.320905 0.217942 0.331703 0.199325 0.072010 -0.152457 -0.027650 -0.105162 0.540325 0.130965 0.346536 -0.276100 -0.469012 0.074337 -0.013566 -0.091185 0.071682 -0.068913 -0.415290 0.127853 0.257409 -0.439155 -0.021795 0.069614 0.111468 0.099065 0.089634 -0.141660 0.197329 -0.293627 0.229178 -0.536754 -0.133916 0.337528 0.096668 -0.113043 -0.357630 -0.160104
most -0.246131 0.050724 0.674405 -0.063462 -0.022335 0.121735 0.169179 -0.231177 -0.301096 0.134033 0.146516 0.167831 0.540058 -0.296342 -0.510568 -0.145920 0.018818 -0.179043 -0.027295 -0.185994 -0.352708 0.055945 0.810692 0.090058 -0.035832 -0.378939 -0.185526 -0.263187 0.068844 0.179905 0.036448 -0.093187 -0.118017 -0.227980 -0.097425 -0.156872 -0.163212 -0.114269 -0.335512 0.022903 0.362268 -0.034664 0.097185 -0.041972 0.427334 -0.201306 0.217571 -0.002876 0.369565 0.158008
more -0.182166 0.133861 0.329445 0.291743 0.075734 0.095039 -0.131020 -0.142858 -0.142771 0.493471 -0.006891 0.018396 0.205641 -0.251212 -0.477883 -0.173798 0.127718 -0.063339 0.023071 0.197210 -0.529877 0.002212 0.616375 0.151906 -0.213923 -0.033608 -0.167067 -0.193503 -0.075699 0.339233 0.183679 -0.097704 -0.358916 -0.036194 -0.034659 0.057271 -0.284734 -0.069878 -0.317994 0.048518 0.004116 -0.055558 0.036463 0.068851 0.255343 -0.077735 0.188862 0.095913 0.346479 0.037740
may 0.125118 0.244660 0.201476 0.748884 0.614594 0.317048 -0.032897 -0.207422 0.023135 0.516799 0.023982 0.017119 -0.477570 -0.217154 -0.541224 -0.534819 0.063303 -0.047947 0.194314 0.061738 -0.817189 0.148825 0.586719 0.242384 -0.142145 -0.118025 -0.219905 0.336330 -0.231263 0.685730 0.380359 -0.154193 -0.310929 0.176369 0.220238 0.080102 -0.548114 -0.104618 -0.284964 0.375316 -0.072439 -0.132131 -0.047272 0.528392 0.104933 -0.126791 -0.006358 0.274743 0.671519 -0.112424
often 0.039296 0.090318 0.346838 0.707514 0.454082 0.254329 -0.111348 -0.069539 0.051825 0.567672 0.056452 0.212559 -0.100039 -0.326556 -0.457341 -0.351344 0.233116 -0.033726 0.157714 0.128358 -0.859487 -0.064551 0.531483 0.198544 0.025426 -0.133523 -0.099345 0.215912 -0.168971 0.555133 0.273609 -0.218865 -0.342614 0.118628 -0.009045 0.081773 -0.419473 -0.101473 -0.322568 0.191184 -0.089934 0.021371 -0.056798 0.336655 0.143306 -0.143589 0.061480 0.156136 0.700042 -0.161997
see 0.262087 -0.105858 0.565759 0.048815 -0.220782 0.306160 0.132733 0.169337 -0.499542 0.215893 0.113608 0.584183 0.125946 -0.499008 -0.338864 -0.127565 -0.083119 -0.185669 0.369335 -0.159745 -0.551969 -0.107728 0.121290 0.150363 0.365838 -0.331247 -0.319214 -0.071334 -0.258676 0.105701 0.367895 -0.033475 -0.114486 0.180319 -0.216229 -0.139638 -0.450096 0.291100 -0.231601 -0.064397 0.275026 0.435800 0.066338 -0.205621 -0.022920 -0.241403 -0.043562 -0.431628 -0.003303 0.436095
five -1.065377 0.345517 0.151941 -0.517489 -0.588198 -0.487113 0.037598 -0.251365 -0.136645 -0.837005 0.102035 -0.477645 0.210891 0.299107 -0.668048 0.083597 -0.051336 -0.202711 -0.293919 -0.017316 0.598376 0.248211 0.338939 0.195620 -1.118044 -0.119676 -0.313691 -0.247784 0.167825 0.429159 0.267960 0.181704 0.064385 -0.699457 0.128218 0.349719 0.317312 0.119146 -0.264652 0.093915 0.039518 0.007270 0.120551 -0.533818 0.671756 0.124571 0.199318 -0.278104 0.157163 -0.030930
who -0.018684 -0.000986 0.307042 0.600736 0.338228 0.189948 -0.178658 0.032844 -0.125133 0.603299 -0.128755 0.159950 -0.095892 -0.190558 -0.535347 -0.190888 0.307098 0.113151 0.169360 0.466983 -0.648896 -0.106608 0.613689 0.187714 -0.013264 -0.071977 0.001870 0.066505 -0.138878 0.469034 0.168003 -0.172386 -0.314746 0.105902 0.017536 0.089514 -0.210872 -0.020071 -0.316329 0.083942 -0.311005 -0.024688 0.008582 0.295062 0.043463 -0.047702 0.197536 0.271750 0.670509 -0.143555
about -0.556301 0.231677 0.250212 0.031884 -0.130843 -0.323938 -0.230481 -0.157858 -0.096510 0.027929 -0.060978 -0.131482 0.213294 0.170266 -0.618786 0.185858 0.067530 -0.149310 -0.071531 0.191538 -0.237135 -0.119436 0.374602 0.032294 -0.657700 -0.014353 -0.120794 -0.195546 0.016197 0.305855 0.156969 -0.009568 -0.226162 -0.436795 -0.039491 0.450628 0.162792 -0.093804 -0.405316 0.095205 -0.091865 -0.108623 -0.008835 -0.243275 0.266520 -0.112242 0.031412 0.061290 0.357095 -0.029124
seven -1.130346 0.294455 0.338847 -0.721312 -0.594499 -0.560503 0.227336 -0.276366 -0.125803 -0.924978 0.187236 -0.510690 0.555844 0.450461 -0.594951 0.167086 0.052043 -0.337782 -0.486705 -0.155513 0.617909 0.304996 0.438961 0.051380 -1.021212 -0.153720 -0.237570 -0.313953 0.236822 0.385611 0.111016 0.265675 0.158131 -0.969961 0.085017 0.209215 0.299582 0.082953 -0.269351 0.096651 0.194319 -0.040212 0.042934 -0.628715 0.797578 0.039812 0.286152 -0.292660 0.236233 0.086954
anarcho 0.331816 -0.354556 0.024030 -0.000792 -0.146764 0.163647 -0.018257 0.435072 -0.189672 -0.260523 0.034583 0.229092 -0.051835 -0.118251 0.381683 -0.124327 -0.263464 0.117795 0.462999 -0.103239 0.142242 0.024636 -0.064014 0.131518 0.420320 -0.302999 -0.189484 0.414263 -0.106249 0.018455 0.047104 -0.084042 0.199966 0.205630 -0.277512 -0.241265 -0.110602 0.479301 -0.129747 -0.090113 0.213421 0.182860 0.114516 -0.364690 -0.419324 0.128301 -0.219701 -0.240202 0.091349 0.020095
four -1.198307 0.394270 0.101862 -0.566501 -0.650313 -0.621931 0.007320 -0.178705 -0.089789 -0.866804 0.084550 -0.570875 0.331125 0.480822 -0.659504 0.296197 0.082407 -0.290936 -0.341648 0.068598 0.609457 0.206966 0.319419 0.085026 -1.171063 -0.085561 -0.307034 -0.303192 0.256871 0.330380 0.202104 0.219409 0.132951 -0.859535 0.130006 0.403815 0.391633 -0.013658 -0.215007 0.081878 0.055871 -0.075200 0.106730 -0.599677 0.677312 0.171823 0.206413 -0.191945 0.239030 0.016205
there -0.126857 0.253107 0.498270 0.453250 0.159021 -0.012222 -0.336663 -0.076279 -0.255563 0.601488 -0.269992 0.128765 0.147210 -0.229127 -0.738170 0.044266 0.161885 -0.064111 0.138843 0.499001 -0.647019 -0.250077 0.747673 0.207379 -0.377424 -0.142640 -0.080883 -0.361452 -0.070278 0.400977 0.178772 -0.149098 -0.454106 -0.225437 -0.011267 0.202641 -0.157547 -0.141472 -0.439088 0.094791 -0.112884 -0.076381 0.045170 0.056013 0.323928 -0.041640 0.115967 0.060557 0.396906 -0.034690
first -0.410719 0.020762 0.318281 -0.307834 -0.068527 -0.028131 0.303476 -0.234769 -0.177891 -0.293116 0.277051 -0.080239 0.625925 -0.111463 -0.183231 -0.038167 -0.107336 -0.086329 -0.278247 -0.403812 0.047567 0.162440 0.248000 0.029562 -0.061522 -0.145180 -0.030989 -0.194455 0.084689 -0.151868 -0.101795 0.185346 0.078770 -0.366229 -0.073688 -0.142886 0.009745 -0.163417 -0.113537 0.120675 0.347583 -0.070650 0.073165 -0.250697 0.471326 -0.213463 0.235149 -0.204925 -0.073630 0.239837
but -0.182449 0.143219 0.261333 0.193618 0.148202 0.100738 -0.064412 -0.127388 -0.088038 0.188912 0.006689 0.044379 0.156747 -0.187181 -0.371385 -0.083129 -0.040150 -0.064809 0.028438 0.008001 -0.279817 0.039357 0.431405 0.150986 -0.173893 -0.098982 -0.082238 -0.167358 -0.097189 0.322195 0.118944 0.047207 -0.239080 -0.057611 -0.011585 0.036732 -0.227351 -0.041026 -0.298191 0.119688 0.117869 -0.092164 0.017976 -0.001769 0.313234 -0.019935 0.045486 -0.004699 0.147257 0.024790
albedo 0.045838 0.050248 0.264196 -0.263045 -0.079778 -0.086749 0.131463 -0.004993 -0.204575 0.149858 0.039123 0.183055 0.525441 -0.141848 0.186270 0.145030 -0.072030 -0.094423 -0.035239 -0.106219 -0.043365 -0.156390 -0.016057 -0.223119 0.156769 0.064181 0.020153 -0.279900 -0.034109 -0.389457 -0.243839 0.057244 0.026859 -0.023889 -0.175857 -0.088876 0.018890 -0.164416 0.007583 -0.112568 0.187008 -0.087174 0.019552 -0.121765 -0.031699 -0.210243 0.085943 -0.104843 -0.249170 0.126993
its -0.035439 -0.063561 0.266245 -0.119556 0.040848 0.130471 0.234040 -0.085391 -0.074292 0.172170 0.107033 0.185628 0.268777 -0.227912 -0.106972 -0.113180 0.095166 -0.128501 -0.002133 -0.119111 -0.218535 0.145312 0.224617 -0.056629 0.121960 -0.102003 -0.047826 0.086521 -0.079016 -0.000252 0.006558 -0.006001 -0.113172 0.010497 -0.029899 -0.052481 -0.110565 -0.191292 -0.029665 -0.009361 0.210864 -0.014925 -0.024669 0.110609 0.064844 -0.213044 0.124386 0.076871 0.148418 0.136763
movement -0.007484 -0.047466 0.269297 -0.193559 0.017218 0.131019 0.204863 -0.122909 -0.100894 0.146783 0.182019 0.152631 0.426879 -0.162143 0.013533 -0.000833 -0.007032 -0.119711 0.011519 -0.275883 -0.273342 0.109532 0.315351 -0.024376 0.275423 -0.171652 -0.014332 -0.089378 0.033392 -0.138943 -0.111548 -0.039624 0.005538 -0.009105 -0.152320 -0.132625 -0.108993 -0.199608 -0.029159 -0.065989 0.366632 -0.047329 0.102568 -0.011465 0.086416 -0.297318 0.055701 0.041809 0.055423 0.176206
disorder 0.091550 0.116482 -0.100338 0.095544 -0.126973 0.104928 -0.543064 0.349681 0.309093 0.217594 -0.304107 0.135339 -0.215778 0.020943 0.071896 0.409754 -0.008188 0.130723 0.398124 0.375121 -0.350644 -0.173629 -0.157518 0.019131 0.039205 0.160598 0.022399 -0.161838 0.060873 -0.140503 0.074369 -0.138080 -0.131875 0.297302 -0.033656 0.433127 -0.124503 -0.238189 0.013203 -0.078855 -0.001343 0.036728 -0.045450 0.068328 0.066032 0.095670 -0.414028 0.143720 0.186929 0.002497
his -0.190780 -0.239676 0.043932 -0.306533 -0.142639 0.012348 0.094475 -0.094595 0.174852 -0.160694 -0.077196 -0.024742 0.102172 0.127485 -0.052855 -0.140499 0.083243 -0.140398 -0.081745 -0.125764 0.246648 0.205250 0.224899 -0.035880 -0.133333 -0.170551 -0.062243 0.042020 0.203760 0.153603 -0.123335 -0.029643 -0.029620 -0.107905 0.124532 -0.160565 0.083521 -0.013939 -0.047157 -0.128934 0.122917 -0.050379 0.055905 -0.024177 0.200339 0.142382 0.078325 0.161918 0.083142 -0.078321
were -0.426390 -0.000048 0.241969 -0.241772 -0.142322 -0.067215 0.129296 -0.174906 -0.078904 -0.213412 0.101439 -0.176901 0.284056 0.076821 -0.312266 -0.123245 0.099988 -0.189788 -0.203419 -0.145011 0.123323 0.241454 0.450222 0.048853 -0.374435 -0.175682 -0.138220 -0.056261 0.082760 0.330708 -0.005820 0.051995 -0.052909 -0.304828 0.065655 -0.045604 -0.027640 -0.022394 -0.202361 0.044411 0.146148 -0.103336 0.083199 -0.154211 0.380442 0.057159 0.156851 -0.004569 0.148690 0.008161
all -0.045648 0.068616 0.440190 0.088338 0.128921 0.100667 0.010813 -0.162724 -0.163526 0.304174 -0.052313 0.127338 0.205907 -0.275350 -0.365152 -0.099590 0.073309 -0.176678 -0.005731 0.056500 -0.385569 0.043065 0.530474 0.003564 -0.096725 -0.173138 0.004893 -0.120769 -0.034846 0.215072 0.035750 -0.048617 -0.228375 -0.094666 0.111558 -0.012175 -0.140651 -0.207567 -0.214034 0.108588 0.115203 -0.103309 0.055347 0.114897 0.207810 -0.099237 0.149474 0.107674 0.196408 0.057890
children 0.116361 0.010095 0.146328 0.779534 0.455432 0.270655 -0.041442 0.162843 0.180203 0.433055 0.156801 0.159784 -0.476470 -0.019055 -0.205387 -0.524141 0.496964 0.040954 0.232923 0.159325 -0.734542 -0.012216 0.482855 0.048751 0.245754 -0.044052 -0.019580 0.631858 -0.042683 0.543669 0.282899 -0.287876 -0.038212 0.123890 0.012517 0.059540 -0.398240 0.047515 -0.114078 0.147136 -0.234187 -0.046585 -0.121757 0.520226 -0.168478 0.063472 0.055299 0.360389 0.987174 -0.234720
state -0.025342 0.110596 0.440678 0.020442 0.153197 0.154613 0.161825 -0.008698 -0.234907 0.340866 0.125369 0.280009 0.309745 -0.298146 -0.243989 -0.095009 -0.014830 -0.177226 0.058843 0.047306 -0.454197 0.103566 0.459414 0.061546 0.030242 -0.148599 -0.089950 -0.039729 -0.185389 0.162092 0.031260 -0.035406 -0.161823 0.109560 -0.087094 0.014558 -0.270435 -0.240519 -0.152169 0.110909 0.246107 -0.050716 0.020454 0.172358 0.191894 -0.291677 0.146267 0.069942 0.268040 0.024461
these -0.007348 0.043160 0.156675 0.123073 0.185563 0.145509 0.013568 0.016227 -0.100585 0.243241 -0.038516 0.107737 0.046030 -0.117421 -0.236607 -0.118851 0.153513 -0.034843 0.082190 0.235084 -0.199853 0.091081 0.402767 -0.050276 -0.022518 -0.027637 0.040296 0.075002 -0.027807 0.118412 -0.028462 -0.071410 -0.049095 -0.028421 0.067309 0.037452 -0.063875 -0.139160 -0.037766 0.102598 -0.018560 -0.131544 0.012087 0.238894 -0.079924 -0.008487 0.195592 0.201373 0.383559 -0.073140
form -0.141345 0.181419 0.468552 -0.126140 -0.065759 0.073825 0.132425 -0.071195 -0.288678 0.172250 0.098261 0.200062 0.471054 -0.309850 -0.280513 -0.038818 -0.091874 -0.099196 0.041404 -0.041414 -0.211930 0.052922 0.681805 0.070380 -0.041423 -0.171177 -0.135529 -0.430780 -0.014461 0.035890 -0.050776 0.013094 -0.130360 -0.038715 -0.207633 -0.064153 -0.180833 -0.092625 -0.267525 -0.075027 0.392662 -0.114509 0.110359 -0.087331 0.345557 -0.138195 0.106619 0.059822 0.082566 0.077233
than -0.096352 0.188925 0.034674 0.365141 0.062441 -0.077705 -0.206588 -0.106731 -0.019667 0.265165 -0.002522 -0.062440 0.045327 -0.136824 -0.306093 -0.038837 0.086199 0.119826 -0.046966 0.243752 -0.294621 -0.060027 0.429764 0.188839 -0.219471 0.073649 -0.096012 -0.262339 0.041286 0.285821 0.183309 -0.096729 -0.304221 0.008147 -0.016032 0.106390 -0.175261 0.068910 -0.180861 -0.004431 -0.084218 -0.012664 0.046900 0.043705 0.298800 0.059560 0.124730 0.021534 0.220019 -0.047224
what 0.383579 0.169795 0.177105 0.669985 0.519945 0.192388 -0.124423 -0.184114 -0.123569 0.530469 -0.180348 0.060538 -0.301990 -0.212975 -0.212970 -0.258235 -0.008828 0.115842 0.084191 0.123952 -0.639967 -0.135876 0.147435 0.200794 0.010732 -0.040199 -0.126846 0.006660 -0.225653 0.299264 0.107349 -0.136302 -0.279657 0.306942 0.068681 -0.057210 -0.388235 -0.133897 -0.115408 0.288381 -0.228105 -0.048384 -0.012547 0.485186 -0.023409 -0.185236 -0.040562 0.057522 0.190920 -0.125942
disorders -0.097870 0.038629 -0.488935 -0.329444 -0.417095 -0.073794 -0.232144 0.479483 0.165951 -0.292909 -0.142446 -0.037447 -0.157863 0.119686 0.248063 0.506501 0.039121 0.073366 0.318797 0.286986 0.271492 -0.017550 -0.485751 -0.219237 0.059594 0.150399 0.157437 0.088215 0.211627 -0.557057 -0.219024 -0.071060 0.329295 0.151340 0.040806 0.353611 0.275437 -0.245991 0.337735 -0.170284 0.083685 -0.074190 0.025647 -0.075239 -0.364132 0.274973 -0.212709 0.258003 0.054539 -0.004079
language 0.015735 -0.173958 -0.134376 0.119218 0.107344 0.254153 -0.030371 -0.103803 0.235256 -0.004013 0.090793 -0.053254 -0.357357 -0.064663 -0.023732 -0.498196 0.187468 -0.051751 0.026350 -0.156410 0.051347 0.162250 0.252930 0.083878 -0.004346 -0.074545 -0.096737 0.435284 0.028621 0.336010 0.024936 -0.115916 0.034264 0.185271 0.082839 -0.077214 -0.044880 0.138330 -0.081892 -0.023312 -0.019651 -0.022348 0.058662 0.211231 -0.135480 0.263228 -0.005680 0.231567 0.168747 -0.204844
society 0.105446 0.112486 0.072418 0.036652 -0.005816 0.003054 -0.098933 0.036372 -0.014846 0.266781 0.017041 0.150752 0.094333 -0.127378 -0.130458 0.122614 -0.004246 -0.041792 0.203606 0.147627 -0.276017 -0.036205 0.421988 -0.014954 0.054383 -0.032279 -0.034199 -0.260871 0.017461 -0.034500 -0.058372 -0.101795 -0.161142 0.151756 -0.104085 0.139244 -0.038072 -0.064392 -0.116680 -0.183684 0.195250 -0.113019 0.042800 -0.012274 0.040276 -0.046593 -0.077108 0.249261 0.072542 -0.023081
use 0.066533 0.062113 0.358517 0.270721 0.303274 0.330342 0.156566 -0.047961 -0.140066 0.461286 0.102370 0.218897 0.104424 -0.314690 -0.187544 -0.245573 0.046568 -0.089563 0.077656 -0.004631 -0.578942 0.096624 0.426373 0.058110 0.171478 -0.110064 -0.056800 0.053363 -0.175070 0.143926 0.092589 -0.071850 -0.107712 0.201507 -0.028615 -0.025901 -0.351897 -0.225372 -0.152015 0.199515 0.156850 -0.071039 0.067243 0.341866 0.096760 -0.271417 0.130448 0.145654 0.385939 -0.007081
spectrum -0.026560 0.046711 -0.168134 0.144658 -0.142468 0.085941 -0.394203 0.639550 0.235070 0.196623 -0.096149 0.268095 -0.124818 0.041462 -0.021051 0.430532 0.359980 -0.003864 0.555929 0.561658 -0.514998 -0.087964 0.052533 -0.225785 0.248476 0.137226 0.213614 0.226362 0.129434 -0.176653 -0.016291 -0.236578 0.089170 0.115009 -0.072019 0.593058 -0.042661 -0.339504 0.027278 -0.112126 0.031850 -0.063995 -0.135464 0.112234 -0.246004 0.184363 -0.213529 0.518448 0.812787 -0.085475
syndrome 0.076232 0.016896 0.205637 -0.574752 -0.328794 -0.510453 -0.268640 0.595250 0.143114 0.005943 -0.308724 0.477121 0.067106 0.392515 0.344715 0.555388 -0.017903 -0.388627 0.223840 0.607886 -0.009246 -0.025048 -0.120121 -0.446892 -0.189932 -0.067245 -0.096940 -0.180609 0.106219 0.362060 0.014371 -0.380487 -0.395074 -0.224763 -0.041545 0.226269 0.276100 0.127293 -0.038748 -0.243915 0.233552 0.122828 -0.231613 -0.131321 0.165062 0.175257 -0.326624 0.217315 0.044886 -0.223813
groups -0.028124 -0.195996 0.132277 -0.140789 0.018361 0.151448 0.135024 -0.133563 -0.032502 0.076529 0.038871 0.064802 0.070909 -0.070286 -0.102352 -0.174245 0.179383 -0.045894 -0.023884 -0.076382 -0.049296 0.157649 0.340687 -0.017432 0.024913 -0.166058 -0.075554 0.160763 0.037623 0.126516 -0.025833 -0.065980 -0.085517 0.023767 0.078490 -0.103543 -0.020571 -0.074714 -0.046859 -0.064158 0.083123 -0.031042 0.098691 0.123364 -0.013721 -0.023341 0.125842 0.184266 0.194110 0.011284
he 0.104808 -0.045452 0.114916 -0.068610 0.052619 0.012014 0.056997 -0.078185 -0.029404 0.105591 -0.054691 0.062671 0.184572 -0.013422 0.030873 0.034914 -0.063520 -0.037329 -0.088822 -0.073973 -0.042448 -0.034045 0.024427 0.002498 0.017912 -0.021218 -0.008669 -0.167901 -0.016024 -0.101943 -0.130543 -0.011780 -0.124665 0.006952 -0.022325 -0.082925 0.000359 -0.077565 -0.023302 -0.021431 0.077896 -0.023896 0.056435 -0.033850 0.096375 -0.081029 -0.004798 0.013243 -0.164969 0.079249
used -0.045415 0.069233 0.179748 0.347774 0.277751 0.208717 0.005184 -0.262994 0.005792 0.216990 0.064978 -0.027691 0.034529 -0.271221 -0.333159 -0.353452 -0.033717 0.037347 -0.074244 -0.184590 -0.377465 0.057493 0.371498 0.164807 -0.056387 -0.144898 -0.056460 -0.047444 -0.035351 0.229669 0.125025 -0.016561 -0.155239 0.050352 0.010311 -0.033300 -0.199785 -0.015634 -0.251142 0.204823 0.099385 -0.068867 0.055925 0.112284 0.279468 -0.101827 0.020460 0.074133 0.114988 0.047716
anti 0.234637 -0.054168 -0.075427 0.049940 0.100609 0.132766 0.095603 -0.170281 0.026710 0.141606 0.084094 0.037585 -0.037865 -0.095472 0.161742 0.025991 -0.091165 0.211853 -0.017651 -0.168954 -0.055999 -0.027042 0.014785 0.036949 0.288496 -0.028665 -0.001731 -0.113134 -0.026725 -0.245109 -0.030495 0.065594 0.020544 0.216744 -0.131611 -0.114105 0.018238 -0.079154 0.145084 -0.087567 0.137459 0.008528 0.043408 0.076579 -0.048822 -0.183181 -0.051109 0.003567 -0.172138 0.086922
asperger 0.081788 -0.076150 0.190839 -0.572001 -0.297942 -0.338786 -0.238732 0.546699 0.173937 -0.035671 -0.253320 0.553789 -0.021936 0.275012 0.249905 0.437400 -0.014485 -0.441557 0.280876 0.519953 -0.011269 0.115422 0.020197 -0.394017 -0.131986 -0.120932 -0.074085 -0.023173 0.114608 0.483861 0.018667 -0.407523 -0.385418 -0.048688 -0.026934 0.204174 0.226230 0.161111 -0.114351 -0.274414 0.312096 0.144150 -0.236726 -0.058268 0.189074 0.181110 -0.291347 0.348462 0.135112 -0.316361
child -0.074646 0.260699 0.223223 0.263704 0.228980 0.027447 0.182895 -0.031513 -0.042671 0.102419 0.123029 -0.003634 -0.013792 0.013604 -0.165822 -0.201611 0.078742 -0.062068 -0.002870 -0.014837 -0.391430 0.068029 0.283204 -0.040715 -0.086178 -0.048399 -0.040273 0.118989 -0.068375 0.233225 0.235950 -0.048772 -0.026024 -0.185555 0.018145 0.023290 -0.310058 -0.059665 -0.067135 0.252502 0.076032 -0.070356 -0.043206 0.210770 0.182797 -0.117856 0.131745 0.037882 0.511470 0.042979
early -0.138921 -0.167970 -0.010743 -0.088803 -0.055491 0.026600 -0.068489 0.086214 0.108702 -0.028306 0.037946 0.216746 0.115556 0.013834 -0.221594 0.116317 0.180165 -0.164524 0.027844 0.175949 -0.153793 0.111963 0.169502 -0.118729 -0.060037 -0.006575 0.039299 0.235113 0.059503 0.143527 -0.034413 -0.071002 -0.046002 -0.129531 0.056652 0.222359 0.175136 -0.188118 -0.119098 0.038430 0.040274 0.025302 -0.041667 0.009821 0.034341 -0.028527 0.050563 0.235138 0.360592 -0.084088
so 0.161449 0.132144 0.312486 0.466569 0.336621 0.181988 -0.014291 -0.083881 -0.110109 0.378268 -0.051528 0.159621 -0.024681 -0.250344 -0.356467 -0.093484 0.013187 -0.049865 0.045268 0.132635 -0.619473 -0.095725 0.223978 0.192450 0.051323 -0.079734 -0.000681 -0.051378 -0.201333 0.223117 0.192396 -0.023450 -0.259445 0.068598 0.045644 0.003157 -0.343685 -0.176299 -0.171674 0.292418 -0.053140 0.040643 -0.027307 0.265709 0.184148 -0.208015 0.037761 -0.045201 0.231935 0.020911
them 0.093601 0.162193 0.042674 0.620367 0.468872 0.191613 -0.030368 -0.067985 0.058589 0.387819 -0.002008 -0.016992 -0.394048 -0.089427 -0.294134 -0.344279 0.117540 0.061682 0.107621 0.167714 -0.525517 0.073213 0.298971 0.176130 -0.074494 -0.014115 -0.098444 0.286274 -0.163317 0.435245 0.256413 -0.078900 -0.176880 0.172907 0.071502 0.077925 -0.333876 0.000669 -0.097999 0.274561 -0.204617 -0.052630 -0.073885 0.383773 -0.071774 -0.070953 0.018605 0.210841 0.506103 -0.187622
would -0.075211 0.202517 0.163711 0.279256 0.234400 0.074329 0.073716 -0.171604 -0.100591 0.205050 0.046486 -0.031159 0.109585 -0.137698 -0.205953 -0.075379 -0.009347 0.004412 -0.125846 0.014625 -0.356736 -0.014561 0.212074 0.162382 -0.081367 -0.044608 -0.028928 -0.150003 -0.085047 0.102006 0.139709 0.080551 -0.135448 -0.070191 -0.020254 0.027661 -0.208647 -0.126786 -0.076616 0.173702 0.002744 -0.061508 -0.015943 0.108190 0.292290 -0.184372 0.075754 -0.034279 0.136767 0.077585
however -0.048495 0.048273 0.412316 0.207186 0.169164 0.167752 0.041585 -0.098234 -0.108836 0.258676 0.074969 0.166073 0.256952 -0.257009 -0.342683 -0.053793 0.048886 -0.128213 0.065204 0.071547 -0.422247 -0.057463 0.449377 0.056151 0.037609 -0.177986 -0.047434 -0.159270 -0.063302 0.170835 0.087806 -0.048226 -0.128529 -0.047787 -0.008318 0.004113 -0.217115 -0.161503 -0.196309 0.120174 0.114705 -0.034057 0.047606 0.081859 0.257002 -0.151230 0.124148 0.034765 0.291735 0.014824
movements -0.049597 -0.120508 0.161718 -0.144702 -0.005527 0.159687 0.223057 -0.076000 -0.002236 0.053668 0.095932 0.040286 0.057660 -0.051661 -0.043267 -0.218625 0.094466 -0.134916 -0.081591 -0.221596 -0.160025 0.195899 0.183818 -0.026548 0.085507 -0.147190 -0.142038 0.233617 -0.031136 0.081501 0.030282 -0.020992 0.013722 0.040910 0.054559 -0.126945 -0.177807 -0.094272 -0.008064 0.018395 0.167514 0.003968 0.069689 0.121327 -0.001907 -0.098256 0.034954 -0.014116 0.145862 0.117687
those 0.061645 -0.077296 0.061087 0.490065 0.275529 0.141391 -0.195765 -0.013163 0.033090 0.364101 -0.085794 0.131463 -0.168688 -0.128765 -0.367361 -0.125019 0.235927 0.140755 0.122779 0.359990 -0.416250 -0.060492 0.367865 0.150887 0.022085 -0.027589 0.027720 0.144492 -0.093403 0.396551 0.126473 -0.123371 -0.285852 0.131008 0.076836 0.109286 -0.108729 0.016638 -0.212342 0.016376 -0.296230 0.009111 -0.008394 0.201368 0.024870 0.042801 0.119053 0.225686 0.409378 -0.167615
when -0.117322 0.064636 0.160598 0.064477 0.098181 0.010448 0.149987 -0.158811 -0.109367 0.031403 0.059174 -0.085828 0.252610 0.008344 -0.172105 0.020465 -0.049663 0.020635 -0.155077 -0.058303 -0.078531 0.020033 0.163718 0.097866 -0.126477 -0.047251 -0.031054 -0.216619 -0.070968 -0.012308 0.002909 0.103920 -0.083352 -0.109096 -0.008410 -0.048405 -0.096510 -0.111026 -0.085400 0.105016 0.043742 -0.075303 0.076217 -0.058850 0.301913 -0.151403 0.076887 -0.124533 -0.043394 0.127654
although 0.094252 0.027624 0.173367 0.347118 0.194248 0.141857 -0.080472 -0.000985 0.006649 0.266285 -0.043693 0.049365 -0.009598 -0.088733 -0.173795 -0.059965 0.116233 0.027307 0.069208 0.165946 -0.383986 -0.079359 0.166682 0.035144 0.081321 -0.049850 -0.018653 0.004388 -0.040738 0.136572 0.079917 -0.051760 -0.075393 -0.004310 0.048477 -0.005738 -0.160697 -0.098976 -0.072552 0.097435 -0.087214 0.002141 -0.023238 0.146616 0.044176 -0.016827 0.046711 0.063946 0.278843 -0.027337
do 0.519030 -0.035989 -0.071205 0.983229 0.637660 0.421985 -0.415563 0.049968 0.247721 0.596349 -0.217161 0.209063 -0.642282 -0.227085 -0.263305 -0.220213 0.156966 0.242200 0.264633 0.456824 -0.716450 -0.146280 0.129790 0.240405 0.198387 0.047458 0.072123 0.327603 -0.230423 0.492341 0.261545 -0.185796 -0.408240 0.482018 0.237522 0.075855 -0.326679 -0.140242 -0.173117 0.289130 -0.492406 0.058828 -0.103888 0.572163 -0.228398 0.083344 -0.131501 0.223485 0.441270 -0.320303
high -0.017878 -0.152537 -0.099509 0.201369 0.157474 0.180125 -0.251657 0.077368 0.126202 0.024208 -0.070902 0.169757 -0.419891 -0.081776 -0.133430 -0.250719 0.133299 0.118385 0.175287 0.141938 -0.091733 0.114724 0.218987 0.122356 -0.136426 -0.012598 0.015907 0.308234 -0.093439 0.501923 0.097397 -0.097101 -0.229177 0.251549 -0.009048 0.181246 0.031918 0.210439 -0.185084 -0.061294 -0.216392 -0.002488 -0.092675 0.132967 -0.020667 0.210460 -0.027059 0.086549 0.257318 -0.331045
post 0.437066 0.051399 -0.049070 -0.170147 -0.340186 0.022010 0.075905 0.509061 -0.139408 0.019785 0.003265 0.430789 -0.269640 -0.241480 0.211535 0.027273 -0.051718 -0.049635 0.311486 -0.213263 -0.056715 -0.175628 -0.722337 -0.095039 0.595551 0.028345 -0.001579 0.236021 -0.240429 -0.390028 0.091579 0.083253 0.188873 0.345558 -0.135133 0.051035 -0.227970 0.412644 0.091934 -0.292038 0.059776 0.420675 -0.202159 -0.239223 -0.457865 -0.138233 -0.406956 -0.413058 -0.503291 0.387480
property 0.149195 0.019316 0.174537 0.182735 0.167404 0.118023 -0.079905 -0.049340 -0.085857 0.275480 -0.054170 0.179107 0.028337 -0.152302 -0.069911 -0.069915 -0.054304 0.027009 0.090829 0.098217 -0.305383 -0.129377 0.178608 0.063067 0.003065 -0.029696 -0.028467 -0.097599 -0.079959 0.079762 0.024333 -0.118925 -0.185057 0.108833 -0.084772 0.026096 -0.131431 -0.096658 -0.099651 0.059163 -0.004235 -0.009834 0.037645 0.139839 0.042648 -0.073893 0.012734 0.075635 0.063920 -0.095782
term 0.007447 0.195377 0.368771 0.412531 0.339219 0.175660 0.091277 -0.101558 -0.151840 0.394019 0.121476 0.121792 0.258812 -0.272045 -0.192816 -0.154750 -0.020526 0.025518 -0.037958 -0.085475 -0.691378 -0.101868 0.291826 0.103929 0.159645 -0.059421 0.024137 -0.159317 -0.144011 -0.045435 0.158760 0.018473 -0.072820 0.022379 -0.193252 -0.026733 -0.374894 -0.117782 -0.178792 0.243342 0.131089 -0.064349 0.018479 0.117862 0.255505 -0.342181 0.052794 -0.040439 0.219392 0.173418
united -0.056905 -0.012759 -0.104476 -0.448978 -0.149974 -0.098073 0.361068 -0.136733 -0.047099 -0.380129 0.179838 -0.152957 0.384318 -0.018907 0.390585 0.093188 -0.039271 0.066906 -0.369932 -0.247116 0.443895 0.134894 -0.336044 -0.086622 -0.002309 0.196571 0.127069 -0.257430 -0.052371 -0.460546 -0.263038 0.324388 0.299111 -0.298783 -0.015587 -0.267191 0.094189 -0.040036 0.288309 0.116783 0.091498 0.045067 -0.015003 -0.240020 0.204083 -0.073739 0.149752 -0.294300 -0.259085 0.183009
autistics 0.187056 -0.128227 0.068806 0.473648 0.293933 0.250786 -0.115035 0.134056 0.055757 0.487188 -0.169410 0.168903 -0.282820 -0.130501 -0.127628 -0.090915 0.140031 0.148254 0.183232 0.350765 -0.454014 -0.096819 0.093015 0.130236 0.223940 -0.018688 0.093699 0.168383 -0.118321 0.164920 0.146230 -0.168164 -0.129783 0.287162 0.060106 -0.010731 -0.155519 -0.044773 -0.021384 0.103311 -0.275840 0.110219 -0.041348 0.371727 -0.164622 -0.017562 0.044134 0.170060 0.371378 -0.099562
been 0.245607 0.061687 0.221021 0.435467 0.270715 0.288270 0.068899 -0.117108 -0.095456 0.343478 0.053293 0.168804 -0.216170 -0.276976 -0.095609 -0.148783 -0.007921 0.049921 0.151012 -0.098077 -0.450405 -0.041563 0.217455 0.219043 0.282326 -0.213744 -0.054896 -0.002737 0.026970 0.219810 0.104469 -0.109841 -0.128831 0.097676 -0.018498 -0.211346 -0.235338 0.175121 -0.029078 -0.062917 0.067119 0.062385 -0.042757 0.119181 0.178123 -0.112702 -0.057962 -0.011588 0.102848 -0.043432
developmental -0.062197 0.085876 -0.565652 -0.175578 -0.303517 -0.033337 -0.240620 0.302088 0.299356 -0.297059 -0.229435 -0.266697 -0.305930 0.215606 0.387721 0.434709 -0.122906 0.261632 0.169077 0.154840 0.306458 -0.074187 -0.751299 -0.023357 -0.033473 0.229063 0.009406 -0.069846 0.158758 -0.580386 -0.101459 0.027211 0.283927 0.219363 0.088081 0.257958 0.194119 -0.190769 0.402008 -0.056914 -0.096898 0.020023 0.023461 -0.068190 -0.191777 0.207453 -0.330501 -0.050249 -0.205388 0.104121
different 0.011980 0.110933 0.156207 0.225462 0.189097 0.030031 -0.036940 -0.074468 -0.051226 0.258324 -0.032713 0.024591 0.028159 -0.130620 -0.144292 -0.034158 -0.032845 -0.011917 0.044309 0.025808 -0.275124 -0.044119 0.241570 0.089594 0.002558 -0.049276 -0.034847 -0.082217 -0.025927 0.109621 0.045710 -0.032979 -0.137915 0.027585 -0.060118 0.061882 -0.145864 -0.037350 -0.127815 0.042996 0.063852 -0.105268 0.015497 0.069678 0.073458 -0.114150 -0.011915 0.081380 0.080642 -0.020809
ideas -0.163295 -0.143378 0.063596 -0.479910 -0.251338 -0.125909 0.078799 0.082718 0.038207 -0.125971 -0.019545 0.063091 0.285889 0.175199 0.107811 0.138261 0.045453 -0.205189 0.006217 -0.044862 0.153580 0.154354 0.089041 -0.209657 -0.023935 -0.089076 -0.008922 -0.090694 0.232620 -0.020487 -0.116741 -0.102998 0.022721 -0.159759 -0.043569 -0.088928 0.124806 -0.042877 0.012681 -0.194510 0.247311 -0.023017 0.034758 -0.103167 0.068164 0.041166 -0.005420 0.136142 0.033328 -0.040183
others 0.108485 -0.067430 0.200814 0.099485 0.128991 0.229055 0.008922 -0.056681 -0.011169 0.298664 -0.032370 0.166906 -0.098123 -0.179022 -0.173739 -0.252316 0.062226 -0.118739 0.117309 -0.012100 -0.264343 0.122636 0.334250 0.092589 0.033433 -0.130399 -0.158490 0.124830 -0.070053 0.285825 0.061604 -0.127992 -0.172200 0.189205 0.081381 -0.092216 -0.215117 -0.069447 -0.142469 0.030989 0.092833 -0.020769 0.049686 0.212108 0.026985 -0.028388 0.014266 0.161867 0.178429 -0.060708
person -0.095652 0.174957 0.235813 0.570518 0.349558 0.069175 -0.072735 0.070382 -0.000518 0.366364 0.064153 0.052707 -0.031463 -0.090495 -0.343060 -0.159448 0.233297 0.003591 0.073207 0.187944 -0.668173 -0.068065 0.434487 0.099055 -0.035552 -0.011251 -0.027971 0.149955 -0.106096 0.316349 0.206384 -0.074679 -0.162081 -0.069501 -0.059530 0.176689 -0.309083 -0.085706 -0.228773 0.236940 -0.097311 -0.077529 -0.076713 0.164269 0.150330 -0.121398 0.065757 0.139256 0.643071 -0.037988
within 0.067926 0.015025 0.256822 -0.187078 -0.037256 0.041534 0.153530 0.094155 -0.214744 0.102898 0.077724 0.180561 0.268704 -0.188080 0.026244 0.040609 -0.059455 -0.047423 0.111713 -0.124729 -0.072078 -0.008654 0.071875 -0.072109 0.197204 -0.087003 0.008208 -0.134612 -0.058863 -0.220222 -0.082756 0.003607 0.070239 -0.008764 -0.136423 -0.067592 -0.084489 -0.034763 -0.008680 -0.030360 0.206387 0.025714 0.071776 -0.093562 -0.072138 -0.176627 0.049734 -0.096595 -0.060290 0.155437
due -0.112775 0.232398 0.152374 0.313538 0.317107 0.063789 0.161021 -0.109205 -0.171568 0.338105 0.016887 -0.075278 0.043330 -0.061089 -0.083074 -0.138083 -0.066696 0.041153 -0.105005 -0.023848 -0.394350 0.041941 0.134568 0.110578 -0.081758 0.052736 -0.058777 -0.016229 -0.208603 0.041310 0.104214 -0.002487 -0.064718 0.092980 -0.115669 0.018330 -0.298497 -0.121658 0.007253 0.276389 -0.017573 -0.097290 0.027702 0.263892 0.057207 -0.286700 0.052250 -0.013532 0.191975 0.029073
even -0.042191 -0.074559 0.124086 0.195704 0.180039 0.213463 0.029310 -0.134813 0.018252 0.198215 0.025741 0.018998 -0.052144 -0.144346 -0.155415 -0.305035 0.077503 -0.013482 -0.057529 -0.052339 -0.230782 0.099972 0.284489 0.123345 -0.047033 -0.079591 -0.089617 0.093546 -0.071358 0.243845 0.068301 0.002128 -0.148809 0.094868 -0.003350 -0.096147 -0.161842 0.011608 -0.130838 0.085268 0.011440 -0.030520 0.056015 0.159964 0.129311 -0.028546 0.054426 0.078951 0.173594 -0.004949
general -0.109823 -0.064783 0.171750 -0.102796 -0.117292 0.111008 0.143154 -0.082552 -0.049611 -0.003715 0.116849 0.087191 0.150620 -0.099543 -0.176232 -0.180758 0.144747 -0.131276 0.019816 -0.110177 -0.097288 0.165019 0.414865 0.044994 -0.062828 -0.190361 -0.158618 0.039251 0.058196 0.205756 0.016234 -0.035552 -0.068268 -0.088451 0.026630 -0.073258 -0.068242 0.027187 -0.113255 -0.024462 0.162208 0.026932 0.053540 -0.045446 0.193019 0.008776 0.113167 0.066979 0.203448 0.021544
had -0.112289 0.176333 0.169048 -0.071153 -0.046516 -0.064675 0.063693 -0.097728 -0.171665 -0.068023 0.055086 -0.029577 0.249064 -0.060619 -0.150276 0.080273 -0.075420 -0.087140 -0.142191 0.024158 0.013924 0.018764 0.165059 0.061347 -0.150944 -0.043867 -0.038862 -0.225407 -0.041607 -0.000509 -0.002048 0.120966 -0.050852 -0.136176 -0.030665 0.008745 0.027448 -0.096681 -0.118798 0.115745 0.108483 -0.035080 0.049884 -0.084816 0.234436 -0.102717 0.094121 -0.102907 -0.088060 0.093901
individuals 0.102847 -0.092024 0.127310 0.172066 0.194642 0.151602 0.038874 0.012005 0.053671 0.209902 0.038775 0.149795 -0.098537 -0.120603 -0.072316 -0.260423 0.184030 -0.025842 0.060896 0.023339 -0.287914 0.077638 0.300873 0.017927 0.134660 -0.071927 -0.016317 0.264953 -0.029843 0.206589 0.030112 -0.119449 -0.120857 0.110721 0.033046 -0.024522 -0.122602 -0.030914 -0.046030 -0.007990 -0.004121 -0.042072 0.007044 0.252059 -0.118360 0.009957 0.069218 0.212515 0.352039 -0.081137
no -0.056653 0.165592 0.029423 0.030637 -0.020392 -0.078794 -0.047349 -0.041180 -0.074693 0.030472 -0.059674 -0.052057 0.106039 0.018351 -0.101180 0.160429 -0.069388 -0.040027 -0.067628 0.111432 -0.019567 -0.111415 0.048596 0.095699 -0.166868 0.010969 0.019095 -0.277906 -0.032558 -0.024955 0.006150 0.061222 -0.079939 -0.131225 -0.044029 0.029862 0.033884 -0.043175 -0.076339 0.048502 0.004527 -0.053348 0.028055 -0.055144 0.190326 -0.008652 0.010707 -0.052092 -0.106134 0.031580
war 0.102066 -0.071028 0.022081 -0.082249 0.035135 0.100818 0.148122 -0.212441 -0.031771 -0.093001 0.123014 -0.109370 0.033899 0.016765 0.141126 -0.075997 -0.010081 0.024751 -0.245313 -0.303041 -0.063356 -0.012135 -0.064390 -0.026823 0.100444 -0.001917 -0.071423 0.036154 -0.000564 -0.104193 0.056055 0.102286 0.036859 0.031428 0.055819 -0.184005 0.005476 -0.156248 0.071026 0.135318 0.070995 0.058018 -0.027587 0.130436 0.025372 -0.139274 0.159079 -0.164656 -0.039503 0.190219
against 0.169145 -0.008045 0.051665 0.154730 0.129114 0.091137 0.037832 -0.052689 -0.016597 0.069055 -0.002565 0.011259 -0.021222 -0.135437 -0.021435 -0.068309 -0.017231 0.036697 -0.004181 -0.056716 -0.128381 -0.021706 -0.002283 0.003151 0.115061 -0.036567 -0.006641 0.011049 -0.022539 -0.049753 0.038941 -0.000809 0.003137 0.051020 0.057113 -0.096368 -0.042080 -0.056068 0.019585 0.107457 0.014289 0.009158 -0.020982 0.081558 0.022366 -0.031537 0.034255 -0.047374 -0.031312 0.061795
anarchy 0.180630 0.048123 -0.060206 -0.198368 -0.281122 -0.000085 0.097538 0.287247 -0.073962 -0.074688 0.012440 0.201897 -0.205844 -0.043281 0.144774 0.005635 -0.028729 -0.094394 0.075098 -0.170434 0.017232 -0.039674 -0.584611 -0.086570 0.294601 0.080218 -0.008613 0.253570 -0.198973 -0.259863 0.089069 0.112341 0.160283 0.182024 -0.001400 0.065493 -0.132767 0.205167 0.102443 -0.129312 -0.008986 0.290028 -0.161425 -0.139510 -0.313251 -0.141610 -0.245262 -0.294305 -0.339368 0.270034
authoritarian 0.115896 -0.082549 -0.017518 -0.167730 -0.019397 0.062618 0.096723 -0.077014 -0.001770 0.044217 0.072705 0.060775 0.059098 -0.078130 0.095631 0.009716 -0.046883 0.041807 -0.016314 -0.101527 0.094496 0.065842 0.081944 -0.071759 0.156441 -0.021757 0.019465 -0.036217 -0.002640 -0.176530 -0.131951 0.021079 0.026651 0.150348 -0.083482 -0.075141 0.089280 -0.086636 0.106329 -0.107530 0.172944 -0.009221 0.025346 0.043636 -0.081037 -0.081365 0.024245 0.080401 -0.100579 -0.000827
because 0.313479 0.024200 -0.012239 0.266681 0.177843 0.103491 -0.111701 0.064372 -0.040120 0.199162 -0.096229 0.113439 -0.146703 -0.152974 0.058481 -0.007220 0.007496 0.110002 0.113245 0.146639 -0.180596 -0.123011 -0.059626 0.000606 0.145724 0.062608 0.053656 -0.030398 -0.055363 -0.004296 -0.007219 -0.038172 -0.121708 0.201642 0.011955 -0.054641 -0.110350 -0.023197 -0.006099 0.021110 -0.108428 0.006059 0.007440 0.150113 -0.128948 0.042059 -0.077589 0.020398 -0.054372 -0.054984
example -0.055460 -0.086447 0.306464 0.036076 -0.107502 0.092059 0.019555 -0.028963 -0.142659 0.220709 0.087566 0.286053 0.258605 -0.166207 -0.326854 0.133298 0.134886 -0.138890 0.108967 0.219010 -0.296875 -0.069675 0.304912 -0.042238 0.036709 -0.149008 0.000488 -0.119816 -0.079855 0.098505 0.142232 -0.027831 -0.173750 -0.087889 -0.030622 0.108759 -0.064190 -0.109749 -0.127621 0.000911 0.048300 0.051799 0.069914 -0.077062 0.132391 -0.131936 0.156272 0.116000 0.217523 0.081567
non 0.129181 -0.035022 0.121210 0.372161 0.196863 0.186738 -0.082779 0.073310 0.078670 0.334784 0.041247 0.156461 -0.169348 -0.102259 -0.043487 -0.218773 0.257254 0.022290 0.166963 0.141206 -0.536804 -0.070639 0.298246 0.016984 0.242400 -0.020639 0.042986 0.226051 -0.012376 0.161613 0.177712 -0.146912 -0.032084 0.143302 -0.075452 0.011523 -0.240183 -0.044663 -0.051314 0.026128 -0.036725 0.030591 -0.065473 0.329880 -0.098113 -0.028475 0.047937 0.258452 0.541366 -0.053903
over -0.060590 0.086523 0.229399 0.006778 -0.017282 -0.019699 0.022018 -0.039387 -0.135018 0.080454 -0.003625 0.076347 0.184630 -0.150155 -0.285972 0.064560 -0.023181 -0.068152 0.038296 0.061931 -0.117530 -0.001766 0.276394 0.092901 -0.078754 -0.067205 -0.077352 -0.205990 -0.022346 0.116486 0.050171 0.006834 -0.098539 -0.031256 -0.002937 0.034605 -0.042333 -0.064186 -0.118718 -0.047111 0.097216 -0.006447 0.046324 -0.061007 0.196631 -0.136348 0.041419 0.045286 0.064613 0.065105
proudhon 0.085917 -0.024934 0.067845 -0.207973 -0.101019 -0.107318 -0.049531 0.105409 0.018545 -0.009292 -0.097863 0.120467 0.059444 0.091042 0.114037 0.127936 -0.029035 -0.089031 0.107251 0.098643 0.053727 -0.026229 -0.014839 -0.109356 -0.004756 -0.032886 -0.026755 -0.066732 0.076804 0.048197 -0.051449 -0.149933 -0.079560 -0.029377 -0.014609 -0.009600 0.093365 0.008682 0.015629 -0.132052 0.096590 0.029984 -0.027992 -0.036619 0.001156 0.054875 -0.066456 0.077313 -0.034540 -0.083619
will 0.258425 0.084930 0.042429 0.458173 0.373135 0.168918 0.003232 -0.119750 0.062051 0.336106 -0.064633 0.027907 -0.212887 -0.193156 -0.074810 -0.222857 -0.050993 0.039451 0.131957 -0.015216 -0.404823 -0.040141 0.040122 0.131685 0.144145 -0.060107 0.009270 0.113250 -0.163244 0.148546 0.128704 -0.052734 -0.158796 0.193571 0.114556 -0.050538 -0.269534 -0.094839 -0.022824 0.211859 -0.040341 -0.006351 -0.091064 0.299753 -0.045938 -0.138555 -0.081205 0.081160 0.099315 0.016944
capitalism 0.306043 -0.276094 -0.008175 -0.051686 -0.133604 0.144901 -0.066353 0.302769 -0.107480 -0.118353 -0.030283 0.179793 -0.102698 -0.097721 0.272919 -0.066174 -0.192340 0.089464 0.346396 -0.028502 0.119735 0.015011 -0.047260 0.086291 0.316162 -0.181718 -0.127696 0.249811 -0.053560 -0.000207 -0.005288 -0.100336 0.116835 0.240663 -0.166927 -0.175409 -0.029695 0.317899 -0.070010 -0.141352 0.111416 0.130006 0.049400 -0.212702 -0.343746 0.121972 -0.194566 -0.105310 -0.019832 -0.026779
communication -0.082959 -0.231578 -0.183968 -0.187914 -0.104925 0.130003 -0.127800 -0.135661 0.248553 -0.132813 -0.041049 -0.073486 -0.216556 -0.041253 -0.039069 -0.375735 0.005841 -0.099935 -0.055665 -0.214461 0.309676 0.238473 0.173320 0.106272 -0.150315 -0.088067 -0.083669 0.258601 0.088464 0.270994 -0.076044 -0.076233 -0.005182 0.179149 0.042749 -0.058714 0.104772 0.191419 -0.099037 -0.114751 0.086630 0.033484 0.085600 -0.012851 0.011965 0.275946 -0.064387 0.166112 -0.146949 -0.185357
if 0.171266 0.127744 -0.014276 0.258274 0.191040 0.026479 -0.130667 -0.095208 0.001822 0.244730 -0.097946 -0.028686 -0.090334 -0.132751 -0.059027 0.024194 -0.158524 0.071056 0.046466 0.092565 -0.159772 -0.102937 0.025476 0.129273 0.004543 0.073966 0.014357 -0.172758 -0.105401 -0.038627 0.068130 0.001438 -0.151058 0.137733 0.039673 0.030265 -0.054413 -0.069266 -0.004246 0.103545 -0.072269 -0.028438 -0.025233 0.040312 0.065368 -0.071538 -0.089060 -0.033921 -0.166155 0.007221
self 0.075063 -0.019785 0.126562 0.031776 0.089379 0.106689 0.065661 -0.047664 -0.020201 0.143997 0.034851 0.102260 0.071351 -0.124261 -0.045086 0.016366 -0.029799 -0.018702 0.016893 0.039151 -0.126759 -0.029300 0.054852 0.006072 0.102171 -0.003784 0.002556 -0.053730 -0.081483 -0.076199 -0.031851 0.014115 -0.097093 0.053660 0.022356 -0.052198 -0.075040 -0.121757 -0.020751 0.038921 0.060320 -0.014354 0.010952 0.069214 0.068433 -0.113461 0.041851 -0.006159 -0.031890 0.016566
while 0.256072 -0.040411 0.022074 0.266158 0.127843 0.164164 -0.117865 0.123178 0.010241 0.333826 -0.072058 0.194995 -0.204864 -0.173861 -0.067099 -0.102067 0.072377 0.074227 0.222571 0.124543 -0.292641 -0.060047 0.157895 0.033206 0.187513 -0.007846 -0.039986 0.051666 -0.081294 0.094472 0.031668 -0.155363 -0.129840 0.238229 -0.036145 -0.008501 -0.171000 0.029989 -0.111001 -0.069357 -0.066995 0.017261 -0.007257 0.124289 -0.104178 0.018935 -0.056307 0.129782 0.117503 -0.058094
workers 0.010210 -0.079314 0.089337 -0.266635 -0.053857 0.080454 0.165200 -0.028353 -0.079201 0.018226 0.087904 0.146732 0.245795 -0.106409 0.167340 0.045591 -0.020717 -0.104723 -0.005393 -0.136955 0.019304 0.115248 0.045725 -0.130243 0.176136 -0.049758 0.014752 0.015593 0.002070 -0.206146 -0.138821 0.073367 0.084467 0.069279 -0.051722 -0.119376 -0.035010 -0.155382 0.061864 -0.066364 0.231443 -0.060064 0.021445 0.015015 -0.054046 -0.123531 0.058203 0.046906 -0.061754 0.071417
both 0.048618 -0.116214 0.174594 -0.119582 0.029534 0.107197 0.132683 -0.123657 -0.044845 0.137749 0.033316 0.010387 0.094244 -0.072555 -0.020925 -0.162004 0.059220 -0.075883 -0.024095 -0.147988 -0.120126 0.109578 0.157302 0.022652 0.049559 -0.125400 -0.122554 0.158269 -0.012210 0.066824 -0.010610 -0.046971 -0.057888 0.084162 0.076122 -0.154435 -0.063237 -0.129526 -0.019654 0.045963 0.102469 0.021025 0.035587 0.112080 -0.032808 -0.119392 0.040658 0.058346 0.051919 0.059948
called 0.208713 -0.073257 0.048147 0.025362 0.079016 0.061075 0.042524 0.000193 -0.011420 0.093573 0.020374 0.126988 0.016001 -0.074365 0.067517 0.000302 -0.032828 -0.022457 0.005458 -0.074097 -0.147572 -0.040669 -0.063572 -0.028347 0.197353 -0.003958 0.022523 -0.000212 -0.040638 -0.096576 -0.074523 -0.012927 -0.061469 0.088950 -0.024987 -0.086529 -0.047707 -0.027080 0.037133 -0.017892 0.047379 0.041418 0.014714 0.055390 -0.081141 -0.079194 -0.014489 0.031406 -0.052673 0.079908
century -0.516104 -0.024604 -0.168887 -0.659394 -0.494985 -0.380624 0.241772 -0.091792 -0.120734 -0.659144 0.157638 -0.365700 0.389188 0.393696 0.043614 0.187241 -0.035666 -0.244989 -0.432124 -0.093262 0.719794 0.122382 -0.182204 -0.132181 -0.440357 0.034509 0.019232 -0.202318 0.099325 -0.204979 -0.136037 0.288468 0.221030 -0.345814 0.027745 0.030541 0.426918 0.053353 0.107415 0.029970 0.013771 -0.018974 -0.032812 -0.279092 0.207852 0.038544 0.186872 -0.232781 -0.170307 0.154512
cnt -0.459665 0.164662 0.111142 -0.141704 -0.097023 -0.190535 0.153698 -0.165332 -0.068490 -0.293075 0.181537 -0.235433 0.303201 0.143750 -0.213870 0.018238 0.066612 -0.085518 -0.279451 -0.123537 0.150348 0.082569 0.102069 -0.009492 -0.312053 0.002117 -0.050858 -0.069947 0.017162 0.082534 0.049509 0.193614 0.059458 -0.377662 -0.004438 0.057312 0.087449 -0.077341 -0.064813 0.162942 0.039597 -0.044063 0.010815 -0.158079 0.353535 -0.059868 0.200232 -0.160283 0.090208 0.127749
development -0.025499 -0.078187 0.057106 -0.164869 -0.031675 0.100023 0.053623 -0.084842 -0.036561 0.045532 0.052885 0.089107 0.056842 -0.048201 -0.042289 -0.114251 0.067906 -0.173181 -0.002144 -0.083646 0.020585 0.106687 0.199760 -0.031340 -0.039576 -0.093531 -0.075373 0.056151 0.057192 0.040510 -0.082380 -0.056977 0.014052 0.024369 0.005025 -0.106695 -0.020163 -0.029372 -0.017336 -0.044626 0.145982 -0.040191 0.061421 0.064359 0.000513 0.016285 0.079463 0.132072 0.021211 -0.038049
diagnosis 0.006680 0.170490 0.163310 0.045474 -0.022858 0.024058 -0.072955 0.106454 -0.158393 0.254679 0.011769 0.212358 0.152077 -0.179688 -0.201908 0.139002 -0.049002 -0.024990 0.197572 0.175151 -0.316656 -0.038832 0.334652 0.045408 0.016220 -0.013774 -0.031675 -0.267516 -0.083851 -0.022898 0.027115 -0.053102 -0.144227 0.118260 -0.161069 0.156757 -0.169116 -0.055533 -0.119079 -0.064326 0.161383 -0.060983 0.040022 -0.031758 0.113942 -0.094721 0.008169 0.103894 0.110259 -0.003179
functioning 0.112612 -0.246695 -0.255503 0.200906 0.148207 0.145853 -0.271978 0.207475 0.196853 0.102316 -0.135349 0.158599 -0.429511 0.029339 0.073710 -0.103057 0.217317 0.107854 0.226806 0.214899 -0.086572 0.057588 -0.001433 -0.043407 0.044814 0.062931 0.081409 0.367534 -0.047081 0.295912 -0.022284 -0.137212 -0.169348 0.263365 0.018248 0.160088 0.108232 0.146679 -0.072831 -0.119987 -0.237989 -0.051136 -0.149708 0.148523 -0.226093 0.294481 -0.111094 0.211207 0.231311 -0.279581
history -0.026741 0.052901 -0.070500 -0.321882 -0.220434 -0.118907 0.050134 0.076364 -0.066915 -0.302309 0.066137 -0.119343 0.054019 0.134162 0.270620 0.050383 0.031032 -0.039714 -0.023453 -0.048790 0.436850 0.118821 -0.023341 -0.195403 -0.088751 0.086144 0.045821 0.089530 0.050439 -0.078698 -0.257181 0.057117 0.150011 -0.167890 0.011073 -0.048494 0.185826 0.088591 0.150214 -0.088206 0.044684 -0.063340 0.045261 -0.186481 -0.130165 0.228634 0.057686 -0.046913 -0.261240 -0.109370
increase -0.062107 0.134963 0.138109 0.116471 0.139548 0.042634 0.119063 -0.061051 -0.103100 0.098968 0.051949 -0.025414 0.178418 -0.059891 -0.011731 -0.026872 0.006447 0.008606 -0.114708 -0.097859 -0.187372 -0.011660 0.099601 0.062570 0.032347 0.025036 -0.008313 -0.139484 -0.065430 -0.050250 0.004937 0.072219 -0.028563 -0.061687 -0.069579 -0.051704 -0.149414 -0.084701 -0.025591 0.085551 0.049352 -0.079979 0.027391 0.012166 0.195142 -0.125693 0.077015 -0.083405 0.022919 0.101977
into -0.022270 0.028635 0.058814 -0.046093 0.009680 -0.013551 0.127105 -0.032187 -0.085321 -0.032177 0.087102 0.023078 0.180252 -0.054178 -0.009648 0.069144 -0.034601 -0.055395 -0.081370 -0.073948 -0.044377 0.014874 -0.018675 -0.042358 0.046169 -0.023548 -0.011505 -0.001669 -0.044892 -0.095968 0.008762 0.074823 0.020084 -0.086458 0.015241 -0.049370 -0.011119 -0.068465 0.004114 0.061224 0.059658 0.030196 0.014647 -0.026731 0.054177 -0.099212 0.047761 -0.088750 -0.045562 0.147876
letter 0.085591 0.056060 0.089380 -0.041619 0.020695 0.046788 0.174375 0.019359 -0.106139 -0.017684 0.131570 0.050796 0.300079 -0.116936 0.182296 0.086136 -0.113032 0.051740 -0.110796 -0.117614 -0.037846 -0.039484 -0.105304 -0.046752 0.252913 0.065962 0.044300 -0.194351 -0.074472 -0.346062 -0.070102 0.163770 0.082020 0.005342 -0.127681 -0.128260 -0.034252 -0.096786 0.053658 0.036392 0.156576 0.006061 0.015635 -0.087465 0.140184 -0.136638 0.068546 -0.163008 -0.232582 0.235547
like 0.121039 -0.146037 -0.140664 0.009054 0.053946 0.040822 0.043323 -0.053542 0.105023 0.009854 -0.021985 -0.063621 -0.052767 0.058345 0.187160 -0.119549 0.114536 0.102205 -0.088155 -0.101308 0.042503 -0.001442 -0.075229 -0.042871 0.126582 0.026663 0.048722 0.100527 0.062841 -0.081390 -0.064609 -0.034837 0.037274 0.014070 0.024388 -0.121022 0.023447 0.027799 0.091494 -0.080962 -0.061933 0.010539 0.001832 0.024526 -0.071378 0.119393 0.016459 0.024212 -0.078127 -0.005027
new -0.167440 0.049279 -0.012275 -0.164720 -0.123389 -0.070197 0.087866 -0.041320 0.021027 -0.150651 0.047005 -0.089108 0.042543 0.090615 -0.064465 -0.030330 -0.029808 -0.031627 -0.073365 -0.051309 0.121727 0.078749 0.078043 0.003704 -0.132309 -0.027328 -0.088971 -0.038431 0.027268 0.026627 0.021525 0.063156 0.042182 -0.067780 0.000067 0.014289 0.057498 -0.000419 -0.019918 -0.015327 0.038350 -0.031318 0.010437 -0.067403 0.102064 -0.015567 0.005323 -0.039879 0.018670 0.050677
out -0.081279 0.048760 -0.042278 -0.099893 -0.004467 -0.047998 0.099202 0.051028 -0.062646 -0.021610 0.026476 -0.032064 0.042747 0.011341 0.062676 0.002423 -0.005451 -0.026733 0.050890 0.019372 0.117246 0.065707 0.039460 -0.082711 -0.049694 0.026636 0.039918 -0.011030 0.030271 -0.061189 -0.105142 0.059554 0.070532 0.006934 -0.028558 0.045472 0.009689 -0.040541 0.064509 -0.015658 0.105877 -0.111450 0.003387 0.009011 -0.068090 -0.000045 0.014174 0.106903 0.001676 -0.058458
snow 0.251893 -0.051705 -0.250985 0.020248 0.031330 -0.075415 -0.077358 0.083142 0.048726 0.004825 -0.039865 -0.064924 -0.066898 0.039587 0.374561 0.146047 -0.104112 0.133917 0.002838 -0.011658 0.190795 -0.184089 -0.429673 -0.088843 0.238489 0.264658 0.074308 -0.039807 -0.007384 -0.396961 -0.088060 0.086669 0.114478 0.158777 -0.049022 -0.075378 0.102397 0.018758 0.260708 0.002318 -0.131109 0.033083 -0.050178 -0.072564 -0.247050 -0.020474 -0.080968 -0.117706 -0.397946 0.081943
violence 0.127769 -0.103356 0.158612 -0.149236 -0.084173 0.184332 0.035369 0.051500 -0.045657 0.104978 0.033163 0.236163 -0.048147 -0.166380 -0.033639 -0.092027 0.009734 -0.118348 0.194120 -0.036707 -0.068898 0.082352 0.145959 0.027655 0.163734 -0.128200 -0.056931 0.104306 0.010588 0.094845 -0.010759 -0.117501 -0.021358 0.217519 0.017520 -0.071347 -0.074177 0.032728 -0.042306 -0.165250 0.134352 0.085204 0.014981 0.089114 -0.090066 -0.048405 -0.009772 0.086931 0.081131 -0.106756
another -0.179053 0.108630 0.074147 0.120517 0.030824 -0.092882 -0.077580 -0.060104 -0.013009 -0.003586 -0.059182 -0.105374 0.030686 0.021997 -0.229704 -0.031657 0.034790 0.010335 -0.053096 0.080162 -0.029559 -0.061203 0.147494 0.101559 -0.249635 -0.030714 -0.021999 -0.051736 0.020019 0.180925 0.053556 0.012275 -0.047551 -0.173441 0.016098 0.128414 0.006176 0.003300 -0.146439 0.070185 -0.105838 -0.011232 0.003399 -0.042699 0.130801 -0.003624 0.045186 -0.006687 0.141437 -0.074807
bakunin -0.140936 -0.145336 0.030354 -0.334797 -0.197877 -0.066093 0.063660 -0.041439 0.066504 -0.257799 0.011728 -0.070002 0.018172 0.211681 0.018815 0.022154 0.073918 -0.118377 -0.093871 -0.118075 0.210625 0.170949 -0.024473 -0.024096 -0.124636 -0.099520 -0.097926 0.181165 0.129146 0.157398 0.006431 -0.041555 0.036699 -0.107719 0.117638 -0.069458 0.138981 0.004115 0.010893 -0.053374 0.067341 0.059957 0.016168 -0.045172 0.045536 0.029324 -0.003414 0.024295 0.018400 -0.047295
being -0.063235 -0.030050 0.117410 0.126565 0.103130 0.147168 -0.015041 -0.069182 0.012486 0.101916 0.034738 0.083143 -0.088933 -0.104908 -0.217403 -0.202227 -0.022961 0.037052 0.029646 0.030617 -0.201586 0.080067 0.189160 0.134108 -0.055894 -0.050507 -0.048004 0.100296 -0.112829 0.271987 0.154247 -0.067181 -0.128978 0.087196 0.031545 0.053617 -0.095857 -0.000124 -0.101869 0.104079 -0.040899 0.051144 0.010206 0.121276 0.099663 -0.055631 0.071903 0.009380 0.198373 -0.100647
information 0.010715 -0.163237 -0.121813 0.130103 -0.081655 0.046586 -0.132504 0.147110 0.079651 0.141883 -0.041445 0.136863 -0.133353 0.072956 -0.098213 0.153216 0.142006 -0.048826 0.160689 0.229950 -0.189350 -0.002399 -0.098219 -0.060452 0.059288 0.068270 0.040836 0.186336 -0.047010 0.048889 0.100315 -0.086544 -0.064284 0.009040 0.046636 0.211112 0.090648 -0.064196 -0.032328 -0.009305 -0.187863 0.068843 -0.086276 -0.015599 -0.189675 0.038816 -0.051765 0.188643 0.258579 -0.018491
left 0.327998 0.029669 -0.145397 -0.260226 -0.320268 -0.009175 0.126295 0.388365 -0.080338 -0.096057 0.020177 0.242449 -0.175797 -0.070045 0.319391 0.078835 -0.045708 -0.048236 0.095285 -0.225420 0.087961 -0.140690 -0.825367 -0.158942 0.488260 0.122043 0.055024 0.267444 -0.224212 -0.492806 0.017095 0.174594 0.239557 0.240619 -0.047626 0.024216 -0.133792 0.221544 0.183416 -0.179661 0.003204 0.346808 -0.186799 -0.190395 -0.445550 -0.151812 -0.320884 -0.398123 -0.538947 0.375319
modern -0.019826 -0.038765 0.228161 -0.190307 -0.050361 0.092058 0.198528 0.015908 -0.137251 -0.015868 0.108973 0.133359 0.299263 -0.132858 0.020133 -0.080895 0.002866 -0.110099 -0.011091 -0.174832 -0.033706 0.104462 0.138731 -0.079296 0.153117 -0.117450 -0.067375 -0.032440 -0.013672 -0.144497 -0.054317 0.046753 0.056600 -0.051554 -0.060978 -0.158719 -0.090742 -0.080602 -0.013424 0.017880 0.237081 0.006110 0.050356 -0.067729 0.053451 -0.078473 0.089709 -0.050130 0.003485 0.169942
part -0.123108 0.104343 0.311296 -0.117907 -0.020268 0.057130 0.064901 -0.025463 -0.212197 0.130345 0.038780 0.189346 0.311130 -0.255903 -0.260351 -0.004572 -0.031368 -0.150920 0.118747 0.018298 -0.168404 0.053377 0.419590 -0.025720 -0.046287 -0.123266 -0.038378 -0.197499 -0.066534 0.064841 -0.070288 0.003280 -0.068695 -0.031268 -0.037158 0.060528 -0.142013 -0.165588 -0.155392 0.019687 0.244685 -0.121236 0.061726 0.017178 0.123738 -0.090941 0.134364 0.067072 0.141174 0.021919
pervasive -0.085135 0.017645 -0.617226 -0.205518 -0.303380 -0.109192 -0.161613 0.186534 0.297048 -0.456067 -0.180346 -0.369615 -0.285749 0.291822 0.408949 0.383374 -0.123833 0.267131 0.020881 0.055460 0.524540 -0.086070 -0.848384 -0.022919 -0.087405 0.221614 0.023029 -0.049287 0.187252 -0.562106 -0.107046 0.092299 0.340295 0.088068 0.149167 0.150426 0.304452 -0.114109 0.420767 -0.038826 -0.173991 0.043580 0.030968 -0.126802 -0.195668 0.250051 -0.244386 -0.161699 -0.342000 0.105794
world -0.070637 -0.004309 0.153287 -0.303497 -0.103642 -0.045588 0.237533 -0.049812 -0.173372 -0.124196 0.116289 0.036269 0.382726 -0.035155 0.140504 0.096721 -0.081506 -0.118711 -0.174362 -0.156626 0.145272 -0.002520 -0.073930 -0.137427 0.087204 -0.038716 0.016423 -0.138457 0.002250 -0.240954 -0.126367 0.137008 0.104813 -0.125554 -0.033807 -0.130747 0.037844 -0.155815 0.097277 0.058910 0.184228 0.030556 0.017151 -0.071597 0.085137 -0.133243 0.142327 -0.084034 -0.182679 0.157504
after -0.474580 0.102457 0.098274 -0.322793 -0.308127 -0.278947 0.190170 -0.131126 -0.120456 -0.478938 0.132273 -0.251261 0.311585 0.247005 -0.188540 0.140458 -0.022741 -0.149419 -0.302683 -0.147942 0.340706 0.091192 0.002457 0.017009 -0.417407 -0.038289 -0.078096 -0.150839 0.095849 0.047040 0.060979 0.214275 0.128812 -0.440164 0.017060 0.052527 0.141146 0.032411 -0.051598 0.096821 0.067568 0.023729 0.013340 -0.290264 0.311259 -0.040364 0.148537 -0.244012 -0.043705 0.141454
age -0.470540 0.096940 -0.089128 -0.340157 -0.259494 -0.263081 0.095615 -0.134551 0.001592 -0.445298 0.061086 -0.336758 0.034363 0.291437 -0.065343 -0.003699 -0.067008 -0.086227 -0.337637 -0.202074 0.564789 0.142129 -0.075194 0.038153 -0.481267 0.038733 -0.071475 -0.055206 0.064764 0.054482 -0.013454 0.223788 0.148529 -0.342151 0.017228 0.077510 0.196563 0.100510 0.005422 0.028018 -0.073166 -0.022008 0.029274 -0.260928 0.120362 0.071161 0.052147 -0.183258 -0.162996 0.011338
areas -0.155020 0.016819 -0.049900 -0.194326 -0.153660 -0.064498 0.078333 0.058617 -0.041578 -0.206254 0.028979 -0.089983 0.039812 0.057470 0.011791 -0.026089 0.061203 0.017694 -0.030794 0.016872 0.322325 0.086773 0.047255 -0.092166 -0.106523 0.001906 -0.006120 -0.024650 0.106451 -0.071669 -0.091423 0.048300 0.155438 -0.156834 0.038420 -0.045791 0.116161 0.048178 0.086418 -0.077142 0.010006 -0.047935 0.032150 -0.086351 -0.069848 0.160594 0.096946 0.003615 0.039570 -0.035584
certain 0.092729 0.038540 -0.024641 0.113333 0.100607 0.028361 -0.077546 0.071938 0.063348 0.075619 -0.019026 0.044403 -0.169150 -0.060741 0.038091 -0.060637 0.008901 0.035447 0.109056 0.055464 -0.144313 -0.033868 0.040044 0.029839 0.025663 -0.018658 -0.063249 0.061815 -0.006406 0.096404 0.047614 -0.084746 -0.036690 0.117988 -0.000059 -0.005007 -0.088602 0.063059 -0.037335 -0.053435 -0.015567 0.015033 -0.037870 0.073774 -0.025208 0.037583 -0.051822 0.093772 0.089785 -0.061762
common -0.008801 0.122457 0.146434 0.285766 0.097215 -0.012997 -0.178360 -0.025362 -0.020409 0.264153 -0.059971 0.056724 0.126890 -0.067253 -0.181835 0.063282 0.059102 0.082637 0.030023 0.136204 -0.355364 -0.205926 0.245000 0.101832 -0.027193 -0.026023 0.002601 -0.212333 -0.011431 0.057982 0.092438 -0.079834 -0.153609 -0.087505 -0.114214 0.102552 -0.089135 -0.066837 -0.172799 0.019695 -0.034430 -0.045449 0.018579 -0.017891 0.148427 -0.039669 -0.035782 0.031482 0.142376 0.019639
during -0.209092 0.054356 0.176732 -0.209039 -0.087486 -0.075475 0.213689 -0.055631 -0.134705 -0.157840 0.111797 -0.060110 0.403189 0.065346 0.011830 0.143545 -0.048329 -0.137317 -0.209770 -0.131323 0.042481 0.039587 -0.050237 -0.107754 -0.047750 0.001045 0.001166 -0.153970 -0.011127 -0.195490 -0.044926 0.159154 0.094640 -0.234812 -0.061587 -0.053008 0.009707 -0.157244 0.028207 0.113340 0.155488 0.010301 -0.013982 -0.117846 0.198376 -0.177166 0.138703 -0.145092 -0.057455 0.207686
effect 0.128232 0.046247 0.144900 -0.025495 0.002713 -0.054974 0.066811 0.034841 -0.127566 0.157499 -0.015404 0.115808 0.372838 -0.072290 0.190222 0.181540 -0.071980 0.014799 -0.025279 -0.042061 -0.085545 -0.285514 -0.207925 -0.167392 0.170892 0.104321 0.097783 -0.279677 -0.052162 -0.432757 -0.171878 0.037245 0.047300 -0.003557 -0.158122 -0.065988 -0.036119 -0.159457 0.053807 -0.033625 0.040704 -0.029959 -0.017102 -0.071357 -0.080468 -0.150753 0.044671 -0.160062 -0.247645 0.133127
emirates 0.061407 -0.115796 -0.412299 -0.394517 -0.152324 -0.222574 0.163493 0.019213 0.085352 -0.482944 -0.000178 -0.229360 0.051736 0.221590 0.575225 0.214971 -0.078675 0.118429 -0.281940 -0.141299 0.623841 0.016783 -0.736124 -0.138069 0.067994 0.282891 0.194027 -0.089942 0.016548 -0.561306 -0.239963 0.267582 0.326885 -0.169143 0.024685 -0.164399 0.309775 0.092988 0.424608 0.038449 -0.112784 0.097113 -0.059235 -0.221581 -0.140317 0.088744 -0.039683 -0.282000 -0.444571 0.105697
feminist 0.382493 -0.171998 -0.373112 0.006634 0.102886 0.022124 -0.118165 0.104638 0.174743 0.197352 -0.126510 0.067831 -0.119688 0.085631 0.541258 0.169673 -0.099014 0.147558 0.146604 -0.109886 0.007432 -0.132697 -0.531042 -0.117670 0.479195 0.180991 0.191596 -0.007236 0.124978 -0.475009 -0.145276 -0.143967 0.116859 0.262836 -0.074040 -0.089099 0.126277 -0.066687 0.295567 -0.209074 -0.025655 -0.034427 0.039262 0.055471 -0.445167 -0.034468 -0.246900 0.084905 -0.368486 -0.011613
including 0.235950 -0.120586 0.024007 -0.154257 0.018843 0.147297 0.143843 0.068063 -0.055473 0.062172 0.023808 0.161976 0.085250 -0.146162 0.271224 -0.008952 -0.032325 -0.017412 0.067400 -0.119662 0.030269 0.037842 -0.153303 -0.109278 0.396595 0.017106 0.017585 0.071001 -0.053976 -0.305521 -0.157901 -0.037249 0.093737 0.227398 -0.040707 -0.178430 -0.042201 -0.057896 0.158452 -0.057414 0.134906 0.033105 0.007768 0.079817 -0.240489 -0.090256 0.014247 -0.013115 -0.176144 0.119060
lack 0.018303 0.063517 -0.014175 -0.007628 0.015628 0.072417 -0.055497 0.072261 -0.026471 0.205960 -0.059511 0.099547 -0.125961 -0.131268 0.024936 -0.145231 -0.015570 -0.033052 0.176007 0.098741 0.004384 0.105776 0.242800 0.012310 0.025369 0.032798 -0.036776 -0.046005 -0.018835 0.057443 -0.079232 -0.057676 -0.012687 0.281113 -0.039640 0.060893 -0.070534 0.029327 -0.030651 -0.123097 0.123159 -0.151849 0.071259 0.118818 -0.152279 0.072108 -0.041479 0.247308 0.017796 -0.164640
means 0.074612 0.077981 0.217814 0.042131 0.093075 0.116715 0.065182 -0.011376 -0.160688 0.251689 0.046657 0.185841 0.133429 -0.263408 -0.127984 -0.065817 -0.066491 -0.061212 0.106344 0.019620 -0.226354 0.032077 0.251497 0.000485 0.115056 -0.070349 0.009927 -0.119478 -0.118484 -0.009571 -0.027647 0.014384 -0.098468 0.127232 -0.044833 0.015185 -0.141327 -0.110262 -0.058024 0.020304 0.175266 -0.059598 0.013022 0.116127 0.050110 -0.148687 0.063453 0.080169 0.052954 0.055784
mental -0.021283 -0.002084 -0.207436 -0.455029 -0.305352 -0.109996 -0.010152 0.196180 -0.075515 -0.238092 -0.016266 0.039137 0.023529 0.023355 0.181750 0.217400 -0.131134 -0.070006 0.111101 0.037588 0.430820 0.080272 -0.175401 -0.203736 0.001353 0.064322 0.070357 -0.033966 0.067796 -0.322299 -0.228843 -0.017780 0.188612 0.154761 -0.035802 0.040162 0.175902 -0.012878 0.165528 -0.179616 0.193748 -0.078099 0.069097 -0.076152 -0.272068 0.134004 -0.038639 0.133281 -0.273380 -0.071659
much 0.109467 -0.040441 -0.071169 0.140356 0.061440 0.046059 -0.047699 -0.037722 0.063100 0.157629 -0.038882 -0.021628 -0.041322 -0.027392 0.066040 -0.045416 0.077389 0.093406 -0.027252 0.024050 -0.120317 -0.059738 0.003607 0.015419 0.096948 0.027472 0.025413 -0.033104 0.030644 -0.060935 -0.023014 -0.056735 -0.046191 0.020770 -0.009987 -0.085025 -0.054145 0.002925 0.031051 -0.066299 -0.057816 0.004345 -0.018351 0.010313 0.003535 0.092834 0.014177 0.044218 -0.049810 0.011723
national -0.120595 0.020390 0.017108 -0.317444 -0.337019 -0.193562 0.076662 0.150521 -0.148373 -0.227735 0.051616 0.061419 0.161648 0.079833 -0.015860 0.159827 -0.006967 -0.132755 0.041634 0.068960 0.328055 0.021760 -0.047703 -0.215379 -0.099584 -0.000606 0.020125 -0.132468 0.032209 -0.149605 -0.075519 0.036019 0.183398 -0.114577 -0.062388 0.077722 0.124544 0.079770 0.015388 -0.120891 0.088396 -0.001572 0.029346 -0.232194 -0.050092 0.071834 0.109909 -0.015018 -0.106083 0.005999
number -0.182609 0.188151 0.314907 -0.227652 -0.114203 -0.016689 0.057054 0.040593 -0.238941 0.106378 0.069144 0.196068 0.297680 -0.206423 -0.263516 0.035099 -0.008177 -0.187920 0.152503 0.085307 -0.135028 0.111866 0.574941 -0.020129 -0.107609 -0.098490 -0.082041 -0.266646 -0.036399 0.093115 -0.074345 -0.009305 -0.047030 -0.014876 -0.118068 0.126625 -0.108412 -0.084707 -0.192847 -0.127908 0.338267 -0.152459 0.083484 -0.046932 0.144107 -0.099585 0.118550 0.186994 0.185984 -0.020894
revolution -0.345987 0.066063 -0.049402 -0.429242 -0.272205 -0.261762 0.248408 -0.064691 -0.031289 -0.546535 0.177645 -0.315719 0.348271 0.244229 0.087760 0.138032 -0.038165 -0.101267 -0.363582 -0.189916 0.530297 0.066121 -0.188654 -0.174782 -0.250200 0.103312 0.031422 -0.082340 0.056452 -0.233295 -0.123134 0.278151 0.231855 -0.416884 0.045677 -0.068223 0.215955 -0.053232 0.101958 0.073872 0.056833 -0.058826 0.008577 -0.282406 0.171748 0.039980 0.144692 -0.250580 -0.231406 0.137747
sometimes 0.164666 -0.110393 -0.006264 0.258640 0.215853 0.176326 -0.055418 -0.014132 0.142092 0.096813 0.053372 0.072255 -0.200111 -0.084125 0.021872 -0.214187 0.124575 0.055888 0.037333 -0.042325 -0.252278 -0.026564 0.081108 0.078521 0.188631 -0.056372 0.016087 0.228682 0.015900 0.142704 0.085815 -0.097373 -0.044480 0.055831 0.041039 -0.092488 -0.130792 0.054916 0.009616 0.019226 -0.067184 0.057737 -0.011789 0.172161 -0.034106 0.071952 0.014160 0.081512 0.242214 -0.053019
states 0.053095 -0.014954 -0.209534 -0.224030 -0.121351 -0.091505 0.193356 -0.092855 0.029195 -0.271982 0.111424 -0.144035 0.272590 0.054554 0.435896 0.172324 -0.070130 0.144490 -0.285899 -0.162028 0.353854 -0.008780 -0.488442 -0.097594 0.038664 0.201330 0.175300 -0.148223 -0.016584 -0.436005 -0.212369 0.251648 0.260585 -0.176896 -0.013204 -0.184122 0.071929 -0.078869 0.233266 0.070982 0.002193 0.026778 -0.052093 -0.170291 0.075800 -0.081534 0.058602 -0.243811 -0.328724 0.157390
system -0.006277 0.011287 -0.040541 -0.089825 -0.022173 -0.020521 0.096681 0.015339 -0.013456 -0.023305 0.080255 0.002798 0.117577 0.031916 0.130709 0.044640 -0.004012 0.003484 -0.058636 -0.052142 0.081517 -0.036402 -0.070896 -0.083111 0.059895 0.040599 0.010532 -0.050115 0.011864 -0.225485 -0.122702 0.050411 0.096033 -0.004298 -0.057784 -0.040191 0.038964 -0.108624 0.110307 -0.015519 0.064925 -0.061433 0.013254 -0.016785 -0.051903 -0.045532 0.039580 -0.034638 -0.111047 0.043885
work 0.029706 -0.025951 -0.102493 0.124701 0.075487 0.018272 0.001114 -0.014309 0.141032 -0.006728 0.002376 -0.057115 -0.183637 0.080378 0.012060 -0.142362 0.014460 0.042482 -0.021449 -0.021552 -0.001369 0.021959 -0.070030 0.027321 -0.013203 -0.009618 -0.000330 0.189780 0.001847 0.114930 0.032351 -0.016786 -0.017202 0.070835 0.058170 -0.024575 -0.012987 0.087213 0.039925 0.043209 -0.105563 0.025248 -0.057050 0.106715 -0.080377 0.035641 -0.048243 0.049246 0.074323 -0.065429
behavior 0.150481 -0.056620 -0.057195 0.007836 0.073380 0.093029 -0.040736 0.025460 0.008106 0.131897 -0.043283 0.078028 -0.125513 -0.051945 0.127800 -0.037879 -0.060960 -0.022268 0.101927 0.045862 0.027491 -0.007016 -0.058396 -0.011872 0.103613 0.052206 -0.005846 -0.019179 -0.052550 -0.036347 -0.110932 -0.038146 -0.000542 0.232898 -0.016280 -0.028756 -0.038493 0.035089 0.025974 -0.050831 0.030123 -0.075957 0.032658 0.095021 -0.149613 0.016433 -0.089178 0.100219 -0.142624 -0.110854
believe 0.367175 -0.009066 -0.055421 0.528443 0.320850 0.217699 -0.225115 0.062292 0.122206 0.352838 -0.198986 0.134790 -0.363679 -0.150822 -0.064528 -0.109678 0.019541 0.163514 0.153586 0.242083 -0.271800 -0.129544 0.027297 0.154234 0.184826 0.044859 0.091922 0.092848 -0.108386 0.184011 0.076642 -0.143489 -0.174337 0.310147 0.129244 0.016067 -0.129093 -0.034367 -0.040982 0.068523 -0.273311 0.031919 -0.040536 0.280365 -0.123763 0.075616 -0.094363 0.121539 0.089919 -0.168257
class -0.026682 -0.047760 0.011634 0.028530 0.053849 0.059198 0.113864 -0.048818 0.039220 -0.030514 0.099111 0.042518 0.035343 -0.049571 -0.028565 -0.066596 0.087896 -0.049621 -0.077907 -0.043259 -0.014870 0.042622 0.031793 -0.076496 0.055899 0.012065 0.041445 0.097082 -0.046937 -0.013183 -0.077526 0.001453 -0.005536 -0.043297 0.054166 -0.026101 -0.038268 -0.074625 0.024000 0.076098 0.037587 -0.018010 -0.004261 0.065192 0.016854 -0.041050 0.096877 0.025693 0.079457 0.012872
culture 0.202245 0.063677 0.021772 0.420393 0.203666 0.073193 -0.163757 0.037418 0.055970 0.316074 -0.061910 0.076648 -0.186699 -0.074148 0.038605 -0.083263 0.018127 0.131429 0.139840 0.033052 -0.385731 -0.172746 0.015418 0.055517 0.191383 0.038380 0.045111 0.034374 -0.020497 0.014727 0.104829 -0.091016 -0.066833 0.140841 -0.114389 0.021925 -0.196315 0.054049 -0.063863 0.019707 -0.070227 -0.022553 -0.066712 0.147854 -0.063251 -0.063090 -0.137711 0.016305 0.102135 -0.013834
human 0.059095 -0.076040 0.031636 -0.168260 -0.027951 0.052684 0.097407 -0.040509 -0.055035 -0.045552 0.033655 0.031486 0.044061 -0.070651 0.084234 -0.109040 -0.019467 -0.070786 -0.024583 -0.106989 0.144573 0.105213 0.052682 -0.061052 0.077479 -0.033125 0.012341 0.041279 0.018102 -0.063778 -0.114438 0.014799 0.046757 0.029526 0.009730 -0.155623 0.050907 0.004245 0.048566 -0.038723 0.102612 0.015926 0.042621 0.009026 -0.042173 0.021107 0.065604 0.047198 -0.159541 0.010454
include 0.228423 -0.154976 -0.108599 -0.058827 0.010515 0.087100 0.041319 0.003740 0.054406 0.070364 -0.011272 0.055617 -0.053494 -0.016693 0.214907 0.001234 -0.015531 0.021669 0.011966 -0.120505 0.009957 0.025355 -0.197206 -0.045924 0.252289 0.036644 0.055096 0.137496 -0.008704 -0.161026 -0.058022 -0.018412 0.057893 0.154869 0.044020 -0.096177 0.007816 -0.048910 0.141232 -0.071636 -0.003075 0.022407 -0.000585 0.088135 -0.173817 -0.036829 -0.076911 0.002635 -0.157222 0.059755
individual -0.104554 0.065320 0.145468 -0.075753 -0.056780 -0.091448 0.005666 0.033329 -0.085718 0.039378 0.046555 0.076904 0.206358 -0.022213 -0.073892 0.101319 0.028838 -0.123910 -0.005644 0.062202 -0.112780 0.015218 0.141415 -0.078119 -0.039101 -0.001999 0.032796 -0.122830 0.043498 0.006621 -0.014789 -0.004448 -0.016700 -0.070415 -0.051665 0.072767 -0.006747 -0.099841 -0.048071 0.019192 0.140140 -0.048937 0.038361 -0.034301 0.065189 -0.077768 0.079022 0.043506 0.084510 0.006898
interaction -0.150774 -0.186487 -0.180447 -0.323631 -0.159147 -0.002267 -0.026053 -0.244076 0.153508 -0.288567 0.019190 -0.199525 -0.106850 0.083385 -0.064896 -0.355878 -0.025673 -0.120939 -0.256382 -0.257879 0.493973 0.227724 0.087929 0.088171 -0.306543 -0.089177 -0.068076 0.204974 0.152528 0.250238 -0.034050 -0.027277 0.080949 -0.069230 0.074330 -0.089501 0.210955 0.193616 -0.064952 -0.016566 0.072439 0.096173 0.109956 -0.070549 -0.006060 0.240366 0.026326 0.068941 -0.258173 -0.159485
international -0.111189 -0.061163 -0.149078 -0.204658 -0.077784 -0.114726 0.135450 -0.071122 0.035292 -0.360161 0.087788 -0.175709 0.183294 0.160028 0.216505 0.144224 -0.084426 0.068219 -0.243754 -0.210492 0.321868 0.000534 -0.380955 -0.078046 0.028103 0.094836 0.076921 -0.010324 0.076059 -0.353159 -0.087454 0.197305 0.188753 -0.210469 0.012259 -0.116629 0.160053 -0.084622 0.165363 0.069360 0.020560 0.013608 -0.018143 -0.186957 0.064624 -0.018741 0.058613 -0.209630 -0.289288 0.131202
island -0.336311 -0.052267 -0.380514 -0.398722 -0.349004 -0.354321 -0.047615 0.001800 0.080370 -0.674171 0.043946 -0.365448 0.175612 0.500172 0.077180 0.380783 -0.168594 0.052921 -0.284903 -0.097371 0.765385 -0.131238 -0.647464 -0.025030 -0.217054 0.105365 0.190786 -0.218526 0.227975 -0.206780 -0.058222 0.214172 0.313211 -0.364479 -0.034776 0.055551 0.323755 0.126501 0.130895 -0.027169 -0.123024 0.066816 -0.072286 -0.322770 0.034944 0.100459 -0.014589 -0.259416 -0.309834 0.024110
later -0.113818 -0.018180 0.067932 -0.111147 -0.023799 -0.023990 0.125261 -0.067057 -0.011792 -0.112252 0.031821 -0.079517 0.139150 0.010878 -0.006553 -0.022774 0.005773 -0.045532 -0.132683 -0.067503 0.135567 0.044577 0.021467 -0.016981 -0.052073 -0.033947 -0.006516 -0.030744 -0.004551 -0.063424 -0.040389 0.098486 0.053449 -0.114883 0.034807 -0.085415 0.015005 -0.051353 0.019476 0.031815 0.030575 -0.010861 0.022611 -0.057878 0.121110 -0.021787 0.097659 -0.062263 -0.037981 0.063261
least -0.620829 0.119483 0.196212 -0.396605 -0.332895 -0.348147 -0.020154 -0.348619 -0.182931 -0.460244 0.100201 -0.280759 0.273711 -0.013224 -0.384267 -0.036565 -0.029633 -0.097536 -0.230686 -0.225712 0.341774 0.120392 0.264644 0.007367 -0.576623 -0.135626 0.024157 -0.203560 0.174582 0.375055 0.016124 0.180701 -0.070970 -0.384385 0.062343 0.138559 0.194719 0.206989 -0.251371 -0.020244 0.131335 -0.084347 0.088767 -0.270642 0.269589 0.036603 0.129849 -0.121398 -0.099157 0.043173
must 0.369245 0.035399 0.052930 0.461350 0.429108 0.199003 0.028658 -0.143140 -0.000568 0.414011 -0.046131 0.065435 -0.198121 -0.226801 -0.013725 -0.151871 -0.048226 0.098547 0.090272 -0.007983 -0.412917 -0.075827 0.015616 0.043660 0.231661 -0.025419 0.029396 0.056769 -0.127564 0.006713 0.084777 -0.062121 -0.136842 0.162227 0.117336 -0.110469 -0.228359 -0.091599 0.037722 0.138389 -0.052749 -0.042910 -0.053115 0.252630 -0.026331 -0.100496 -0.050143 0.060724 0.022602 0.066245
normal 0.056277 -0.004175 -0.113297 0.032486 0.060440 0.004667 -0.028222 -0.009008 -0.019243 0.015537 -0.016585 -0.058217 -0.071876 0.052669 0.140149 0.047304 -0.041565 0.024332 -0.036119 -0.021100 0.064051 -0.046029 -0.236053 -0.025464 -0.003358 0.068359 0.018359 0.011462 -0.020896 -0.134098 -0.042421 0.030590 0.086157 0.073387 -0.032595 -0.030642 0.009849 -0.002258 0.092220 0.050205 -0.059321 -0.025992 0.008297 0.018873 -0.136079 -0.046364 -0.026696 -0.032234 -0.173993 0.003269
oil -0.152247 0.052523 -0.296310 -0.229821 -0.249374 -0.218648 -0.020870 0.009028 0.091699 -0.466810 0.027654 -0.328732 -0.067700 0.298686 0.236563 0.108887 -0.029780 0.065086 -0.164657 -0.080430 0.537539 0.012458 -0.301677 -0.040007 -0.158297 0.104131 0.035251 -0.005043 0.108819 -0.144982 -0.092646 0.144474 0.229743 -0.193855 0.024640 0.010355 0.274857 0.136284 0.131666 -0.058993 -0.100784 -0.001460 -0.009189 -0.270129 -0.057532 0.168979 -0.009743 -0.148259 -0.292553 0.004814
right 0.080300 0.030599 0.019997 0.073014 0.111512 0.070132 0.080631 0.018683 -0.045545 0.058420 0.011943 0.032906 0.034085 -0.063519 0.126556 0.012917 -0.065340 0.071747 -0.014635 0.001785 -0.048034 -0.012504 -0.055840 -0.001798 0.129824 0.078759 0.065359 -0.062281 -0.066812 -0.110390 -0.005581 0.068089 0.016055 0.074473 -0.042908 -0.069993 -0.047815 -0.065501 0.077379 0.037097 0.015617 -0.004292 0.019282 0.086079 0.018994 -0.047733 0.058513 -0.051004 -0.091822 0.028196
since -0.013409 -0.015689 0.016340 -0.080307 -0.031407 -0.013947 0.133121 0.020056 0.006807 -0.120985 0.081409 -0.066384 0.085665 0.053025 0.113824 -0.008792 0.040945 -0.028071 -0.080303 -0.094974 0.041508 -0.002311 -0.144795 -0.094868 0.091124 0.027252 0.059194 0.067708 0.001902 -0.140853 0.001877 0.062164 0.180994 -0.090231 -0.010977 -0.086062 -0.032163 -0.052283 0.110100 0.037559 0.029839 0.055615 -0.043918 0.005324 -0.038037 -0.052258 0.067356 -0.096669 0.024825 0.096694
spanish -0.268168 -0.015972 -0.155135 -0.332100 -0.244983 -0.175833 0.128384 -0.194385 0.049811 -0.554365 0.144075 -0.355067 0.147247 0.257055 0.091423 0.057172 -0.018079 0.004130 -0.393275 -0.285940 0.491109 0.012603 -0.200009 -0.096878 -0.203562 0.078414 0.003654 -0.066739 0.129056 -0.148949 -0.049233 0.219761 0.188592 -0.311980 0.079556 -0.107871 0.260998 0.005332 0.079253 0.050959 -0.004199 0.008653 -0.029300 -0.200052 0.144608 0.092932 0.178865 -0.249752 -0.199941 0.149986
th -0.644607 0.017752 -0.246550 -0.735090 -0.600904 -0.527538 0.170245 -0.087641 -0.065717 -0.851758 0.129919 -0.481193 0.348334 0.544369 0.013830 0.285445 -0.043844 -0.238714 -0.486286 -0.070345 0.909071 0.101516 -0.270533 -0.107520 -0.618962 0.056065 0.016079 -0.235480 0.173627 -0.145432 -0.092865 0.316443 0.252017 -0.476846 0.053914 0.115800 0.547680 0.114858 0.096678 0.015176 -0.046319 -0.004833 -0.040013 -0.394574 0.268477 0.115958 0.155194 -0.296988 -0.208653 0.116723
time -0.020914 0.093950 0.106230 -0.105325 -0.007710 -0.008771 0.107680 -0.115393 -0.126846 -0.013051 0.051693 -0.039098 0.145355 -0.062836 0.058819 -0.028176 -0.007413 -0.055335 -0.075161 -0.066980 0.057443 0.013289 0.075893 -0.062410 -0.020834 -0.008115 0.044570 -0.082361 -0.002348 -0.063103 -0.100138 0.094706 0.031821 -0.040721 0.027516 -0.076481 -0.027831 -0.032924 0.018868 0.013588 0.081985 -0.076667 0.061663 -0.012613 0.012271 -0.040013 0.090757 -0.019862 -0.175769 0.035786
years -0.484098 0.113162 -0.029078 -0.307099 -0.270947 -0.313508 0.116276 -0.173254 -0.010715 -0.507781 0.080101 -0.351955 0.142042 0.265272 -0.133058 0.051092 -0.037665 -0.055688 -0.381429 -0.163414 0.523500 0.093055 -0.022812 0.071980 -0.502709 0.011501 -0.058324 -0.139867 0.106041 0.048577 -0.004479 0.227815 0.149237 -0.424582 0.009952 0.047435 0.194184 0.092454 -0.010330 0.032825 -0.047322 -0.007743 0.039821 -0.308586 0.274063 0.076158 0.120360 -0.225787 -0.153470 0.025839
al 0.047060 -0.039731 -0.165175 -0.197600 -0.130550 -0.097612 -0.060438 0.056801 0.051135 -0.152418 -0.110072 -0.120487 -0.044577 0.170551 0.257049 0.151050 -0.025763 0.020397 -0.006314 -0.000664 0.313903 -0.053435 -0.251840 -0.090666 -0.010824 0.083633 0.083010 0.007998 0.058321 -0.187748 -0.152649 0.024749 0.145978 -0.016970 0.045602 -0.027923 0.168980 0.016208 0.149113 -0.117408 -0.063561 -0.010191 0.018053 -0.119926 -0.172160 0.132103 -0.028828 -0.054983 -0.290468 -0.020419
alphabet 0.081470 -0.051255 -0.162378 -0.070247 0.035905 -0.034350 0.136249 0.059404 0.034166 -0.165954 0.071384 -0.109786 0.098003 0.098606 0.372756 0.113289 -0.087562 0.091983 -0.178842 -0.099343 0.204527 -0.028680 -0.470416 -0.149033 0.199433 0.163841 0.128568 0.029620 -0.041628 -0.448445 -0.099647 0.150145 0.205258 -0.042521 -0.034660 -0.136134 0.081625 -0.092954 0.229277 0.083379 -0.048832 0.006750 -0.025191 -0.061157 -0.089021 -0.048721 0.034550 -0.147853 -0.278022 0.161268
area -0.148584 0.066927 0.123168 -0.117980 -0.037835 -0.054548 0.075233 -0.034507 -0.075064 -0.021785 0.085440 -0.027504 0.120737 -0.034500 -0.084041 -0.028885 -0.033992 -0.116448 -0.014364 -0.088293 -0.000769 0.064451 0.137332 0.019051 -0.073421 0.002012 -0.111587 -0.023140 -0.021933 0.007129 0.013679 0.053204 0.021567 -0.006594 -0.031277 0.021457 -0.029080 -0.023951 -0.025691 0.043563 0.084086 -0.015643 0.008716 -0.065392 0.068141 -0.123605 0.047941 -0.017231 -0.005104 0.063452
around -0.172852 0.028151 -0.030365 -0.183802 -0.141294 -0.128699 0.105327 -0.058025 -0.011238 -0.278981 0.035626 -0.129680 0.168550 0.106592 -0.007285 0.085089 -0.020393 -0.008189 -0.175190 -0.096098 0.260741 -0.007159 -0.128891 -0.037393 -0.140942 -0.005706 0.000097 -0.073569 0.101402 -0.094467 -0.020697 0.119536 0.136911 -0.214927 0.031309 -0.019088 0.128457 -0.032930 0.062640 0.024802 0.019835 0.036129 0.010082 -0.120500 0.111494 -0.003979 0.086477 -0.108404 -0.092049 0.084022
body 0.017325 -0.038127 0.006744 0.102799 0.132425 0.122892 -0.016844 0.049280 0.148242 0.114309 0.011290 0.010735 -0.137474 0.017420 0.062724 -0.209483 0.116384 -0.014242 0.025559 0.012849 -0.109758 0.080672 0.121759 -0.014285 0.041910 0.018824 -0.038994 0.195576 -0.043812 0.136302 0.040196 -0.035051 -0.052174 0.136231 -0.007494 -0.018819 -0.118839 0.030301 -0.066804 0.014403 -0.014104 -0.062931 -0.016045 0.142151 -0.028099 0.082056 -0.007172 0.121456 0.157217 -0.074271
